{"learner":{"attributes":{"scikit_learn":"{\"_estimator_type\": \"regressor\"}"},"feature_names":["price_eur_mwh","hour","minute","day_of_week","month","is_holiday","is_15min_era","price_lag_1h","price_lag_24h","price_lag_168h","volatility_24h","total_renewable","renewable_penetration","residual_load","temperature_2m","wind_speed_10m","solar_irradiance","solar_penetration_ratio","solar_squared","is_peak_solar_window"],"feature_types":["float","float","float","float","float","float","float","float","float","float","float","float","float","float","float","float","float","float","float","int"],"gradient_booster":{"model":{"cats":{"enc":[],"feature_segments":[],"sorted_idx":[]},"gbtree_model_param":{"num_parallel_tree":"1","num_trees":"100"},"iteration_indptr":[0,1,2,3,4,5,6,7,8,9,10,11,12,13,14,15,16,17,18,19,20,21,22,23,24,25,26,27,28,29,30,31,32,33,34,35,36,37,38,39,40,41,42,43,44,45,46,47,48,49,50,51,52,53,54,55,56,57,58,59,60,61,62,63,64,65,66,67,68,69,70,71,72,73,74,75,76,77,78,79,80,81,82,83,84,85,86,87,88,89,90,91,92,93,94,95,96,97,98,99,100],"tree_info":[0,0,0,0,0,0,0,0,0,0,0,0,0,0,0,0,0,0,0,0,0,0,0,0,0,0,0,0,0,0,0,0,0,0,0,0,0,0,0,0,0,0,0,0,0,0,0,0,0,0,0,0,0,0,0,0,0,0,0,0,0,0,0,0,0,0,0,0,0,0,0,0,0,0,0,0,0,0,0,0,0,0,0,0,0,0,0,0,0,0,0,0,0,0,0,0,0,0,0,0],"trees":[{"base_weights":[2.3654861E-6,-2.954939E1,2.7340424E1,-1.6827932E1,-6.2997643E1,1.61932E1,6.553262E1,-9.786121E0,-3.484492E1,-8.726147E1,-5.0533756E1,7.083094E0,2.7920778E1,5.989032E1,2.2418745E2,-1.2218973E1,1.1612096E1,-3.9870907E1,4.2496222E-1,-1.0423691E2,-5.4894424E1,-3.1114084E1,-6.148354E1,3.9994893E0,1.6393293E1,2.5296354E1,4.7913532E1,5.165592E1,8.152159E1,1.2475936E2,3.490701E2,-9.3814766E-1,-3.6409158E-1,1.8547375E-2,9.151103E-1,-1.5053843E0,-3.1171021E0,1.1459974E0,-4.6297604E-1,-7.0674744E0,-4.6710854E0,-4.652064E0,-2.156304E0,-7.704039E-1,-2.1162956E0,-3.445707E0,-9.5488214E-1,1.063303E0,1.09848455E-1,7.234967E-1,1.6835803E0,1.5084358E0,7.4442416E-1,5.9479606E-1,2.7996655E0,2.4489515E0,4.6472716E0,5.288446E0,2.98161E0,5.3360763E0,7.700953E0,7.4868393E0,2.2841587E1],"categories":[],"categories_nodes":[],"categories_segments":[],"categories_sizes":[],"default_left":[0,0,0,0,0,0,0,0,0,0,0,0,0,0,0,0,0,0,0,0,0,0,0,0,0,0,0,0,0,0,0,0,0,0,0,0,0,0,0,0,0,0,0,0,0,0,0,0,0,0,0,0,0,0,0,0,0,0,0,0,0,0,0],"id":0,"left_children":[1,3,5,7,9,11,13,15,17,19,21,23,25,27,29,31,33,35,37,39,41,43,45,47,49,51,53,55,57,59,61,-1,-1,-1,-1,-1,-1,-1,-1,-1,-1,-1,-1,-1,-1,-1,-1,-1,-1,-1,-1,-1,-1,-1,-1,-1,-1,-1,-1,-1,-1,-1,-1],"loss_changes":[5.6406268E7,1.427652E7,1.5438288E7,3.0839235E6,2.79148E6,2.9991075E6,7.320772E6,9.101275E5,1.21092E6,1.717338E6,1.297325E6,4.5356494E5,6.42746E5,1.405258E6,3.445582E6,5.069785E5,1.342333E5,1.30986E6,1.8604023E5,8.1203E5,4.81276E5,3.87633E5,1.228888E6,3.694185E5,1.30149375E5,5.498145E5,4.1344725E5,6.2921E5,1.150747E6,6.69525E4,2.595175E6,0E0,0E0,0E0,0E0,0E0,0E0,0E0,0E0,0E0,0E0,0E0,0E0,0E0,0E0,0E0,0E0,0E0,0E0,0E0,0E0,0E0,0E0,0E0,0E0,0E0,0E0,0E0,0E0,0E0,0E0,0E0,0E0],"parents":[2147483647,0,0,1,1,2,2,3,3,4,4,5,5,6,6,7,7,8,8,9,9,10,10,11,11,12,12,13,13,14,14,15,15,16,16,17,17,18,18,19,19,20,20,21,21,22,22,23,23,24,24,25,25,26,26,27,27,28,28,29,29,30,30],"right_children":[2,4,6,8,10,12,14,16,18,20,22,24,26,28,30,32,34,36,38,40,42,44,46,48,50,52,54,56,58,60,62,-1,-1,-1,-1,-1,-1,-1,-1,-1,-1,-1,-1,-1,-1,-1,-1,-1,-1,-1,-1,-1,-1,-1,-1,-1,-1,-1,-1,-1,-1,-1,-1],"split_conditions":[9.208E1,7.5773233E-1,1.3709E2,1.98E2,-1.1E-1,1.1091E2,3.1502E2,1.2051E2,6E0,6E0,2.5702303E-3,1.1135E2,6E0,1.7532E2,1.6209E2,7.707E1,9.388E1,4E0,1E1,-1.909E1,-2.998E1,5E0,6E0,2E0,6E0,4E0,6E0,6E0,2E0,1.3659E2,1.1E1,-9.3814766E-1,-3.6409158E-1,1.8547375E-2,9.151103E-1,-1.5053843E0,-3.1171021E0,1.1459974E0,-4.6297604E-1,-7.0674744E0,-4.6710854E0,-4.652064E0,-2.156304E0,-7.704039E-1,-2.1162956E0,-3.445707E0,-9.5488214E-1,1.063303E0,1.09848455E-1,7.234967E-1,1.6835803E0,1.5084358E0,7.4442416E-1,5.9479606E-1,2.7996655E0,2.4489515E0,4.6472716E0,5.288446E0,2.98161E0,5.3360763E0,7.700953E0,7.4868393E0,2.2841587E1],"split_indices":[0,12,0,16,0,0,0,9,3,3,17,9,3,0,9,0,8,3,1,0,0,4,3,4,3,3,1,3,3,9,4,0,0,0,0,0,0,0,0,0,0,0,0,0,0,0,0,0,0,0,0,0,0,0,0,0,0,0,0,0,0,0,0],"split_type":[0,0,0,0,0,0,0,0,0,0,0,0,0,0,0,0,0,0,0,0,0,0,0,0,0,0,0,0,0,0,0,0,0,0,0,0,0,0,0,0,0,0,0,0,0,0,0,0,0,0,0,0,0,0,0,0,0,0,0,0,0,0,0],"sum_hessian":[6.9817E4,3.3553E4,3.6264E4,2.4309E4,9.244E3,2.8072E4,8.192E3,1.7479E4,6.83E3,3.135E3,6.109E3,1.58E4,1.2272E4,7.912E3,2.8E2,1.5695E4,1.784E3,5.978E3,8.52E2,2.055E3,1.08E3,2.204E3,3.905E3,1.187E4,3.93E3,1.085E4,1.422E3,5.733E3,2.179E3,1.57E2,1.23E2,6.748E3,8.947E3,6.66E2,1.118E3,4.169E3,1.809E3,2.56E2,5.96E2,4.61E2,1.594E3,2.53E2,8.27E2,9.19E2,1.285E3,3.322E3,5.83E2,1.121E3,1.0749E4,3.538E3,3.92E2,7.389E3,3.461E3,2.61E2,1.161E3,5.386E3,3.47E2,1.032E3,1.147E3,1E2,5.7E1,4.4E1,7.9E1],"tree_param":{"num_deleted":"0","num_feature":"20","num_nodes":"63","size_leaf_vector":"1"}},{"base_weights":[5.440727E-4,-2.8747318E1,2.538432E1,-1.7723816E1,-6.3417885E1,1.4923777E1,6.2263157E1,-1.081468E1,-3.6698086E1,-8.36223E1,-5.0573635E1,6.353258E0,2.6525198E1,5.6897743E1,2.131324E2,-1.3109193E1,9.834318E0,-4.124555E1,-3.5012188E0,-9.969707E1,-5.2633163E1,-5.7231792E1,-1.905314E1,3.3369615E0,1.57564E1,2.4031744E1,4.552024E1,4.907436E1,7.74493E1,1.2060561E2,3.3448514E2,-8.057974E-1,-1.8463593E-2,1.1391721E0,2.1594742E-1,-1.6113204E0,-3.1601539E0,-1.3191803E0,2.5036535E-1,-6.714865E0,-4.4686465E0,-4.420377E0,-2.0583005E0,-2.0506003E0,-3.8333776E0,-3.5668411E0,-6.513553E-1,1.0048894E0,8.212728E-2,6.753611E-1,1.5637852E0,1.4330242E0,7.072138E-1,5.651698E-1,2.6598027E0,2.3265264E0,4.4155755E0,5.02428E0,2.8326595E0,5.071914E0,7.5182266E0,2.3473766E1,9.233692E0],"categories":[],"categories_nodes":[],"categories_segments":[],"categories_sizes":[],"default_left":[0,0,0,0,0,0,0,0,0,0,0,0,0,0,0,0,0,0,0,0,0,0,0,0,0,0,0,0,0,0,0,0,0,0,0,0,0,0,0,0,0,0,0,0,0,0,0,0,0,0,0,0,0,0,0,0,0,0,0,0,0,0,0],"id":1,"left_children":[1,3,5,7,9,11,13,15,17,19,21,23,25,27,29,31,33,35,37,39,41,43,45,47,49,51,53,55,57,59,61,-1,-1,-1,-1,-1,-1,-1,-1,-1,-1,-1,-1,-1,-1,-1,-1,-1,-1,-1,-1,-1,-1,-1,-1,-1,-1,-1,-1,-1,-1,-1,-1],"loss_changes":[5.094897E7,1.2511812E7,1.4303134E7,3.2564165E6,2.045388E6,2.872072E6,6.61991E6,8.6304975E5,1.000881E6,1.523056E6,1.012783E6,4.7119306E5,5.80195E5,1.268474E6,3.114833E6,6.2790325E5,1.3002741E5,1.152922E6,1.558884E5,7.0922E5,4.2710225E5,1.254049E6,2.649841E5,3.57265E5,1.4042194E5,4.96207E5,3.7313825E5,5.68216E5,1.038669E6,7.65815E4,2.360289E6,0E0,0E0,0E0,0E0,0E0,0E0,0E0,0E0,0E0,0E0,0E0,0E0,0E0,0E0,0E0,0E0,0E0,0E0,0E0,0E0,0E0,0E0,0E0,0E0,0E0,0E0,0E0,0E0,0E0,0E0,0E0,0E0],"parents":[2147483647,0,0,1,1,2,2,3,3,4,4,5,5,6,6,7,7,8,8,9,9,10,10,11,11,12,12,13,13,14,14,15,15,16,16,17,17,18,18,19,19,20,20,21,21,22,22,23,23,24,24,25,25,26,26,27,27,28,28,29,29,30,30],"right_children":[2,4,6,8,10,12,14,16,18,20,22,24,26,28,30,32,34,36,38,40,42,44,46,48,50,52,54,56,58,60,62,-1,-1,-1,-1,-1,-1,-1,-1,-1,-1,-1,-1,-1,-1,-1,-1,-1,-1,-1,-1,-1,-1,-1,-1,-1,-1,-1,-1,-1,-1,-1,-1],"split_conditions":[9.115E1,7.8903234E-1,1.3709E2,2.4E2,-1.1E-1,1.1091E2,3.1502E2,1.21E2,6E0,6E0,6E0,1.1135E2,6E0,1.7532E2,1.7135E2,6E0,2E0,4E0,2.2E-1,-1.909E1,-2.998E1,4E0,6E0,2E0,1.381E2,4E0,6E0,6E0,2E0,1.3659E2,5.0876364E-2,-8.057974E-1,-1.8463593E-2,1.1391721E0,2.1594742E-1,-1.6113204E0,-3.1601539E0,-1.3191803E0,2.5036535E-1,-6.714865E0,-4.4686465E0,-4.420377E0,-2.0583005E0,-2.0506003E0,-3.8333776E0,-3.5668411E0,-6.513553E-1,1.0048894E0,8.212728E-2,6.753611E-1,1.5637852E0,1.4330242E0,7.072138E-1,5.651698E-1,2.6598027E0,2.3265264E0,4.4155755E0,5.02428E0,2.8326595E0,5.071914E0,7.5182266E0,2.3473766E1,9.233692E0],"split_indices":[0,12,0,16,0,0,0,9,3,3,3,9,3,0,9,3,3,3,0,0,0,3,1,4,8,3,1,3,3,9,12,0,0,0,0,0,0,0,0,0,0,0,0,0,0,0,0,0,0,0,0,0,0,0,0,0,0,0,0,0,0,0,0],"split_type":[0,0,0,0,0,0,0,0,0,0,0,0,0,0,0,0,0,0,0,0,0,0,0,0,0,0,0,0,0,0,0,0,0,0,0,0,0,0,0,0,0,0,0,0,0,0,0,0,0,0,0,0,0,0,0,0,0,0,0,0,0,0,0],"sum_hessian":[6.9817E4,3.2739E4,3.7078E4,2.4842E4,7.897E3,2.8886E4,8.192E3,1.8212E4,6.63E3,3.067E3,4.83E3,1.6614E4,1.2272E4,7.912E3,2.8E2,1.6391E4,1.821E3,5.831E3,7.99E2,2.018E3,1.049E3,3.987E3,8.43E2,1.258E4,4.034E3,1.085E4,1.422E3,5.733E3,2.179E3,1.6E2,1.2E2,1.3261E4,3.13E3,5.43E2,1.278E3,4.135E3,1.696E3,2.16E2,5.83E2,4.61E2,1.557E3,2.53E2,7.96E2,2.175E3,1.812E3,8.6E1,7.57E2,1.154E3,1.1426E4,3.525E3,5.09E2,7.389E3,3.461E3,2.61E2,1.161E3,5.386E3,3.47E2,1.032E3,1.147E3,1E2,6E1,6.2E1,5.8E1],"tree_param":{"num_deleted":"0","num_feature":"20","num_nodes":"63","size_leaf_vector":"1"}},{"base_weights":[1.0246561E-3,-3.1322247E1,2.1103966E1,-2.0260612E1,-6.107142E1,1.0264994E1,5.382352E1,-1.1688266E1,-3.5010784E1,-4.0898193E1,-7.325256E1,2.554723E0,2.1408136E1,4.9677933E1,2.0263698E2,-1.3852782E1,7.52104E0,-4.0597645E1,-1.2428228E0,-1.0638344E1,-4.7620937E1,-8.122395E1,-4.5339962E1,-3.578009E-1,1.3779024E1,1.9139639E1,3.800435E1,4.1870255E1,7.077223E1,1.12681564E2,3.156234E2,-8.357819E-1,-1.3815787E-1,9.038968E-4,9.6107644E-1,-1.6152066E0,-2.9473476E0,1.0869535E0,-5.6488305E-1,-9.5418054E-1,1.2862024E0,-2.817112E0,-1.3891593E0,-6.205264E0,-3.6513963E0,-4.200601E0,-1.6938457E0,-1.1977839E-1,5.975943E-1,6.42045E-1,2.4807255E0,1.1872852E0,4.8452973E-1,1.5437151E0,3.5789192E0,1.968768E0,3.659189E0,4.5365176E0,2.6592271E0,4.820829E0,6.9531145E0,6.5624475E0,2.076944E1],"categories":[],"categories_nodes":[],"categories_segments":[],"categories_sizes":[],"default_left":[0,0,0,0,0,0,0,0,0,0,0,0,0,0,0,0,0,0,0,0,0,0,0,0,0,0,0,0,0,0,0,0,0,0,0,0,0,0,0,0,0,0,0,0,0,0,0,0,0,0,0,0,0,0,0,0,0,0,0,0,0,0,0],"id":2,"left_children":[1,3,5,7,9,11,13,15,17,19,21,23,25,27,29,31,33,35,37,39,41,43,45,47,49,51,53,55,57,59,61,-1,-1,-1,-1,-1,-1,-1,-1,-1,-1,-1,-1,-1,-1,-1,-1,-1,-1,-1,-1,-1,-1,-1,-1,-1,-1,-1,-1,-1,-1,-1,-1],"loss_changes":[4.615128E7,9.247072E6,1.4793522E7,2.590168E6,1.868752E6,2.6922292E6,6.39355E6,5.389245E5,1.420536E6,5.83335E5,1.052758E6,6.0550844E5,4.817375E5,1.660482E6,2.820446E6,3.6972275E5,1.1526574E5,9.81332E5,2.4750033E5,1.6109903E5,4.046645E5,1.288514E6,4.657215E5,3.68943E5,1.2764969E5,4.9053425E5,3.66442E5,5.73204E5,9.52398E5,5.4387E4,2.22636E6,0E0,0E0,0E0,0E0,0E0,0E0,0E0,0E0,0E0,0E0,0E0,0E0,0E0,0E0,0E0,0E0,0E0,0E0,0E0,0E0,0E0,0E0,0E0,0E0,0E0,0E0,0E0,0E0,0E0,0E0,0E0,0E0],"parents":[2147483647,0,0,1,1,2,2,3,3,4,4,5,5,6,6,7,7,8,8,9,9,10,10,11,11,12,12,13,13,14,14,15,15,16,16,17,17,18,18,19,19,20,20,21,21,22,22,23,23,24,24,25,25,26,26,27,27,28,28,29,29,30,30],"right_children":[2,4,6,8,10,12,14,16,18,20,22,24,26,28,30,32,34,36,38,40,42,44,46,48,50,52,54,56,58,60,62,-1,-1,-1,-1,-1,-1,-1,-1,-1,-1,-1,-1,-1,-1,-1,-1,-1,-1,-1,-1,-1,-1,-1,-1,-1,-1,-1,-1,-1,-1,-1,-1],"split_conditions":[8.621E1,7.9589343E-1,1.3044E2,1.65E2,1E0,1.0749E2,3.1502E2,1.21E2,6E0,4E0,6E0,1.1094E2,6E0,1.6858E2,1.6209E2,6E0,1.0849E2,4E0,1E1,1.0505E2,6E0,-1.202E1,-2.998E1,6E0,2.6376E2,4E0,1.2989E2,6E0,2E0,1.3659E2,1.1E1,-8.357819E-1,-1.3815787E-1,9.038968E-4,9.6107644E-1,-1.6152066E0,-2.9473476E0,1.0869535E0,-5.6488305E-1,-9.5418054E-1,1.2862024E0,-2.817112E0,-1.3891593E0,-6.205264E0,-3.6513963E0,-4.200601E0,-1.6938457E0,-1.1977839E-1,5.975943E-1,6.42045E-1,2.4807255E0,1.1872852E0,4.8452973E-1,1.5437151E0,3.5789192E0,1.968768E0,3.659189E0,4.5365176E0,2.6592271E0,4.820829E0,6.9531145E0,6.5624475E0,2.076944E1],"split_indices":[0,12,0,16,19,0,0,9,3,4,3,9,3,0,9,3,8,3,1,9,3,0,0,3,9,3,8,3,3,9,4,0,0,0,0,0,0,0,0,0,0,0,0,0,0,0,0,0,0,0,0,0,0,0,0,0,0,0,0,0,0,0,0],"split_type":[0,0,0,0,0,0,0,0,0,0,0,0,0,0,0,0,0,0,0,0,0,0,0,0,0,0,0,0,0,0,0,0,0,0,0,0,0,0,0,0,0,0,0,0,0,0,0,0,0,0,0,0,0,0,0,0,0,0,0,0,0,0,0],"sum_hessian":[6.9817E4,2.8103E4,4.1714E4,2.0487E4,7.616E3,3.1335E4,1.0379E4,1.2958E4,7.529E3,2.869E3,4.747E3,1.8521E4,1.2814E4,1.0099E4,2.8E2,1.1646E4,1.312E3,6.46E3,1.069E3,5.22E2,2.347E3,3.691E3,1.056E3,1.4706E4,3.815E3,1.1275E4,1.539E3,7.373E3,2.726E3,1.57E2,1.23E2,9.256E3,2.39E3,8E2,5.12E2,4.451E3,2.009E3,3.25E2,7.44E2,4.24E2,9.8E1,1.629E3,7.18E2,5.9E2,3.101E3,2.4E2,8.16E2,1.2618E4,2.088E3,3.719E3,9.6E1,7.579E3,3.696E3,1.271E3,2.68E2,6.831E3,5.42E2,1.275E3,1.451E3,1E2,5.7E1,4.4E1,7.9E1],"tree_param":{"num_deleted":"0","num_feature":"20","num_nodes":"63","size_leaf_vector":"1"}},{"base_weights":[1.5283318E-3,-2.7485376E1,2.171874E1,-1.5539339E1,-5.320572E1,1.2516372E1,5.632297E1,-8.999145E0,-2.9439196E1,-3.4895367E1,-6.6179184E1,5.226289E0,2.4366426E1,5.1474922E1,1.926443E2,-1.1097862E1,1.0062662E1,-3.445094E1,2.8322089E0,-1.2592785E1,-4.0169598E1,-7.941288E1,-5.152812E1,2.361283E0,1.4492993E1,2.2013817E1,4.206168E1,4.4964317E1,7.1899666E1,1.07122E2,3.0006268E2,-6.676604E-1,-9.340988E-2,-1.8982033E-1,8.023004E-1,-1.3038319E0,-2.628638E0,1.586787E0,-2.1888344E-1,-1.0110911E0,7.3831606E-1,-2.3641355E0,-1.0599403E0,-4.5959487E0,-2.4122057E0,-2.7487593E0,-1.1838647E0,9.0831274E-1,4.1575767E-2,5.02857E-1,1.0664423E0,1.3139423E0,6.4345425E-1,4.9592662E-1,2.464718E0,2.1378314E0,4.030382E0,4.7516E0,2.523183E0,4.5821743E0,6.6114526E0,2.1340292E1,8.108358E0],"categories":[],"categories_nodes":[],"categories_segments":[],"categories_sizes":[],"default_left":[0,0,0,0,0,0,0,0,0,0,0,0,0,0,0,0,0,0,0,0,0,0,0,0,0,0,0,0,0,0,0,0,0,0,0,0,0,0,0,0,0,0,0,0,0,0,0,0,0,0,0,0,0,0,0,0,0,0,0,0,0,0,0],"id":3,"left_children":[1,3,5,7,9,11,13,15,17,19,21,23,25,27,29,31,33,35,37,39,41,43,45,47,49,51,53,55,57,59,61,-1,-1,-1,-1,-1,-1,-1,-1,-1,-1,-1,-1,-1,-1,-1,-1,-1,-1,-1,-1,-1,-1,-1,-1,-1,-1,-1,-1,-1,-1,-1,-1],"loss_changes":[4.167768E7,9.46758E6,1.2419446E7,1.912798E6,2.319254E6,2.66157E6,5.404778E6,5.726681E5,1.0890665E6,4.7648E5,1.10475E6,5.0644416E5,4.87602E5,1.049016E6,2.54931E6,2.68357E5,1.1781239E5,8.830725E5,1.889411E5,1.624769E5,4.414705E5,1.166134E6,2.59541E5,3.523299E5,1.3638981E5,4.03728E5,3.1940475E5,4.68925E5,9.42802E5,4.9283875E4,2.097973E6,0E0,0E0,0E0,0E0,0E0,0E0,0E0,0E0,0E0,0E0,0E0,0E0,0E0,0E0,0E0,0E0,0E0,0E0,0E0,0E0,0E0,0E0,0E0,0E0,0E0,0E0,0E0,0E0,0E0,0E0,0E0,0E0],"parents":[2147483647,0,0,1,1,2,2,3,3,4,4,5,5,6,6,7,7,8,8,9,9,10,10,11,11,12,12,13,13,14,14,15,15,16,16,17,17,18,18,19,19,20,20,21,21,22,22,23,23,24,24,25,25,26,26,27,27,28,28,29,29,30,30],"right_children":[2,4,6,8,10,12,14,16,18,20,22,24,26,28,30,32,34,36,38,40,42,44,46,48,50,52,54,56,58,60,62,-1,-1,-1,-1,-1,-1,-1,-1,-1,-1,-1,-1,-1,-1,-1,-1,-1,-1,-1,-1,-1,-1,-1,-1,-1,-1,-1,-1,-1,-1,-1,-1],"split_conditions":[8.917E1,7.457927E-1,1.3709E2,1.62E2,1E0,1.1182E2,3.1502E2,1.21E2,6E0,4E0,0E0,1.1135E2,6E0,1.8E2,1.6209E2,6E0,8.62E1,4E0,9E0,1.054E2,6E0,6E0,6E0,2E0,1.8E1,4E0,6E0,6E0,2E0,1.3659E2,5.0876364E-2,-6.676604E-1,-9.340988E-2,-1.8982033E-1,8.023004E-1,-1.3038319E0,-2.628638E0,1.586787E0,-2.1888344E-1,-1.0110911E0,7.3831606E-1,-2.3641355E0,-1.0599403E0,-4.5959487E0,-2.4122057E0,-2.7487593E0,-1.1838647E0,9.0831274E-1,4.1575767E-2,5.02857E-1,1.0664423E0,1.3139423E0,6.4345425E-1,4.9592662E-1,2.464718E0,2.1378314E0,4.030382E0,4.7516E0,2.523183E0,4.5821743E0,6.6114526E0,2.1340292E1,8.108358E0],"split_indices":[0,12,0,16,19,0,0,9,3,4,0,9,3,0,9,3,8,3,1,9,3,3,3,4,1,3,1,3,3,9,12,0,0,0,0,0,0,0,0,0,0,0,0,0,0,0,0,0,0,0,0,0,0,0,0,0,0,0,0,0,0,0,0],"split_type":[0,0,0,0,0,0,0,0,0,0,0,0,0,0,0,0,0,0,0,0,0,0,0,0,0,0,0,0,0,0,0,0,0,0,0,0,0,0,0,0,0,0,0,0,0,0,0,0,0,0,0,0,0,0,0,0,0,0,0,0,0,0,0],"sum_hessian":[6.9817E4,3.0815E4,3.9002E4,2.1043E4,9.772E3,3.081E4,8.192E3,1.4311E4,6.732E3,4.054E3,5.718E3,1.9076E4,1.1734E4,7.912E3,2.8E2,1.2892E4,1.419E3,5.827E3,9.05E2,7.76E2,3.278E3,3.002E3,2.716E3,1.4572E4,4.504E3,1.0359E4,1.375E3,6.002E3,1.91E3,1.57E2,1.23E2,1.036E4,2.532E3,4.28E2,9.91E2,3.987E3,1.84E3,1.8E2,7.25E2,6.07E2,1.69E2,2.383E3,8.95E2,2.141E3,8.61E2,2.416E3,3E2,1.285E3,1.3287E4,2.733E3,1.771E3,7.063E3,3.296E3,2.53E2,1.122E3,5.654E3,3.48E2,9.17E2,9.93E2,1E2,5.7E1,6.3E1,6E1],"tree_param":{"num_deleted":"0","num_feature":"20","num_nodes":"63","size_leaf_vector":"1"}},{"base_weights":[2.0854168E-3,-3.0039352E1,1.7998188E1,-6.114002E1,-2.13021E1,6.4252677E0,4.3422047E1,-7.4821655E1,-3.3759087E1,-1.2894727E1,-3.5608948E1,9.637759E-1,1.5996943E1,4.0483727E1,1.8315672E2,-1.1049739E2,-6.768318E1,-7.763088E1,-2.7025837E1,-1.4913666E1,5.3093314E0,-4.014461E1,2.7562742E0,-4.029929E0,6.743982E0,1.4034041E1,3.0533703E1,3.269256E1,6.0005157E1,1.0183675E2,2.8529703E2,-7.652116E0,-4.594631E0,-6.355213E-2,-3.526388E0,-3.361323E0,-5.8377614E0,2.4701877E-1,-1.5032732E0,-8.971678E-1,-1.4552431E-1,5.6908077E-1,-6.2576115E-1,-1.5781788E0,-2.8932347E0,1.0286225E0,-2.390074E-1,7.6124865E-1,-2.7855977E-1,2.0122336E-1,8.041277E-1,9.022217E-1,2.992512E-1,1.4613982E0,9.020535E0,1.5201151E0,2.7339673E0,3.8498514E0,2.3599298E0,4.355334E0,6.2865796E0,5.7275906E0,1.888875E1],"categories":[],"categories_nodes":[],"categories_segments":[],"categories_sizes":[],"default_left":[0,0,0,0,0,0,0,0,0,0,0,0,0,0,0,0,0,0,0,0,0,0,0,0,0,0,0,0,0,0,0,0,0,0,0,0,0,0,0,0,0,0,0,0,0,0,0,0,0,0,0,0,0,0,0,0,0,0,0,0,0,0,0],"id":4,"left_children":[1,3,5,7,9,11,13,15,17,19,21,23,25,27,29,31,33,35,37,39,41,43,45,47,49,51,53,55,57,59,61,-1,-1,-1,-1,-1,-1,-1,-1,-1,-1,-1,-1,-1,-1,-1,-1,-1,-1,-1,-1,-1,-1,-1,-1,-1,-1,-1,-1,-1,-1,-1,-1],"loss_changes":[3.7746164E7,7.10618E6,1.2846611E7,2.146272E6,2.455842E6,1.5685672E6,5.600364E6,9.6638E5,5.63002E5,4.7286825E5,1.315291E6,5.5151506E5,3.10623E5,2.03276E6,2.304945E6,4.89355E5,6.02359E5,9.5545625E4,1.61443E5,4.21065E5,1.3922539E5,1.025926E6,1.0751451E5,3.04303E5,2.2484572E5,3.09971E5,2.4835462E5,4.79937E5,8.26537E5,4.465975E4,1.914706E6,0E0,0E0,0E0,0E0,0E0,0E0,0E0,0E0,0E0,0E0,0E0,0E0,0E0,0E0,0E0,0E0,0E0,0E0,0E0,0E0,0E0,0E0,0E0,0E0,0E0,0E0,0E0,0E0,0E0,0E0,0E0,0E0],"parents":[2147483647,0,0,1,1,2,2,3,3,4,4,5,5,6,6,7,7,8,8,9,9,10,10,11,11,12,12,13,13,14,14,15,15,16,16,17,17,18,18,19,19,20,20,21,21,22,22,23,23,24,24,25,25,26,26,27,27,28,28,29,29,30,30],"right_children":[2,4,6,8,10,12,14,16,18,20,22,24,26,28,30,32,34,36,38,40,42,44,46,48,50,52,54,56,58,60,62,-1,-1,-1,-1,-1,-1,-1,-1,-1,-1,-1,-1,-1,-1,-1,-1,-1,-1,-1,-1,-1,-1,-1,-1,-1,-1,-1,-1,-1,-1,-1,-1],"split_conditions":[8.434E1,1.06E0,1.2315E2,6E0,1.98E2,1.0579E2,3.1502E2,-1.202E1,-2.998E1,1.21E2,6E0,9.5E1,6E0,1.5773E2,1.6209E2,-9.9E-1,2E0,1.811841E1,2.9933686E4,6E0,1.2E1,4E0,1E1,2E0,1.2378E2,4E0,1.5769E2,6E0,2E0,1.3659E2,1.1E1,-7.652116E0,-4.594631E0,-6.355213E-2,-3.526388E0,-3.361323E0,-5.8377614E0,2.4701877E-1,-1.5032732E0,-8.971678E-1,-1.4552431E-1,5.6908077E-1,-6.2576115E-1,-1.5781788E0,-2.8932347E0,1.0286225E0,-2.390074E-1,7.6124865E-1,-2.7855977E-1,2.0122336E-1,8.041277E-1,9.022217E-1,2.992512E-1,1.4613982E0,9.020535E0,1.5201151E0,2.7339673E0,3.8498514E0,2.3599298E0,4.355334E0,6.2865796E0,5.7275906E0,1.888875E1],"split_indices":[0,0,0,3,16,0,0,0,0,9,3,9,3,0,9,9,4,15,11,3,4,3,1,4,9,3,8,3,3,9,4,0,0,0,0,0,0,0,0,0,0,0,0,0,0,0,0,0,0,0,0,0,0,0,0,0,0,0,0,0,0,0,0],"split_type":[0,0,0,0,0,0,0,0,0,0,0,0,0,0,0,0,0,0,0,0,0,0,0,0,0,0,0,0,0,0,0,0,0,0,0,0,0,0,0,0,0,0,0,0,0,0,0,0,0,0,0,0,0,0,0,0,0,0,0,0,0,0,0],"sum_hessian":[6.9817E4,2.6155E4,4.3662E4,5.735E3,2.042E4,3.0005E4,1.3657E4,3.823E3,1.912E3,1.2863E4,7.557E3,1.9105E4,1.09E4,1.3377E4,2.8E2,6.35E2,3.188E3,2.53E2,1.659E3,1.1579E4,1.284E3,6.758E3,7.99E2,1.025E4,8.855E3,9.605E3,1.295E3,9.563E3,3.814E3,1.57E2,1.23E2,1.91E2,4.44E2,1.31E2,3.057E3,2.02E2,5.1E1,1.44E2,1.515E3,9.245E3,2.334E3,9.58E2,3.26E2,4.555E3,2.203E3,2.37E2,5.62E2,7.59E2,9.491E3,6.859E3,1.996E3,6.41E3,3.195E3,1.285E3,1E1,8.663E3,9E2,1.637E3,2.177E3,1E2,5.7E1,4.4E1,7.9E1],"tree_param":{"num_deleted":"0","num_feature":"20","num_nodes":"63","size_leaf_vector":"1"}},{"base_weights":[2.3789792E-3,-2.691356E1,1.8136038E1,-5.8087597E1,-1.8918514E1,1.0102431E1,5.1004635E1,-7.108471E1,-3.20766E1,-1.15383005E1,-3.348412E1,2.203076E0,1.9854582E1,4.6626064E1,1.7412436E2,-1.04991776E2,-6.430014E1,-7.378556E1,-2.5675303E1,-1.3462116E1,5.8475327E0,-3.741604E1,2.2269404E0,-2.717843E0,7.1938553E0,1.7879076E1,3.4804028E1,6.0184914E1,3.806885E1,1.3224162E2,3.5602634E2,-7.271503E0,-4.3654156E0,-6.0398556E-2,-3.350126E0,-6.427798E0,-3.3352344E0,2.3475312E-1,-1.4281591E0,-8.1513447E-1,-9.6135266E-2,-2.9288766E-1,6.220902E-1,-1.4600935E0,-2.7526124E0,9.440274E-1,-2.2255741E-1,7.5848925E-1,-2.1068524E-1,2.3307715E-1,8.045667E-1,1.1023446E0,4.6322688E-1,3.0937132E-1,2.1196702E0,2.5907757E0,5.3508782E0,1.7547115E0,3.7777042E0,4.8406134E0,1.0355642E1,2.6847502E1,6.1287913E0],"categories":[],"categories_nodes":[],"categories_segments":[],"categories_sizes":[],"default_left":[0,0,0,0,0,0,0,0,0,0,0,0,0,0,0,0,0,0,0,0,0,0,0,0,0,0,0,0,0,0,0,0,0,0,0,0,0,0,0,0,0,0,0,0,0,0,0,0,0,0,0,0,0,0,0,0,0,0,0,0,0,0,0],"id":5,"left_children":[1,3,5,7,9,11,13,15,17,19,21,23,25,27,29,31,33,35,37,39,41,43,45,47,49,51,53,55,57,59,61,-1,-1,-1,-1,-1,-1,-1,-1,-1,-1,-1,-1,-1,-1,-1,-1,-1,-1,-1,-1,-1,-1,-1,-1,-1,-1,-1,-1,-1,-1,-1,-1],"loss_changes":[3.407757E7,7.003484E6,1.1014471E7,1.936878E6,2.40422E6,2.5824242E6,4.408636E6,8.7294E5,5.0886025E5,4.9670175E5,1.056271E6,4.5490544E5,4.42428E5,9.15822E5,2.093732E6,4.420995E5,5.4364E5,8.99315E4,1.4572612E5,4.38185E5,1.1431086E5,9.80009E5,8.31611E4,2.4963031E5,2.0712184E5,4.75629E5,3.7980625E5,1.193856E6,5.385905E5,5.9005575E5,2.1304935E6,0E0,0E0,0E0,0E0,0E0,0E0,0E0,0E0,0E0,0E0,0E0,0E0,0E0,0E0,0E0,0E0,0E0,0E0,0E0,0E0,0E0,0E0,0E0,0E0,0E0,0E0,0E0,0E0,0E0,0E0,0E0,0E0],"parents":[2147483647,0,0,1,1,2,2,3,3,4,4,5,5,6,6,7,7,8,8,9,9,10,10,11,11,12,12,13,13,14,14,15,15,16,16,17,17,18,18,19,19,20,20,21,21,22,22,23,23,24,24,25,25,26,26,27,27,28,28,29,29,30,30],"right_children":[2,4,6,8,10,12,14,16,18,20,22,24,26,28,30,32,34,36,38,40,42,44,46,48,50,52,54,56,58,60,62,-1,-1,-1,-1,-1,-1,-1,-1,-1,-1,-1,-1,-1,-1,-1,-1,-1,-1,-1,-1,-1,-1,-1,-1,-1,-1,-1,-1,-1,-1,-1,-1],"split_conditions":[8.621E1,1.06E0,1.3709E2,6E0,2.22E2,1.0749E2,3.1502E2,-1.202E1,-2.998E1,1.21E2,6E0,9.5E1,6E0,2E0,2.3106E2,-9.9E-1,2E0,7.867501E-3,2.9933686E4,6E0,8.98E1,4E0,1E1,2E0,1.2378E2,4E0,7E0,1.1E1,6E0,1.6209E2,4.635341E-2,-7.271503E0,-4.3654156E0,-6.0398556E-2,-3.350126E0,-6.427798E0,-3.3352344E0,2.3475312E-1,-1.4281591E0,-8.1513447E-1,-9.6135266E-2,-2.9288766E-1,6.220902E-1,-1.4600935E0,-2.7526124E0,9.440274E-1,-2.2255741E-1,7.5848925E-1,-2.1068524E-1,2.3307715E-1,8.045667E-1,1.1023446E0,4.6322688E-1,3.0937132E-1,2.1196702E0,2.5907757E0,5.3508782E0,1.7547115E0,3.7777042E0,4.8406134E0,1.0355642E1,2.6847502E1,6.1287913E0],"split_indices":[0,0,0,3,16,0,0,0,0,9,3,9,3,3,9,9,4,17,11,3,8,3,1,4,9,3,1,4,3,9,12,0,0,0,0,0,0,0,0,0,0,0,0,0,0,0,0,0,0,0,0,0,0,0,0,0,0,0,0,0,0,0,0],"split_type":[0,0,0,0,0,0,0,0,0,0,0,0,0,0,0,0,0,0,0,0,0,0,0,0,0,0,0,0,0,0,0,0,0,0,0,0,0,0,0,0,0,0,0,0,0,0,0,0,0,0,0,0,0,0,0,0,0,0,0,0,0,0,0],"sum_hessian":[6.9817E4,2.8103E4,4.1714E4,5.735E3,2.2368E4,3.3522E4,8.192E3,3.823E3,1.912E3,1.4847E4,7.521E3,1.8521E4,1.5001E4,7.912E3,2.8E2,6.35E2,3.188E3,2.53E2,1.659E3,1.3368E4,1.479E3,6.775E3,7.46E2,9.326E3,9.195E3,1.3252E4,1.749E3,3.059E3,4.853E3,2.29E2,5.1E1,1.91E2,4.44E2,1.31E2,3.057E3,2.7E1,2.26E2,1.44E2,1.515E3,1.0727E4,2.641E3,5.33E2,9.46E2,4.624E3,2.151E3,2.13E2,5.33E2,7.19E2,8.607E3,7.159E3,2.036E3,8.93E3,4.322E3,3.67E2,1.382E3,2.597E3,4.62E2,4.498E3,3.55E2,1.57E2,7.2E1,2.8E1,2.3E1],"tree_param":{"num_deleted":"0","num_feature":"20","num_nodes":"63","size_leaf_vector":"1"}},{"base_weights":[2.791105E-3,-3.0109646E1,1.4719033E1,-1.8027168E1,-4.8443726E1,4.6061063E0,3.9331654E1,-2.9562E1,-1.2195583E1,-6.3386135E1,-3.4360954E1,-1.4752635E0,1.227233E1,3.6676712E1,1.6558957E2,-3.9774063E1,-9.006032E0,-1.4840013E1,-8.420512E-2,-7.309568E1,-3.6542118E1,-3.785959E1,-3.8162189E0,-3.286348E0,1.2942349E1,7.5812635E0,1.7333075E1,2.9486452E1,5.46927E1,1.2569562E2,3.3885916E2,-1.522475E0,-2.9374933E0,-1.630633E0,-4.6193182E-2,-6.205389E-1,-1.2166746E0,-1.7987704E-1,1.3509558E0,-5.126544E0,-3.325423E0,-3.5034833E0,-1.3930589E0,-5.037185E-1,-1.9979954E0,-1.3375517E0,-4.3348122E-2,-2.5125307E-1,3.5788402E-1,5.646779E-1,2.6634793E0,9.332164E-1,1.9729978E-1,7.3813313E-1,1.6174055E0,1.3696722E0,2.4790027E0,3.5088909E0,2.1510875E0,4.6001143E0,9.844953E0,2.4909664E1,4.9470143E0],"categories":[],"categories_nodes":[],"categories_segments":[],"categories_sizes":[],"default_left":[0,0,0,0,0,0,0,0,0,0,0,0,0,0,0,0,0,0,0,0,0,0,0,0,0,0,0,0,0,0,0,0,0,0,0,0,0,0,0,0,0,0,0,0,0,0,0,0,0,0,0,0,0,0,0,0,0,0,0,0,0,0,0],"id":6,"left_children":[1,3,5,7,9,11,13,15,17,19,21,23,25,27,29,31,33,35,37,39,41,43,45,47,49,51,53,55,57,59,61,-1,-1,-1,-1,-1,-1,-1,-1,-1,-1,-1,-1,-1,-1,-1,-1,-1,-1,-1,-1,-1,-1,-1,-1,-1,-1,-1,-1,-1,-1,-1,-1],"loss_changes":[3.0939724E7,5.07639E6,1.1673245E7,9.29059E5,1.913582E6,1.5497982E6,4.57219E6,9.7345525E5,2.9398075E5,1.148328E6,5.00944E5,4.8409784E5,3.489695E5,1.731368E6,1.8997935E6,5.465515E5,2.9398147E5,1.7344638E5,1.5683438E5,6.21792E5,3.4003238E5,2.45109E5,3.2647238E4,2.9911744E5,1.3696875E5,3.0745928E5,2.72504E5,4.00866E5,6.86452E5,5.336735E5,1.938526E6,0E0,0E0,0E0,0E0,0E0,0E0,0E0,0E0,0E0,0E0,0E0,0E0,0E0,0E0,0E0,0E0,0E0,0E0,0E0,0E0,0E0,0E0,0E0,0E0,0E0,0E0,0E0,0E0,0E0,0E0,0E0,0E0],"parents":[2147483647,0,0,1,1,2,2,3,3,4,4,5,5,6,6,7,7,8,8,9,9,10,10,11,11,12,12,13,13,14,14,15,15,16,16,17,17,18,18,19,19,20,20,21,21,22,22,23,23,24,24,25,25,26,26,27,27,28,28,29,29,30,30],"right_children":[2,4,6,8,10,12,14,16,18,20,22,24,26,28,30,32,34,36,38,40,42,44,46,48,50,52,54,56,58,60,62,-1,-1,-1,-1,-1,-1,-1,-1,-1,-1,-1,-1,-1,-1,-1,-1,-1,-1,-1,-1,-1,-1,-1,-1,-1,-1,-1,-1,-1,-1,-1,-1],"split_conditions":[8.014E1,1E0,1.2315E2,3.119E1,8.57E0,1.0102E2,3.1502E2,6E0,1.8E1,6E0,1.1E1,1.2051E2,1.4E1,1.5773E2,2.3106E2,5E0,-1.1E-1,2.69E2,1.7873556E1,-1.202E1,-2.998E1,3E0,3.398E1,6E0,2.6376E2,2.7020001E0,6E0,6E0,2E0,1.6209E2,5.0876364E-2,-1.522475E0,-2.9374933E0,-1.630633E0,-4.6193182E-2,-6.205389E-1,-1.2166746E0,-1.7987704E-1,1.3509558E0,-5.126544E0,-3.325423E0,-3.5034833E0,-1.3930589E0,-5.037185E-1,-1.9979954E0,-1.3375517E0,-4.3348122E-2,-2.5125307E-1,3.5788402E-1,5.646779E-1,2.6634793E0,9.332164E-1,1.9729978E-1,7.3813313E-1,1.6174055E0,1.3696722E0,2.4790027E0,3.5088909E0,2.1510875E0,4.6001143E0,9.844953E0,2.4909664E1,4.9470143E0],"split_indices":[0,19,0,0,0,0,0,3,1,3,4,9,1,0,9,3,0,16,15,0,0,4,0,3,9,14,3,3,3,9,12,0,0,0,0,0,0,0,0,0,0,0,0,0,0,0,0,0,0,0,0,0,0,0,0,0,0,0,0,0,0,0,0],"split_type":[0,0,0,0,0,0,0,0,0,0,0,0,0,0,0,0,0,0,0,0,0,0,0,0,0,0,0,0,0,0,0,0,0,0,0,0,0,0,0,0,0,0,0,0,0,0,0,0,0,0,0,0,0,0,0,0,0,0,0,0,0,0,0],"sum_hessian":[6.9817E4,2.2919E4,4.6898E4,1.3816E4,9.103E3,3.3241E4,1.3657E4,4.638E3,9.178E3,4.415E3,4.688E3,1.8537E4,1.4704E4,1.3377E4,2.8E2,3.098E3,1.54E3,7.533E3,1.645E3,3.241E3,1.174E3,4.206E3,4.82E2,1.6469E4,2.068E3,7.632E3,7.072E3,9.563E3,3.814E3,2.29E2,5.1E1,2.079E3,1.019E3,3.92E2,1.148E3,6E3,1.533E3,1.457E3,1.88E2,5.9E2,2.651E3,2.4E2,9.34E2,2.96E2,3.91E3,5.4E1,4.28E2,1.4119E4,2.35E3,1.988E3,8E1,1.884E3,5.748E3,6.04E3,1.032E3,8.663E3,9E2,1.637E3,2.177E3,1.57E2,7.2E1,3E1,2.1E1],"tree_param":{"num_deleted":"0","num_feature":"20","num_nodes":"63","size_leaf_vector":"1"}},{"base_weights":[3.1749066E-3,-2.8605211E1,1.3984373E1,-1.7126303E1,-4.6023434E1,4.376005E0,3.736901E1,-2.8085222E1,-1.1585877E1,-6.0219852E1,-3.2643738E1,-1.6215262E-1,1.3676725E1,3.484359E1,1.5746774E2,-3.77868E1,-8.556817E0,-1.4199039E1,3.8201258E-1,-6.94435E1,-3.471918E1,-3.5967205E1,-3.6282647E0,-6.3286624E0,3.7701788E0,8.710889E0,1.8188015E1,2.801253E1,5.195955E1,1.1947364E2,3.224904E2,-1.2659353E0,-2.545369E0,-1.1693906E0,1.6850115E-1,-5.0800484E-1,-1.220399E0,-1.1850456E0,7.4227196E-1,-5.1449122E0,-3.2090497E0,-3.9414017E0,-1.4362506E0,3.230194E-1,-1.8623301E0,-1.2718899E0,-4.1185662E-2,-2.0656359E-1,-8.522787E-1,9.346748E-2,8.561482E-1,9.137463E-1,2.8122988E-1,7.759103E-1,1.6512988E0,1.3011965E0,2.35519E0,3.3335538E0,2.0435827E0,4.3715644E0,9.3594475E0,2.4348877E1,5.514898E0],"categories":[],"categories_nodes":[],"categories_segments":[],"categories_sizes":[],"default_left":[0,0,0,0,0,0,0,0,0,0,0,0,0,0,0,0,0,0,0,0,0,0,0,0,0,0,0,0,0,0,0,0,0,0,0,0,0,0,0,0,0,0,0,0,0,0,0,0,0,0,0,0,0,0,0,0,0,0,0,0,0,0,0],"id":7,"left_children":[1,3,5,7,9,11,13,15,17,19,21,23,25,27,29,31,33,35,37,39,41,43,45,47,49,51,53,55,57,59,61,-1,-1,-1,-1,-1,-1,-1,-1,-1,-1,-1,-1,-1,-1,-1,-1,-1,-1,-1,-1,-1,-1,-1,-1,-1,-1,-1,-1,-1,-1,-1,-1],"loss_changes":[2.7926172E7,4.581888E6,1.0537489E7,8.3860225E5,1.727284E6,1.4030852E6,4.136986E6,8.785645E5,2.8706975E5,1.036273E6,4.52039E5,5.417897E5,2.4404925E5,1.562703E6,1.723309E6,5.05672E5,2.7266147E5,3.1040388E5,5.7368925E5,5.64168E5,3.0840088E5,2.28604E5,2.9522203E4,2.04808E5,3.4624594E5,1.5312203E5,2.25726E5,3.61871E5,6.19576E5,4.8267825E5,1.76124E6,0E0,0E0,0E0,0E0,0E0,0E0,0E0,0E0,0E0,0E0,0E0,0E0,0E0,0E0,0E0,0E0,0E0,0E0,0E0,0E0,0E0,0E0,0E0,0E0,0E0,0E0,0E0,0E0,0E0,0E0,0E0,0E0],"parents":[2147483647,0,0,1,1,2,2,3,3,4,4,5,5,6,6,7,7,8,8,9,9,10,10,11,11,12,12,13,13,14,14,15,15,16,16,17,17,18,18,19,19,20,20,21,21,22,22,23,23,24,24,25,25,26,26,27,27,28,28,29,29,30,30],"right_children":[2,4,6,8,10,12,14,16,18,20,22,24,26,28,30,32,34,36,38,40,42,44,46,48,50,52,54,56,58,60,62,-1,-1,-1,-1,-1,-1,-1,-1,-1,-1,-1,-1,-1,-1,-1,-1,-1,-1,-1,-1,-1,-1,-1,-1,-1,-1,-1,-1,-1,-1,-1,-1],"split_conditions":[8.014E1,1E0,1.2315E2,3.119E1,8.57E0,1.0579E2,3.1502E2,6E0,6E0,6E0,1.1E1,8.77E1,1.3E1,1.5773E2,2.3106E2,4E0,8.31966E3,2.0104044E-3,6E0,-1.909E1,-5.195E1,2E0,3.398E1,1E0,1.2378E2,2.7020001E0,6E0,6E0,2E0,1.6209E2,4.635341E-2,-1.2659353E0,-2.545369E0,-1.1693906E0,1.6850115E-1,-5.0800484E-1,-1.220399E0,-1.1850456E0,7.4227196E-1,-5.1449122E0,-3.2090497E0,-3.9414017E0,-1.4362506E0,3.230194E-1,-1.8623301E0,-1.2718899E0,-4.1185662E-2,-2.0656359E-1,-8.522787E-1,9.346748E-2,8.561482E-1,9.137463E-1,2.8122988E-1,7.759103E-1,1.6512988E0,1.3011965E0,2.35519E0,3.3335538E0,2.0435827E0,4.3715644E0,9.3594475E0,2.4348877E1,5.514898E0],"split_indices":[0,19,0,0,0,0,0,3,3,3,4,8,1,0,9,3,13,17,1,0,0,4,0,19,9,14,3,3,3,9,12,0,0,0,0,0,0,0,0,0,0,0,0,0,0,0,0,0,0,0,0,0,0,0,0,0,0,0,0,0,0,0,0],"split_type":[0,0,0,0,0,0,0,0,0,0,0,0,0,0,0,0,0,0,0,0,0,0,0,0,0,0,0,0,0,0,0,0,0,0,0,0,0,0,0,0,0,0,0,0,0,0,0,0,0,0,0,0,0,0,0,0,0,0,0,0,0,0,0],"sum_hessian":[6.9817E4,2.2919E4,4.6898E4,1.3816E4,9.103E3,3.3241E4,1.3657E4,4.638E3,9.178E3,4.415E3,4.688E3,2.2341E4,1.09E4,1.3377E4,2.8E2,3.098E3,1.54E3,7.533E3,1.645E3,3.241E3,1.174E3,4.206E3,4.82E2,8.699E3,1.3642E4,5.19E3,5.71E3,9.563E3,3.814E3,2.29E2,5.1E1,1.59E3,1.508E3,6.86E2,8.54E2,5.399E3,2.134E3,6.17E2,1.028E3,4.38E2,2.803E3,1.39E2,1.035E3,1.23E2,4.083E3,5.4E1,4.28E2,7.22E3,1.479E3,1.1943E4,1.699E3,1.265E3,3.925E3,4.841E3,8.69E2,8.663E3,9E2,1.637E3,2.177E3,1.57E2,7.2E1,2.8E1,2.3E1],"tree_param":{"num_deleted":"0","num_feature":"20","num_nodes":"63","size_leaf_vector":"1"}},{"base_weights":[3.4833513E-3,-1.9781275E1,1.8309225E1,-4.1435905E1,-1.0460973E1,1.2285487E1,5.038081E1,-5.0460762E1,-1.8450438E1,-6.4850764E0,-2.4045624E1,5.7039537E0,2.2052639E1,4.5251915E1,1.4974951E2,-2.7420952E1,-5.9689194E1,-3.7144135E1,-5.280026E0,-1.05738E1,-5.7033043E-2,-1.8854292E1,-3.571617E1,-7.565581E-2,8.933291E0,2.0256378E1,3.7158745E1,5.889721E1,3.5909454E1,1.1355966E2,3.0694016E2,-9.272817E-1,-2.716945E0,-4.5711017E0,-2.7682836E0,-3.1976507E0,-1.4867197E0,-1.3795277E0,-9.580028E-2,-8.337186E-1,-3.2713044E-1,-1.5240513E-1,4.0846163E-1,-1.2628087E0,-4.0002042E-1,-2.2481823E0,2.946597E-1,2.3013373E-1,-3.7823376E-1,3.3006942E-1,1.1907527E0,1.2488836E0,5.010761E-1,2.5264752E-1,2.212096E0,2.6524394E0,7.7316566E0,1.6604913E0,4.0675592E0,4.15437E0,8.897886E0,2.419834E1,6.255098E0],"categories":[],"categories_nodes":[],"categories_segments":[],"categories_sizes":[],"default_left":[0,0,0,0,0,0,0,0,0,0,0,0,0,0,0,0,0,0,0,0,0,0,0,0,0,0,0,0,0,0,0,0,0,0,0,0,0,0,0,0,0,0,0,0,0,0,0,0,0,0,0,0,0,0,0,0,0,0,0,0,0,0,0],"id":8,"left_children":[1,3,5,7,9,11,13,15,17,19,21,23,25,27,29,31,33,35,37,39,41,43,45,47,49,51,53,55,57,59,61,-1,-1,-1,-1,-1,-1,-1,-1,-1,-1,-1,-1,-1,-1,-1,-1,-1,-1,-1,-1,-1,-1,-1,-1,-1,-1,-1,-1,-1,-1,-1,-1],"loss_changes":[2.5286674E7,6.771692E6,7.005446E6,2.09339E6,1.266892E6,1.962558E6,2.915564E6,1.539654E6,7.009919E5,4.7700044E5,3.2109725E5,3.4047506E5,3.327575E5,6.93164E5,1.56367E6,4.9472062E5,7.04938E5,2.3190562E5,1.25435875E5,2.7269625E5,1.7366473E5,2.5536462E5,6.28998E5,2.2917094E5,4.0596994E5,5.30661E5,2.9654788E5,1.231985E6,3.947675E5,4.3655575E5,1.613345E6,0E0,0E0,0E0,0E0,0E0,0E0,0E0,0E0,0E0,0E0,0E0,0E0,0E0,0E0,0E0,0E0,0E0,0E0,0E0,0E0,0E0,0E0,0E0,0E0,0E0,0E0,0E0,0E0,0E0,0E0,0E0,0E0],"parents":[2147483647,0,0,1,1,2,2,3,3,4,4,5,5,6,6,7,7,8,8,9,9,10,10,11,11,12,12,13,13,14,14,15,15,16,16,17,17,18,18,19,19,20,20,21,21,22,22,23,23,24,24,25,25,26,26,27,27,28,28,29,29,30,30],"right_children":[2,4,6,8,10,12,14,16,18,20,22,24,26,28,30,32,34,36,38,40,42,44,46,48,50,52,54,56,58,60,62,-1,-1,-1,-1,-1,-1,-1,-1,-1,-1,-1,-1,-1,-1,-1,-1,-1,-1,-1,-1,-1,-1,-1,-1,-1,-1,-1,-1,-1,-1,-1,-1],"split_conditions":[9.208E1,3.119E1,1.4789E2,6E0,2.66E2,1.1495E2,3.1502E2,2.5702303E-3,-1.1E-1,9.219E1,4E0,9.427E1,6E0,2E0,2.3106E2,5E0,-1.202E1,-2.998E1,5E0,7.587E1,1.21E2,7.761E1,6E0,4E0,6E0,4E0,6E0,1.2E1,6E0,1.6209E2,4.1290067E-2,-9.272817E-1,-2.716945E0,-4.5711017E0,-2.7682836E0,-3.1976507E0,-1.4867197E0,-1.3795277E0,-9.580028E-2,-8.337186E-1,-3.2713044E-1,-1.5240513E-1,4.0846163E-1,-1.2628087E0,-4.0002042E-1,-2.2481823E0,2.946597E-1,2.3013373E-1,-3.7823376E-1,3.3006942E-1,1.1907527E0,1.2488836E0,5.010761E-1,2.5264752E-1,2.212096E0,2.6524394E0,7.7316566E0,1.6604913E0,4.0675592E0,4.15437E0,8.897886E0,2.419834E1,6.255098E0],"split_indices":[0,0,0,3,16,0,0,17,0,9,3,8,3,3,9,3,0,0,1,0,9,0,3,3,3,3,1,4,3,9,12,0,0,0,0,0,0,0,0,0,0,0,0,0,0,0,0,0,0,0,0,0,0,0,0,0,0,0,0,0,0,0,0],"split_type":[0,0,0,0,0,0,0,0,0,0,0,0,0,0,0,0,0,0,0,0,0,0,0,0,0,0,0,0,0,0,0,0,0,0,0,0,0,0,0,0,0,0,0,0,0,0,0,0,0,0,0,0,0,0,0,0,0,0,0,0,0,0,0],"sum_hessian":[6.9817E4,3.3553E4,3.6264E4,1.0095E4,2.3458E4,3.0531E4,5.733E3,7.248E3,2.847E3,1.8148E4,5.31E3,1.8241E4,1.229E4,5.453E3,2.8E2,2.074E3,5.174E3,1.176E3,1.671E3,1.1092E4,7.056E3,3.677E3,1.633E3,6.539E3,1.1702E4,1.0986E4,1.304E3,2.214E3,3.239E3,2.29E2,5.1E1,1.561E3,5.13E2,6.18E2,4.556E3,2.53E2,9.23E2,2.18E2,1.453E3,4.412E3,6.68E3,5.175E3,1.881E3,2.312E3,1.365E3,1.336E3,2.97E2,4.025E3,2.514E3,1.0118E4,1.584E3,7.517E3,3.469E3,2.36E2,1.068E3,2.088E3,1.26E2,3.059E3,1.8E2,1.57E2,7.2E1,2.5E1,2.6E1],"tree_param":{"num_deleted":"0","num_feature":"20","num_nodes":"63","size_leaf_vector":"1"}},{"base_weights":[3.932481E-3,-2.3368795E1,1.4005194E1,-4.780524E1,-1.6503763E1,6.4785767E0,3.813833E1,-5.843069E1,-2.6540459E1,-9.170146E0,-2.6591114E1,7.878823E-1,1.4146249E1,3.5233337E1,1.4241685E2,-7.169814E1,-4.4382854E1,-6.0767952E1,-2.1287252E1,-8.182218E-1,-1.2339164E1,-3.0685837E1,5.2620363E0,-3.383895E0,5.6167107E0,1.2523392E1,2.6051605E1,3.0594336E1,5.5096333E1,1.0793842E2,2.921788E2,-3.2280056E0,-5.3180757E0,1.859558E-1,-2.401476E0,-2.5539951E0,-4.8709993E0,-2.3180943E0,-9.093637E-1,-2.9848844E-1,4.7285944E-1,-7.376229E-1,-8.7373964E-2,-1.1689466E0,-2.2701602E0,1.1014266E0,-1.2459383E-1,6.8516135E-1,-2.3758303E-1,2.5895128E-1,2.213981E0,8.0653757E-1,2.5651357E-1,1.1232119E0,4.161243E0,1.4406172E0,2.743453E0,3.6799982E0,1.8976023E0,3.947966E0,8.459086E0,2.1560757E1,4.149157E0],"categories":[],"categories_nodes":[],"categories_segments":[],"categories_sizes":[],"default_left":[0,0,0,0,0,0,0,0,0,0,0,0,0,0,0,0,0,0,0,0,0,0,0,0,0,0,0,0,0,0,0,0,0,0,0,0,0,0,0,0,0,0,0,0,0,0,0,0,0,0,0,0,0,0,0,0,0,0,0,0,0,0,0],"id":9,"left_children":[1,3,5,7,9,11,13,15,17,19,21,23,25,27,29,31,33,35,37,39,41,43,45,47,49,51,53,55,57,59,61,-1,-1,-1,-1,-1,-1,-1,-1,-1,-1,-1,-1,-1,-1,-1,-1,-1,-1,-1,-1,-1,-1,-1,-1,-1,-1,-1,-1,-1,-1,-1,-1],"loss_changes":[2.2848104E7,4.387065E6,7.930737E6,1.294486E6,1.510436E6,1.4523158E6,3.139376E6,7.09531E5,3.4267162E5,3.129933E5,1.1213355E6,3.8490547E5,2.736215E5,9.28973E5,1.4194225E6,4.79329E5,3.26444E5,8.521581E4,1.2819E5,1.7230452E5,2.191075E5,8.180585E5,1.2746073E5,2.3964303E5,1.496334E5,3.3275438E5,3.4680288E5,3.52697E5,6.03436E5,3.9483975E5,1.4766775E6,0E0,0E0,0E0,0E0,0E0,0E0,0E0,0E0,0E0,0E0,0E0,0E0,0E0,0E0,0E0,0E0,0E0,0E0,0E0,0E0,0E0,0E0,0E0,0E0,0E0,0E0,0E0,0E0,0E0,0E0,0E0,0E0],"parents":[2147483647,0,0,1,1,2,2,3,3,4,4,5,5,6,6,7,7,8,8,9,9,10,10,11,11,12,12,13,13,14,14,15,15,16,16,17,17,18,18,19,19,20,20,21,21,22,22,23,23,24,24,25,25,26,26,27,27,28,28,29,29,30,30],"right_children":[2,4,6,8,10,12,14,16,18,20,22,24,26,28,30,32,34,36,38,40,42,44,46,48,50,52,54,56,58,60,62,-1,-1,-1,-1,-1,-1,-1,-1,-1,-1,-1,-1,-1,-1,-1,-1,-1,-1,-1,-1,-1,-1,-1,-1,-1,-1,-1,-1,-1,-1,-1,-1],"split_conditions":[8.434E1,1.06E0,1.3044E2,6E0,1.38E2,1.0579E2,3.1502E2,3.186E1,-2.998E1,6E0,6E0,9.5E1,6E0,1.8E2,2.3106E2,6.0878002E1,2E0,1.811841E1,6E0,1.043E2,6E0,4E0,1E1,2E0,2.6376E2,4E0,1.4326E2,6E0,2E0,1.6209E2,5.0876364E-2,-3.2280056E0,-5.3180757E0,1.859558E-1,-2.401476E0,-2.5539951E0,-4.8709993E0,-2.3180943E0,-9.093637E-1,-2.9848844E-1,4.7285944E-1,-7.376229E-1,-8.7373964E-2,-1.1689466E0,-2.2701602E0,1.1014266E0,-1.2459383E-1,6.8516135E-1,-2.3758303E-1,2.5895128E-1,2.213981E0,8.0653757E-1,2.5651357E-1,1.1232119E0,4.161243E0,1.4406172E0,2.743453E0,3.6799982E0,1.8976023E0,3.947966E0,8.459086E0,2.1560757E1,4.149157E0],"split_indices":[0,0,0,3,16,0,0,9,0,4,3,9,3,0,9,10,4,15,1,9,3,3,1,4,9,3,8,3,3,9,12,0,0,0,0,0,0,0,0,0,0,0,0,0,0,0,0,0,0,0,0,0,0,0,0,0,0,0,0,0,0,0,0],"split_type":[0,0,0,0,0,0,0,0,0,0,0,0,0,0,0,0,0,0,0,0,0,0,0,0,0,0,0,0,0,0,0,0,0,0,0,0,0,0,0,0,0,0,0,0,0,0,0,0,0,0,0,0,0,0,0,0,0,0,0,0,0,0,0],"sum_hessian":[6.9817E4,2.6155E4,4.3662E4,5.735E3,2.042E4,3.3283E4,1.0379E4,3.823E3,1.912E3,1.1825E4,8.595E3,1.9105E4,1.4178E4,1.0099E4,2.8E2,1.964E3,1.859E3,2.53E2,1.659E3,3.253E3,8.572E3,7.616E3,9.79E2,1.025E4,8.855E3,1.2479E4,1.699E3,8.189E3,1.91E3,2.29E2,5.1E1,1.631E3,3.33E2,1.31E2,1.728E3,2.02E2,5.1E1,1.81E2,1.478E3,2.167E3,1.086E3,6.981E3,1.591E3,5.091E3,2.525E3,3.09E2,6.7E2,7.59E2,9.491E3,8.757E3,9.8E1,8.386E3,4.093E3,1.6E3,9.9E1,7.631E3,5.58E2,9.17E2,9.93E2,1.57E2,7.2E1,3E1,2.1E1],"tree_param":{"num_deleted":"0","num_feature":"20","num_nodes":"63","size_leaf_vector":"1"}},{"base_weights":[4.202576E-3,-2.4628696E1,1.2042541E1,-1.4493384E1,-4.0008198E1,3.7665558E0,3.2184456E1,-1.1042209E1,-2.7453173E1,-5.665189E1,-3.1543255E1,-1.2065368E0,1.0035676E1,3.001338E1,1.3543166E2,-2.0576966E0,-1.4558771E1,-3.320299E1,-5.5394773E0,-6.5723335E1,-3.4999855E1,-3.414498E1,-2.8511968E0,-3.1969874E0,8.726171E0,5.8881464E0,1.4510165E1,2.4034082E1,4.499529E1,1.0259544E2,2.7806427E2,-2.5204854E0,-3.9038084E-2,-6.1512226E-1,-1.5064563E0,-2.361146E0,-1.0414124E0,-9.199735E-1,3.4195122E-1,-4.33689E0,-2.899777E0,-2.1209774E0,-9.118643E-2,-1.8292497E0,-5.9591115E-1,-1.0629342E0,1.8677063E-2,-2.4070334E-1,3.186112E-1,3.8323903E-1,2.4062862E0,7.958822E-1,1.2993096E-1,5.88143E-1,1.2738751E0,1.1164892E0,2.019796E0,2.8858125E0,1.7703816E0,3.751817E0,8.041925E0,2.1998383E1,5.592933E0],"categories":[],"categories_nodes":[],"categories_segments":[],"categories_sizes":[],"default_left":[0,0,0,0,0,0,0,0,0,0,0,0,0,0,0,0,0,0,0,0,0,0,0,0,0,0,0,0,0,0,0,0,0,0,0,0,0,0,0,0,0,0,0,0,0,0,0,0,0,0,0,0,0,0,0,0,0,0,0,0,0,0,0],"id":10,"left_children":[1,3,5,7,9,11,13,15,17,19,21,23,25,27,29,31,33,35,37,39,41,43,45,47,49,51,53,55,57,59,61,-1,-1,-1,-1,-1,-1,-1,-1,-1,-1,-1,-1,-1,-1,-1,-1,-1,-1,-1,-1,-1,-1,-1,-1,-1,-1,-1,-1,-1,-1,-1,-1],"loss_changes":[2.0704068E7,3.572098E6,7.8176675E6,6.17683E5,1.280857E6,1.0363952E6,3.057478E6,3.44762E5,3.658455E5,6.00302E5,4.50558E5,3.665346E5,2.7281112E5,1.197338E6,1.2875395E6,1.8957145E5,2.75168E5,3.9822375E5,9.643423E4,3.45906E5,2.23433E5,2.99746E5,2.986568E4,2.3901381E5,1.2905872E5,2.5178894E5,2.1281412E5,2.657945E5,4.6325E5,3.5711025E5,1.3500668E6,0E0,0E0,0E0,0E0,0E0,0E0,0E0,0E0,0E0,0E0,0E0,0E0,0E0,0E0,0E0,0E0,0E0,0E0,0E0,0E0,0E0,0E0,0E0,0E0,0E0,0E0,0E0,0E0,0E0,0E0,0E0,0E0],"parents":[2147483647,0,0,1,1,2,2,3,3,4,4,5,5,6,6,7,7,8,8,9,9,10,10,11,11,12,12,13,13,14,14,15,15,16,16,17,17,18,18,19,19,20,20,21,21,22,22,23,23,24,24,25,25,26,26,27,27,28,28,29,29,30,30],"right_children":[2,4,6,8,10,12,14,16,18,20,22,24,26,28,30,32,34,36,38,40,42,44,46,48,50,52,54,56,58,60,62,-1,-1,-1,-1,-1,-1,-1,-1,-1,-1,-1,-1,-1,-1,-1,-1,-1,-1,-1,-1,-1,-1,-1,-1,-1,-1,-1,-1,-1,-1,-1,-1],"split_conditions":[8.014E1,1E0,1.2315E2,3.09E2,0E0,1.0102E2,3.1502E2,6E0,6E0,6E0,1.1E1,1.1135E2,1.4E1,1.5773E2,2.3106E2,-6E-2,8.095807E-1,3.63E1,7E-2,-9.9E-1,9E0,6E0,3.398E1,6E0,2.6376E2,2.7020001E0,1.3E2,6E0,2E0,1.6209E2,4.1290067E-2,-2.5204854E0,-3.9038084E-2,-6.1512226E-1,-1.5064563E0,-2.361146E0,-1.0414124E0,-9.199735E-1,3.4195122E-1,-4.33689E0,-2.899777E0,-2.1209774E0,-9.118643E-2,-1.8292497E0,-5.9591115E-1,-1.0629342E0,1.8677063E-2,-2.4070334E-1,3.186112E-1,3.8323903E-1,2.4062862E0,7.958822E-1,1.2993096E-1,5.88143E-1,1.2738751E0,1.1164892E0,2.019796E0,2.8858125E0,1.7703816E0,3.751817E0,8.041925E0,2.1998383E1,5.592933E0],"split_indices":[0,19,0,16,0,0,0,4,3,3,4,9,1,0,9,0,12,0,0,9,4,3,0,3,9,14,9,3,3,9,12,0,0,0,0,0,0,0,0,0,0,0,0,0,0,0,0,0,0,0,0,0,0,0,0,0,0,0,0,0,0,0,0],"split_type":[0,0,0,0,0,0,0,0,0,0,0,0,0,0,0,0,0,0,0,0,0,0,0,0,0,0,0,0,0,0,0,0,0,0,0,0,0,0,0,0,0,0,0,0,0,0,0,0,0,0,0,0,0,0,0,0,0,0,0,0,0,0,0],"sum_hessian":[6.9817E4,2.2919E4,4.6898E4,1.3816E4,9.103E3,3.3241E4,1.3657E4,1.0912E4,2.904E3,3.067E3,6.036E3,1.8537E4,1.4704E4,1.3377E4,2.8E2,3.07E3,7.842E3,2.3E3,6.04E2,2.16E3,9.07E2,5.534E3,5.02E2,1.5443E4,3.094E3,7.632E3,7.072E3,9.563E3,3.814E3,2.29E2,5.1E1,7.8E1,2.992E3,6.851E3,9.91E2,1.077E3,1.223E3,2.96E2,3.08E2,5.78E2,1.582E3,7.41E2,1.66E2,4.986E3,5.48E2,7.4E1,4.28E2,1.3211E4,2.232E3,3.014E3,8E1,1.884E3,5.748E3,5.657E3,1.415E3,8.663E3,9E2,1.637E3,2.177E3,1.57E2,7.2E1,2.5E1,2.6E1],"tree_param":{"num_deleted":"0","num_feature":"20","num_nodes":"63","size_leaf_vector":"1"}},{"base_weights":[4.439769E-3,-1.7011534E1,1.574838E1,-3.5879868E1,-8.890485E0,9.230304E0,3.80804E1,-4.383562E1,-1.5617535E1,-4.5976667E0,-1.8343313E1,4.866633E0,1.7325588E1,3.4854015E1,1.2880023E2,-2.4149652E1,-5.172056E1,-3.219145E1,-3.94103E0,-6.55938E0,5.7059593E0,-2.0846706E1,1.1084956E1,-5.615131E-1,7.710211E0,1.5682909E1,2.9961794E1,3.0013975E1,5.0039738E1,9.7516945E1,2.6469168E2,-7.92021E-1,-2.4676845E0,-4.005581E0,-2.3926353E0,-3.3391368E0,-1.370955E0,3.9852604E-1,-4.7533727E-1,-5.3669184E-1,-1.8937802E-1,-2.798205E-2,6.225439E-1,-7.125276E-1,-1.830634E0,1.5724156E0,3.0455622E-1,1.9538647E-1,-3.9358407E-1,2.794405E-1,1.0558841E0,9.720468E-1,3.8974175E-1,1.5372969E-1,1.8340098E0,1.4150599E0,2.8840425E0,3.3520648E0,1.7143875E0,5.6010294E0,-1.4539938E-1,1.8856855E1,2.4771185E0],"categories":[],"categories_nodes":[],"categories_segments":[],"categories_sizes":[],"default_left":[0,0,0,0,0,0,0,0,0,0,0,0,0,0,0,0,0,0,0,0,0,0,0,0,0,0,0,0,0,0,0,0,0,0,0,0,0,0,0,0,0,0,0,0,0,0,0,0,0,0,0,0,0,0,0,0,0,0,0,0,0,0,0],"id":11,"left_children":[1,3,5,7,9,11,13,15,17,19,21,23,25,27,29,31,33,35,37,39,41,43,45,47,49,51,53,55,57,59,61,-1,-1,-1,-1,-1,-1,-1,-1,-1,-1,-1,-1,-1,-1,-1,-1,-1,-1,-1,-1,-1,-1,-1,-1,-1,-1,-1,-1,-1,-1,-1,-1],"loss_changes":[1.8704404E7,5.141182E6,5.278448E6,1.626812E6,9.5186475E5,9.9159875E5,2.393576E6,1.123959E6,5.510334E5,3.261501E5,5.399415E5,2.8157606E5,2.0361525E5,5.801E5,1.168756E6,4.3377762E5,5.64446E5,1.9247012E5,1.1092319E5,1.5679056E5,1.09082516E5,7.01651E5,5.8280875E4,2.0494273E5,3.403687E5,2.578365E5,2.0400931E5,2.828325E5,5.09483E5,3.35327E5,1.2393288E6,0E0,0E0,0E0,0E0,0E0,0E0,0E0,0E0,0E0,0E0,0E0,0E0,0E0,0E0,0E0,0E0,0E0,0E0,0E0,0E0,0E0,0E0,0E0,0E0,0E0,0E0,0E0,0E0,0E0,0E0,0E0,0E0],"parents":[2147483647,0,0,1,1,2,2,3,3,4,4,5,5,6,6,7,7,8,8,9,9,10,10,11,11,12,12,13,13,14,14,15,15,16,16,17,17,18,18,19,19,20,20,21,21,22,22,23,23,24,24,25,25,26,26,27,27,28,28,29,29,30,30],"right_children":[2,4,6,8,10,12,14,16,18,20,22,24,26,28,30,32,34,36,38,40,42,44,46,48,50,52,54,56,58,60,62,-1,-1,-1,-1,-1,-1,-1,-1,-1,-1,-1,-1,-1,-1,-1,-1,-1,-1,-1,-1,-1,-1,-1,-1,-1,-1,-1,-1,-1,-1,-1,-1],"split_conditions":[9.208E1,3.119E1,1.3709E2,6E0,1.55E2,1.1495E2,3.1502E2,2.5702303E-3,-1.1E-1,1.1094E2,6E0,9.344E1,6E0,1.8E2,2.3106E2,5E0,-1.202E1,-5.195E1,3.056924E4,7.707E1,1.0042E2,4E0,9E0,4E0,6E0,4E0,6E0,6E0,2E0,1.4752E1,3.31172E3,-7.92021E-1,-2.4676845E0,-4.005581E0,-2.3926353E0,-3.3391368E0,-1.370955E0,3.9852604E-1,-4.7533727E-1,-5.3669184E-1,-1.8937802E-1,-2.798205E-2,6.225439E-1,-7.125276E-1,-1.830634E0,1.5724156E0,3.0455622E-1,1.9538647E-1,-3.9358407E-1,2.794405E-1,1.0558841E0,9.720468E-1,3.8974175E-1,1.5372969E-1,1.8340098E0,1.4150599E0,2.8840425E0,3.3520648E0,1.7143875E0,5.6010294E0,-1.4539938E-1,1.8856855E1,2.4771185E0],"split_indices":[0,0,0,3,16,0,0,17,0,9,3,8,3,0,9,3,0,0,11,0,8,3,1,3,3,3,1,3,3,14,11,0,0,0,0,0,0,0,0,0,0,0,0,0,0,0,0,0,0,0,0,0,0,0,0,0,0,0,0,0,0,0,0],"split_type":[0,0,0,0,0,0,0,0,0,0,0,0,0,0,0,0,0,0,0,0,0,0,0,0,0,0,0,0,0,0,0,0,0,0,0,0,0,0,0,0,0,0,0,0,0,0,0,0,0,0,0,0,0,0,0,0,0,0,0,0,0,0,0],"sum_hessian":[6.9817E4,3.3553E4,3.6264E4,1.0095E4,2.3458E4,2.8072E4,8.192E3,7.248E3,2.847E3,1.6133E4,7.325E3,1.8241E4,9.831E3,7.912E3,2.8E2,2.074E3,5.174E3,1.176E3,1.671E3,1.3553E4,2.58E3,6.751E3,5.74E2,6.271E3,1.197E4,8.702E3,1.129E3,6.002E3,1.91E3,2.29E2,5.1E1,1.561E3,5.13E2,6.18E2,4.556E3,1.41E2,1.035E3,5.32E2,1.139E3,5.407E3,8.146E3,1.338E3,1.242E3,4.761E3,1.99E3,1.12E2,4.62E2,3.892E3,2.379E3,1.0336E4,1.634E3,5.893E3,2.809E3,2.26E2,9.03E2,5.654E3,3.48E2,9.17E2,9.93E2,2E2,2.9E1,3.3E1,1.8E1],"tree_param":{"num_deleted":"0","num_feature":"20","num_nodes":"63","size_leaf_vector":"1"}},{"base_weights":[4.5807995E-3,-2.2907917E1,1.0613188E1,-1.3438572E1,-3.6763123E1,4.437672E0,3.2829742E1,-1.6956566E1,-2.1591115E0,-4.7516727E1,-2.6329603E1,-2.8830513E-1,1.2158778E1,3.0332943E1,1.2245556E2,-2.9349283E1,-1.1394609E1,-2.3731554E1,7.1451173E0,-5.4732597E1,-2.7566622E1,-2.9003296E1,-2.114146E0,-5.4602346E0,3.1153724E0,9.031952E0,1.7625637E1,2.5236292E1,4.410352E1,6.739965E1,1.9469974E2,-9.3554896E-1,-2.0273116E0,-3.7159997E-1,-9.1609424E-1,-7.111582E-1,-2.750695E0,-9.871254E-1,5.770681E-1,-2.1931803E0,-3.3033826E0,-3.1697128E0,-1.134922E0,4.5538098E-1,-1.509184E0,1.7646042E-1,-7.8805536E-1,6.3706636E-3,-4.4289967E-1,7.2775416E-2,7.4378717E-1,9.850399E-1,3.2787928E-1,7.3044676E-1,1.8819689E0,1.1788678E0,2.3031232E0,2.840739E0,1.6451321E0,2.6955798E0,5.1020174E0,2.6982343E0,1.3441892E1],"categories":[],"categories_nodes":[],"categories_segments":[],"categories_sizes":[],"default_left":[0,0,0,0,0,0,0,0,0,0,0,0,0,0,0,0,0,0,0,0,0,0,0,0,0,0,0,0,0,0,0,0,0,0,0,0,0,0,0,0,0,0,0,0,0,0,0,0,0,0,0,0,0,0,0,0,0,0,0,0,0,0,0],"id":12,"left_children":[1,3,5,7,9,11,13,15,17,19,21,23,25,27,29,31,33,35,37,39,41,43,45,47,49,51,53,55,57,59,61,-1,-1,-1,-1,-1,-1,-1,-1,-1,-1,-1,-1,-1,-1,-1,-1,-1,-1,-1,-1,-1,-1,-1,-1,-1,-1,-1,-1,-1,-1,-1,-1],"loss_changes":[1.6970882E7,2.898495E6,6.547387E6,5.2085675E5,1.005165E6,1.3626775E6,2.319099E6,6.893565E5,6.268016E5,6.34207E5,2.9485075E5,4.0782153E5,2.4221538E5,7.07743E5,1.1045465E6,3.683835E5,1.8948906E5,2.7911306E5,2.5815025E5,3.96519E5,2.0349912E5,1.848055E5,3.502027E4,1.7457262E5,2.727204E5,2.3803931E5,3.1086712E5,2.5368E5,3.863935E5,6.972381E4,1.247985E6,0E0,0E0,0E0,0E0,0E0,0E0,0E0,0E0,0E0,0E0,0E0,0E0,0E0,0E0,0E0,0E0,0E0,0E0,0E0,0E0,0E0,0E0,0E0,0E0,0E0,0E0,0E0,0E0,0E0,0E0,0E0,0E0],"parents":[2147483647,0,0,1,1,2,2,3,3,4,4,5,5,6,6,7,7,8,8,9,9,10,10,11,11,12,12,13,13,14,14,15,15,16,16,17,17,18,18,19,19,20,20,21,21,22,22,23,23,24,24,25,25,26,26,27,27,28,28,29,29,30,30],"right_children":[2,4,6,8,10,12,14,16,18,20,22,24,26,28,30,32,34,36,38,40,42,44,46,48,50,52,54,56,58,60,62,-1,-1,-1,-1,-1,-1,-1,-1,-1,-1,-1,-1,-1,-1,-1,-1,-1,-1,-1,-1,-1,-1,-1,-1,-1,-1,-1,-1,-1,-1,-1,-1],"split_conditions":[7.899E1,1E0,1.3044E2,6E0,8.57E0,1.0579E2,3.1502E2,3.119E1,6E0,6E0,1.1E1,8.77E1,1.195E2,1.6858E2,1.7135E2,4E0,4E0,2.9933686E4,-1.1E-1,4E0,-5.195E1,2E0,7.083E1,2E0,1.2378E2,1E0,6E0,6E0,2E0,6.9899354E0,1.1E1,-9.3554896E-1,-2.0273116E0,-3.7159997E-1,-9.1609424E-1,-7.111582E-1,-2.750695E0,-9.871254E-1,5.770681E-1,-2.1931803E0,-3.3033826E0,-3.1697128E0,-1.134922E0,4.5538098E-1,-1.509184E0,1.7646042E-1,-7.8805536E-1,6.3706636E-3,-4.4289967E-1,7.2775416E-2,7.4378717E-1,9.850399E-1,3.2787928E-1,7.3044676E-1,1.8819689E0,1.1788678E0,2.3031232E0,2.840739E0,1.6451321E0,2.6955798E0,5.1020174E0,2.6982343E0,1.3441892E1],"split_indices":[0,19,0,3,0,0,0,0,1,3,4,8,8,0,9,3,3,11,0,3,0,4,7,3,9,3,3,3,3,15,4,0,0,0,0,0,0,0,0,0,0,0,0,0,0,0,0,0,0,0,0,0,0,0,0,0,0,0,0,0,0,0,0],"split_type":[0,0,0,0,0,0,0,0,0,0,0,0,0,0,0,0,0,0,0,0,0,0,0,0,0,0,0,0,0,0,0,0,0,0,0,0,0,0,0,0,0,0,0,0,0,0,0,0,0,0,0,0,0,0,0,0,0,0,0,0,0,0,0],"sum_hessian":[6.9817E4,2.2095E4,4.7722E4,1.3126E4,8.969E3,3.7343E4,1.0379E4,1.0005E4,3.121E3,4.415E3,4.554E3,2.3165E4,1.4178E4,1.0099E4,2.8E2,3.098E3,6.907E3,9.4E2,2.181E3,3.241E3,1.174E3,4.101E3,4.53E2,9.194E3,1.3971E4,9.021E3,5.157E3,7.373E3,2.726E3,1.6E2,1.2E2,1.59E3,1.508E3,4.395E3,2.512E3,7.22E2,2.18E2,3.06E2,1.875E3,1.657E3,1.584E3,1.39E2,1.035E3,1.23E2,3.978E3,3.21E2,1.32E2,3.477E3,5.717E3,1.2244E4,1.727E3,1.697E3,7.324E3,4.483E3,6.74E2,6.831E3,5.42E2,1.275E3,1.451E3,1.17E2,4.3E1,4.2E1,7.8E1],"tree_param":{"num_deleted":"0","num_feature":"20","num_nodes":"63","size_leaf_vector":"1"}},{"base_weights":[4.5892424E-3,-1.639578E1,1.3385421E1,-2.991852E1,-7.377833E0,7.6815057E0,3.444852E1,-1.852909E1,-4.0683613E1,-1.0365388E1,1.4272583E0,3.8436904E0,1.5653792E1,3.1533335E1,1.1641797E2,-2.4827883E1,-4.267745E0,-3.705336E1,-6.542922E1,-7.5609164E0,-1.9952007E1,-3.992513E0,5.821793E0,5.0906963E0,-8.547651E0,1.4171218E1,2.7058392E1,3.6437637E1,1.7498493E1,7.52474E1,2.043899E2,-7.736601E-1,-1.7697371E0,-1.2473456E0,1.0468054E-1,-2.0943236E0,-9.778218E-1,-4.907081E0,-2.5829265E0,-7.4261725E-1,-2.7525607E-1,-1.2686462E0,-4.550794E-1,-3.1426325E-1,3.6868992E-1,-7.5237374E-3,5.975187E-1,-5.782615E-3,4.0034023E-1,-2.066164E-1,-1.0930349E0,8.858124E-1,3.3652222E-1,7.877052E-2,1.6713698E0,1.6961396E0,3.5395753E0,4.8911783E-1,2.710468E0,2.4675035E0,5.128167E0,1.4680117E1,2.5720146E0],"categories":[],"categories_nodes":[],"categories_segments":[],"categories_sizes":[],"default_left":[0,0,0,0,0,0,0,0,0,0,0,1,0,0,0,0,0,0,0,0,0,0,0,0,0,0,0,0,0,0,0,0,0,0,0,0,0,0,0,0,0,0,0,0,0,0,0,0,0,0,0,0,0,0,0,0,0,0,0,0,0,0,0],"id":13,"left_children":[1,3,5,7,9,11,13,15,17,19,21,23,25,27,29,31,33,35,37,39,41,43,45,47,49,51,53,55,57,59,61,-1,-1,-1,-1,-1,-1,-1,-1,-1,-1,-1,-1,-1,-1,-1,-1,-1,-1,-1,-1,-1,-1,-1,-1,-1,-1,-1,-1,-1,-1,-1,-1],"loss_changes":[1.5321821E7,3.825268E6,4.6190805E6,1.53798E6,4.9511406E5,9.2568775E5,1.954096E6,5.4785225E5,5.77087E5,3.7766988E5,1.136083E5,3.156676E5,1.6585775E5,5.44023E5,1.002361E6,4.1768525E5,2.460461E5,4.751105E5,3.661195E5,1.6291606E5,1.8681425E5,5.571079E4,9.641023E4,2.8176872E5,1.0971331E5,2.2944638E5,1.8334762E5,5.041305E5,5.804484E5,1.3146875E5,1.1993028E6,0E0,0E0,0E0,0E0,0E0,0E0,0E0,0E0,0E0,0E0,0E0,0E0,0E0,0E0,0E0,0E0,0E0,0E0,0E0,0E0,0E0,0E0,0E0,0E0,0E0,0E0,0E0,0E0,0E0,0E0,0E0,0E0],"parents":[2147483647,0,0,1,1,2,2,3,3,4,4,5,5,6,6,7,7,8,8,9,9,10,10,11,11,12,12,13,13,14,14,15,15,16,16,17,17,18,18,19,19,20,20,21,21,22,22,23,23,24,24,25,25,26,26,27,27,28,28,29,29,30,30],"right_children":[2,4,6,8,10,12,14,16,18,20,22,24,26,28,30,32,34,36,38,40,42,44,46,48,50,52,54,56,58,60,62,-1,-1,-1,-1,-1,-1,-1,-1,-1,-1,-1,-1,-1,-1,-1,-1,-1,-1,-1,-1,-1,-1,-1,-1,-1,-1,-1,-1,-1,-1,-1,-1],"split_conditions":[8.981E1,5.005E1,1.3709E2,1E0,9.862E1,1.1495E2,3.1502E2,6E0,5.989821E1,1E0,8.826E1,4.3628397E-3,6E0,4E0,2.0203E2,4E0,6E0,6E0,-9.9E-1,6.827E1,1E1,1.5696165E1,1.1497E2,6E0,1E0,4E0,6E0,1.2E1,6E0,1.3659E2,3.642605E3,-7.736601E-1,-1.7697371E0,-1.2473456E0,1.0468054E-1,-2.0943236E0,-9.778218E-1,-4.907081E0,-2.5829265E0,-7.4261725E-1,-2.7525607E-1,-1.2686462E0,-4.550794E-1,-3.1426325E-1,3.6868992E-1,-7.5237374E-3,5.975187E-1,-5.782615E-3,4.0034023E-1,-2.066164E-1,-1.0930349E0,8.858124E-1,3.3652222E-1,7.877052E-2,1.6713698E0,1.6961396E0,3.5395753E0,4.8911783E-1,2.710468E0,2.4675035E0,5.128167E0,1.4680117E1,2.5720146E0],"split_indices":[0,0,0,19,9,0,0,3,10,19,8,17,3,3,9,3,1,3,9,0,4,15,9,1,19,3,1,4,3,9,11,0,0,0,0,0,0,0,0,0,0,0,0,0,0,0,0,0,0,0,0,0,0,0,0,0,0,0,0,0,0,0,0],"split_type":[0,0,0,0,0,0,0,0,0,0,0,0,0,0,0,0,0,0,0,0,0,0,0,0,0,0,0,0,0,0,0,0,0,0,0,0,0,0,0,0,0,0,0,0,0,0,0,0,0,0,0,0,0,0,0,0,0,0,0,0,0,0,0],"sum_hessian":[6.9817E4,3.1369E4,3.8448E4,1.2549E4,1.882E4,3.0256E4,8.192E3,6.099E3,6.45E3,1.4052E4,4.768E3,2.0425E4,9.831E3,7.912E3,2.8E2,4.23E3,1.869E3,5.627E3,8.23E2,1.0873E4,3.179E3,2.135E3,2.633E3,1.8558E4,1.867E3,8.702E3,1.129E3,5.862E3,2.05E3,1.92E2,8.8E1,2.245E3,1.985E3,4.39E2,1.43E3,4.408E3,1.219E3,2.42E2,5.81E2,2.39E3,8.483E3,2.119E3,1.06E3,1.777E3,3.58E2,1.334E3,1.299E3,6.663E3,1.1895E4,1.403E3,4.64E2,5.893E3,2.809E3,2.26E2,9.03E2,5.464E3,3.98E2,1.695E3,3.55E2,1E2,9.2E1,5.5E1,3.3E1],"tree_param":{"num_deleted":"0","num_feature":"20","num_nodes":"63","size_leaf_vector":"1"}},{"base_weights":[4.632133E-3,-2.1878456E1,9.079244E0,-1.2678455E1,-3.4034462E1,2.2001684E0,2.5667425E1,-1.52518E2,-1.2364632E1,-4.596091E1,-2.7303669E1,-3.5341475E0,6.117368E0,2.3981674E1,1.1068549E2,-1.8330333E2,-2.1385834E0,-1.6574392E1,-3.6222112E0,-5.406664E1,-2.6828054E1,-3.0944685E1,-1.6583796E0,5.042226E0,-5.8138113E0,4.3006215E0,1.7456882E1,1.8863043E1,3.6591774E1,8.2884224E1,2.315241E2,-1.1278191E1,-6.816635E0,-1.0294296E0,-2.9606494E-1,-3.8888538E-1,6.518797E-1,-3.6906316E0,-2.4285715E0,-2.1856248E0,-1.0648034E0,-1.1595676E0,-2.2974324E0,-8.338394E-1,1.1747588E-1,4.5972493E-2,1.1625677E0,-3.861457E-1,2.320503E-1,4.1013503E-1,-1.1817725E-1,-2.6118532E-2,1.2513678E0,9.0651524E-1,2.9557934E0,2.399101E0,1.4123926E0,4.823602E0,-5.458494E-1,4.2696185E0,1.8718575E1],"categories":[],"categories_nodes":[],"categories_segments":[],"categories_sizes":[],"default_left":[0,0,0,0,0,0,0,0,0,0,0,0,0,0,0,0,0,0,0,0,0,0,0,0,0,0,0,0,0,0,0,0,0,0,0,0,0,0,0,0,0,0,0,0,0,0,0,0,0,0,0,0,0,0,0,0,0,0,0,0,0],"id":14,"left_children":[1,3,5,7,9,11,13,15,17,19,21,23,25,27,29,31,-1,33,35,37,39,41,43,45,47,49,51,53,55,57,59,-1,-1,-1,-1,-1,-1,-1,-1,-1,-1,-1,-1,-1,-1,-1,-1,-1,-1,-1,-1,-1,-1,-1,-1,-1,-1,-1,-1,-1,-1],"loss_changes":[1.3864695E7,2.288388E6,5.631681E6,5.0941675E5,7.06444E5,7.8366944E5,2.070745E6,8.000281E4,4.278175E5,4.91567E5,5.26396E5,2.76875E5,4.2694294E5,9.1503E5,9.2482025E5,8.9483125E3,0E0,3.354445E5,2.6178989E5,2.386055E5,8.761656E4,5.73259E5,4.2294137E4,2.2324322E5,2.2332081E5,4.6463478E5,3.89564E5,2.966195E5,3.878305E5,2.942005E5,1.0535072E6,0E0,0E0,0E0,0E0,0E0,0E0,0E0,0E0,0E0,0E0,0E0,0E0,0E0,0E0,0E0,0E0,0E0,0E0,0E0,0E0,0E0,0E0,0E0,0E0,0E0,0E0,0E0,0E0,0E0,0E0],"parents":[2147483647,0,0,1,1,2,2,3,3,4,4,5,5,6,6,7,7,8,8,9,9,10,10,11,11,12,12,13,13,14,14,15,15,17,17,18,18,19,19,20,20,21,21,22,22,23,23,24,24,25,25,26,26,27,27,28,28,29,29,30,30],"right_children":[2,4,6,8,10,12,14,16,18,20,22,24,26,28,30,32,-1,34,36,38,40,42,44,46,48,50,52,54,56,58,60,-1,-1,-1,-1,-1,-1,-1,-1,-1,-1,-1,-1,-1,-1,-1,-1,-1,-1,-1,-1,-1,-1,-1,-1,-1,-1,-1,-1,-1,-1],"split_conditions":[7.587E1,3.05E2,1.2146E2,-5.195E1,0E0,9.114E1,3.1502E2,6E0,9.219E1,6E0,6E0,1E0,6E0,1.5562E2,2.3106E2,6E0,-2.1385834E0,6E0,1.7208603E1,-1.37E0,-2.998E1,4E0,-2.05E0,1.1497E2,1.8E1,4E0,6E0,2.3106E2,2E0,1.4752E1,3.1502E2,-1.1278191E1,-6.816635E0,-1.0294296E0,-2.9606494E-1,-3.8888538E-1,6.518797E-1,-3.6906316E0,-2.4285715E0,-2.1856248E0,-1.0648034E0,-1.1595676E0,-2.2974324E0,-8.338394E-1,1.1747588E-1,4.5972493E-2,1.1625677E0,-3.861457E-1,2.320503E-1,4.1013503E-1,-1.1817725E-1,-2.6118532E-2,1.2513678E0,9.0651524E-1,2.9557934E0,2.399101E0,1.4123926E0,4.823602E0,-5.458494E-1,4.2696185E0,1.8718575E1],"split_indices":[0,16,0,0,0,8,0,4,9,3,3,3,3,0,9,3,0,3,15,9,0,3,9,9,1,3,1,9,3,14,7,0,0,0,0,0,0,0,0,0,0,0,0,0,0,0,0,0,0,0,0,0,0,0,0,0,0,0,0,0,0],"split_type":[0,0,0,0,0,0,0,0,0,0,0,0,0,0,0,0,0,0,0,0,0,0,0,0,0,0,0,0,0,0,0,0,0,0,0,0,0,0,0,0,0,0,0,0,0,0,0,0,0,0,0,0,0,0,0,0,0,0,0,0,0],"sum_hessian":[6.9817E4,2.0465E4,4.9352E4,1.165E4,8.815E3,3.4886E4,1.4466E4,2.5E1,1.1625E4,3.178E3,5.637E3,1.4159E4,2.0727E4,1.4186E4,2.8E2,1.9E1,6E0,7.846E3,3.779E3,2.231E3,9.47E2,4.936E3,7.01E2,2.973E3,1.1186E4,1.7866E4,2.861E3,1.0092E4,4.094E3,2.29E2,5.1E1,8E0,1.1E1,5.698E3,2.148E3,3.025E3,7.54E2,4.83E2,1.748E3,2.32E2,7.15E2,3.256E3,1.68E3,1.47E2,5.54E2,2.425E3,5.48E2,9.459E3,1.727E3,1.1268E4,6.598E3,8.48E2,2.013E3,9.913E3,1.79E2,1.729E3,2.365E3,2E2,2.9E1,2.6E1,2.5E1],"tree_param":{"num_deleted":"0","num_feature":"20","num_nodes":"61","size_leaf_vector":"1"}},{"base_weights":[4.4391835E-3,-1.3731989E1,1.3116746E1,-2.9547436E1,-7.0792165E0,8.8631935E0,3.6598183E1,-3.615084E1,-1.2729446E1,-3.4245317E0,-1.4986411E1,4.163254E0,1.5491923E1,3.287997E1,1.05248245E2,-5.6066647E1,-3.0308535E1,-2.6951035E1,-2.7105827E0,-5.9775147E0,2.5407338E0,-1.7858284E1,1.320548E1,1.7596307E0,9.576162E0,1.4849598E1,4.615079E1,4.3244972E1,2.573831E1,5.6374325E1,1.6940901E2,-6.29428E0,-2.6064692E0,-9.111678E-1,-1.9062233E0,-1.6297325E0,-1.1952163E-1,4.211464E-1,-3.956805E-1,-1.304665E-1,-4.5591122E-1,8.277719E-2,1.1345562E0,-5.786612E-1,-1.61031E0,1.6857418E0,3.3954003E-1,4.3539864E-1,-5.0701905E-2,3.853618E-1,1.6039461E0,4.860189E-1,9.3414575E-1,3.0332077E0,1.3993293E0,1.6785592E0,4.846546E0,1.6515967E0,4.328866E-1,2.1712863E0,4.4909434E0,2.1019456E0,1.1829631E1],"categories":[],"categories_nodes":[],"categories_segments":[],"categories_sizes":[],"default_left":[0,0,0,0,0,0,0,0,0,0,0,0,0,0,0,0,0,0,0,0,0,0,0,0,0,0,0,0,0,0,0,0,0,0,0,0,0,0,0,0,0,0,0,0,0,0,0,0,0,0,0,0,0,0,0,0,0,0,0,0,0,0,0],"id":15,"left_children":[1,3,5,7,9,11,13,15,17,19,21,23,25,27,29,31,33,35,37,39,41,43,45,47,49,51,53,55,57,59,61,-1,-1,-1,-1,-1,-1,-1,-1,-1,-1,-1,-1,-1,-1,-1,-1,-1,-1,-1,-1,-1,-1,-1,-1,-1,-1,-1,-1,-1,-1,-1,-1],"loss_changes":[1.2575537E7,3.587466E6,3.567473E6,1.120761E6,6.935946E5,9.42176E5,1.3948295E6,8.41752E5,4.0572184E5,2.5003331E5,6.145061E5,2.3024466E5,2.4640225E5,3.8366E5,8.7160625E5,4.45091E5,5.28925E5,1.6306681E5,9.6922195E4,1.21597125E5,8.773792E4,6.205895E5,9.212682E4,2.3623062E5,2.2862156E5,2.4148325E5,6.60535E4,1.0972422E6,3.8341838E5,6.582219E4,1.02547275E6,0E0,0E0,0E0,0E0,0E0,0E0,0E0,0E0,0E0,0E0,0E0,0E0,0E0,0E0,0E0,0E0,0E0,0E0,0E0,0E0,0E0,0E0,0E0,0E0,0E0,0E0,0E0,0E0,0E0,0E0,0E0,0E0],"parents":[2147483647,0,0,1,1,2,2,3,3,4,4,5,5,6,6,7,7,8,8,9,9,10,10,11,11,12,12,13,13,14,14,15,15,16,16,17,17,18,18,19,19,20,20,21,21,22,22,23,23,24,24,25,25,26,26,27,27,28,28,29,29,30,30],"right_children":[2,4,6,8,10,12,14,16,18,20,22,24,26,28,30,32,34,36,38,40,42,44,46,48,50,52,54,56,58,60,62,-1,-1,-1,-1,-1,-1,-1,-1,-1,-1,-1,-1,-1,-1,-1,-1,-1,-1,-1,-1,-1,-1,-1,-1,-1,-1,-1,-1,-1,-1,-1,-1],"split_conditions":[9.28E1,3.119E1,1.49E2,6E0,2.5702303E-3,1.1495E2,3.1502E2,1E-2,-1.1E-1,9.862E1,6E0,1.8E1,2.1536E2,2E0,1.7135E2,-2.991E1,4.066113E-3,9E0,3.056924E4,9E0,2.0380579E1,4E0,9E0,4.152E0,1.3705E2,1.1726E2,2E0,1.1E1,9E0,6.9899354E0,1.1E1,-6.29428E0,-2.6064692E0,-9.111678E-1,-1.9062233E0,-1.6297325E0,-1.1952163E-1,4.211464E-1,-3.956805E-1,-1.304665E-1,-4.5591122E-1,8.277719E-2,1.1345562E0,-5.786612E-1,-1.61031E0,1.6857418E0,3.3954003E-1,4.3539864E-1,-5.0701905E-2,3.853618E-1,1.6039461E0,4.860189E-1,9.3414575E-1,3.0332077E0,1.3993293E0,1.6785592E0,4.846546E0,1.6515967E0,4.328866E-1,2.1712863E0,4.4909434E0,2.1019456E0,1.1829631E1],"split_indices":[0,0,0,3,17,0,0,9,0,9,3,1,9,3,9,8,17,4,11,4,15,3,1,14,8,8,3,4,4,15,4,0,0,0,0,0,0,0,0,0,0,0,0,0,0,0,0,0,0,0,0,0,0,0,0,0,0,0,0,0,0,0,0],"split_type":[0,0,0,0,0,0,0,0,0,0,0,0,0,0,0,0,0,0,0,0,0,0,0,0,0,0,0,0,0,0,0,0,0,0,0,0,0,0,0,0,0,0,0,0,0,0,0,0,0,0,0,0,0,0,0,0,0,0,0,0,0,0,0],"sum_hessian":[6.9817E4,3.4097E4,3.572E4,1.0095E4,2.4002E4,3.0243E4,5.477E3,7.248E3,2.847E3,1.6416E4,7.586E3,1.7697E4,1.2546E4,5.197E3,2.8E2,1.642E3,5.606E3,1.176E3,1.671E3,1.1496E4,4.92E3,6.885E3,7.01E2,1.2256E4,5.441E3,1.229E4,2.56E2,2.118E3,3.079E3,1.6E2,1.2E2,8.6E1,1.556E3,2.203E3,3.403E3,9.56E2,2.2E2,5.32E2,1.139E3,5.548E3,5.948E3,4.714E3,2.06E2,4.789E3,2.096E3,1.66E2,5.35E2,3.496E3,8.76E3,5.025E3,4.16E2,5.258E3,7.032E3,1.41E2,1.15E2,1.796E3,3.22E2,2.157E3,9.22E2,1.17E2,4.3E1,4.2E1,7.8E1],"tree_param":{"num_deleted":"0","num_feature":"20","num_nodes":"63","size_leaf_vector":"1"}},{"base_weights":[4.568479E-3,-1.6779732E1,9.752215E0,-9.477745E0,-2.9007858E1,5.2137527E0,2.9679712E1,-1.759746E1,-6.1797023E0,-3.9317196E1,-2.020495E1,7.9205054E-1,1.1395594E1,2.7176706E1,1.0005913E2,-2.4086525E1,-4.5363255E0,-8.143544E0,2.8633585E0,-4.531912E1,-2.2723534E1,-2.2780298E1,-9.6623755E-1,-2.7995257E0,4.553926E0,9.713646E0,1.9601091E1,3.1637808E1,1.4410928E1,6.3407185E1,1.7841605E2,-8.671449E-1,-1.8907312E0,-8.913482E-1,1.9669324E-1,-6.467627E-2,-5.016274E-1,-3.5776436E-2,1.0904684E0,-3.9365666E0,-2.106085E0,-2.6682403E0,-9.2804444E-1,1.7553616E-2,-1.2425554E0,-5.674698E-1,2.2430162E-1,6.149516E-1,-2.0085207E-1,1.0649665E-1,4.920817E-1,4.0888086E-1,9.96057E-1,8.830585E-1,2.0405896E0,1.4638132E0,3.1951973E0,3.5368523E-1,2.4662654E0,3.5879674E0,-4.2090607E-1,1.5063123E1,4.2606297E0],"categories":[],"categories_nodes":[],"categories_segments":[],"categories_sizes":[],"default_left":[0,0,0,0,0,0,0,0,0,0,0,0,0,0,0,0,0,0,0,0,0,0,0,0,0,0,0,0,0,0,0,0,0,0,0,0,0,0,0,0,0,0,0,0,0,0,0,0,0,0,0,0,0,0,0,0,0,0,0,0,0,0,0],"id":16,"left_children":[1,3,5,7,9,11,13,15,17,19,21,23,25,27,29,31,33,35,37,39,41,43,45,47,49,51,53,55,57,59,61,-1,-1,-1,-1,-1,-1,-1,-1,-1,-1,-1,-1,-1,-1,-1,-1,-1,-1,-1,-1,-1,-1,-1,-1,-1,-1,-1,-1,-1,-1,-1,-1],"loss_changes":[1.1422907E7,2.290093E6,3.994409E6,4.3001825E5,8.69519E5,9.833683E5,1.440561E6,3.9306712E5,2.0290372E5,4.38777E5,2.563805E5,2.8340728E5,2.0685562E5,4.501845E5,7.957005E5,2.8624075E5,1.7354703E5,1.21439125E5,1.3827131E5,3.43036E5,1.4887931E5,2.18627E5,3.469732E4,1.9731444E5,1.3129298E5,1.95072E5,1.042455E5,4.448775E5,5.250651E5,1.1638425E5,9.93353E5,0E0,0E0,0E0,0E0,0E0,0E0,0E0,0E0,0E0,0E0,0E0,0E0,0E0,0E0,0E0,0E0,0E0,0E0,0E0,0E0,0E0,0E0,0E0,0E0,0E0,0E0,0E0,0E0,0E0,0E0,0E0,0E0],"parents":[2147483647,0,0,1,1,2,2,3,3,4,4,5,5,6,6,7,7,8,8,9,9,10,10,11,11,12,12,13,13,14,14,15,15,16,16,17,17,18,18,19,19,20,20,21,21,22,22,23,23,24,24,25,25,26,26,27,27,28,28,29,29,30,30],"right_children":[2,4,6,8,10,12,14,16,18,20,22,24,26,28,30,32,34,36,38,40,42,44,46,48,50,52,54,56,58,60,62,-1,-1,-1,-1,-1,-1,-1,-1,-1,-1,-1,-1,-1,-1,-1,-1,-1,-1,-1,-1,-1,-1,-1,-1,-1,-1,-1,-1,-1,-1,-1,-1],"split_conditions":[8.379E1,1E0,1.3709E2,3.119E1,8.57E0,1.0749E2,3.1502E2,6E0,1.8E1,6E0,1.1E1,9.399E1,1.3659E2,4E0,2.0203E2,5E0,7.1453096E3,5E0,1.665754E1,-2.998E1,-5.195E1,3E0,1.803707E1,2E0,1.8E1,6E0,2.1536E2,1.2E1,6E0,1.3914555E-1,4.1290067E-2,-8.671449E-1,-1.8907312E0,-8.913482E-1,1.9669324E-1,-6.467627E-2,-5.016274E-1,-3.5776436E-2,1.0904684E0,-3.9365666E0,-2.106085E0,-2.6682403E0,-9.2804444E-1,1.7553616E-2,-1.2425554E0,-5.674698E-1,2.2430162E-1,6.149516E-1,-2.0085207E-1,1.0649665E-1,4.920817E-1,4.0888086E-1,9.96057E-1,8.830585E-1,2.0405896E0,1.4638132E0,3.1951973E0,3.5368523E-1,2.4662654E0,3.5879674E0,-4.2090607E-1,1.5063123E1,4.2606297E0],"split_indices":[0,19,0,0,0,0,0,3,1,3,4,9,9,3,9,3,13,4,15,0,0,4,10,4,1,3,9,4,3,12,12,0,0,0,0,0,0,0,0,0,0,0,0,0,0,0,0,0,0,0,0,0,0,0,0,0,0,0,0,0,0,0,0],"split_type":[0,0,0,0,0,0,0,0,0,0,0,0,0,0,0,0,0,0,0,0,0,0,0,0,0,0,0,0,0,0,0,0,0,0,0,0,0,0,0,0,0,0,0,0,0,0,0,0,0,0,0,0,0,0,0,0,0,0,0,0,0,0,0],"sum_hessian":[6.9817E4,2.565E4,4.4167E4,1.6061E4,9.589E3,3.5975E4,8.192E3,4.638E3,1.1423E4,4.415E3,5.174E3,2.0974E4,1.5001E4,7.912E3,2.8E2,3.098E3,1.54E3,9.385E3,2.038E3,3.241E3,1.174E3,4.563E3,6.11E2,1.073E4,1.0244E4,1.2451E4,2.55E3,5.862E3,2.05E3,1.92E2,8.8E1,2.079E3,1.019E3,5.99E2,9.41E2,2.029E3,7.356E3,1.715E3,3.23E2,2.81E2,2.96E3,1.39E2,1.035E3,3.75E2,4.188E3,2.1E2,4.01E2,8E2,9.93E3,7.025E3,3.219E3,1.0824E4,1.627E3,2.338E3,2.12E2,5.464E3,3.98E2,1.695E3,3.55E2,1.72E2,2E1,3.7E1,5.1E1],"tree_param":{"num_deleted":"0","num_feature":"20","num_nodes":"63","size_leaf_vector":"1"}},{"base_weights":[4.6422514E-3,-1.8905296E1,7.8463297E0,-1.145269E1,-3.0223595E1,1.5259004E0,2.1224709E1,-1.3928094E2,-1.1140313E1,-4.0249718E1,-2.4193275E1,-3.5084784E0,4.9570003E0,1.9888138E1,9.513621E1,-1.6904585E2,-1.8148346E0,-1.4963375E1,-2.8334596E0,-4.7349747E1,-2.3074093E1,-2.7205444E1,-1.2883936E0,1.9095335E0,-6.7638516E0,3.2169363E0,1.5783318E1,1.5840213E1,3.2340775E1,7.042735E1,2.0259584E2,-1.0610716E1,-6.306827E0,-9.3378973E-1,-2.5288126E-1,-3.1559718E-1,7.415067E-1,-3.0746636E0,-2.0306375E0,-1.0328728E0,-3.130732E0,-1.0050234E0,-2.0981197E0,-1.2043705E0,1.0614467E-1,-7.599371E-3,7.4339414E-1,-4.2537698E-1,1.263067E-1,3.4419486E-1,-1.5231262E-1,6.8952596E-1,3.771735E0,1.1280588E0,6.3748467E-1,1.1344422E0,2.06419E0,4.1529536E0,-8.2763547E-1,1.4460915E1,3.621314E-1],"categories":[],"categories_nodes":[],"categories_segments":[],"categories_sizes":[],"default_left":[0,0,0,0,0,0,0,0,0,0,0,0,0,0,0,0,0,0,0,0,0,0,0,0,0,0,0,0,0,0,0,0,0,0,0,0,0,0,0,0,0,0,0,0,0,0,0,0,0,0,0,0,0,0,0,0,0,0,0,0,0],"id":17,"left_children":[1,3,5,7,9,11,13,15,17,19,21,23,25,27,29,31,-1,33,35,37,39,41,43,45,47,49,51,53,55,57,59,-1,-1,-1,-1,-1,-1,-1,-1,-1,-1,-1,-1,-1,-1,-1,-1,-1,-1,-1,-1,-1,-1,-1,-1,-1,-1,-1,-1,-1,-1],"loss_changes":[1.0353168E7,1.725978E6,4.1731138E6,4.9127212E5,4.902695E5,5.790063E5,1.5624155E6,8.582375E4,3.90989E5,3.70847E5,3.5017525E5,2.3963803E5,3.754755E5,7.835735E5,7.31844E5,1.5835625E4,0E0,3.0998638E5,2.3861348E5,2.03032E5,8.4132875E4,4.6950375E5,4.601556E4,1.3624319E5,1.3750103E5,3.944769E5,3.2704962E5,2.4358775E5,3.2836425E5,2.540775E5,8.7784825E5,0E0,0E0,0E0,0E0,0E0,0E0,0E0,0E0,0E0,0E0,0E0,0E0,0E0,0E0,0E0,0E0,0E0,0E0,0E0,0E0,0E0,0E0,0E0,0E0,0E0,0E0,0E0,0E0,0E0,0E0],"parents":[2147483647,0,0,1,1,2,2,3,3,4,4,5,5,6,6,7,7,8,8,9,9,10,10,11,11,12,12,13,13,14,14,15,15,17,17,18,18,19,19,20,20,21,21,22,22,23,23,24,24,25,25,26,26,27,27,28,28,29,29,30,30],"right_children":[2,4,6,8,10,12,14,16,18,20,22,24,26,28,30,32,-1,34,36,38,40,42,44,46,48,50,52,54,56,58,60,-1,-1,-1,-1,-1,-1,-1,-1,-1,-1,-1,-1,-1,-1,-1,-1,-1,-1,-1,-1,-1,-1,-1,-1,-1,-1,-1,-1,-1,-1],"split_conditions":[7.587E1,3.45E2,1.19E2,-5.195E1,0E0,9.045E1,3.1502E2,6E0,9.219E1,6E0,6E0,2E0,6E0,1.5773E2,2.3106E2,6E0,-1.8148346E0,6E0,1.7873556E1,5E0,2.9102E1,4E0,8.652E0,1.1903E2,1.8E1,4E0,1.381E2,2E0,1.3659E2,1.4752E1,3.642605E3,-1.0610716E1,-6.306827E0,-9.3378973E-1,-2.5288126E-1,-3.1559718E-1,7.415067E-1,-3.0746636E0,-2.0306375E0,-1.0328728E0,-3.130732E0,-1.0050234E0,-2.0981197E0,-1.2043705E0,1.0614467E-1,-7.599371E-3,7.4339414E-1,-4.2537698E-1,1.263067E-1,3.4419486E-1,-1.5231262E-1,6.8952596E-1,3.771735E0,1.1280588E0,6.3748467E-1,1.1344422E0,2.06419E0,4.1529536E0,-8.2763547E-1,1.4460915E1,3.621314E-1],"split_indices":[0,16,0,0,0,8,0,4,9,3,3,3,3,0,9,3,0,3,15,4,14,3,14,9,1,3,8,3,9,14,11,0,0,0,0,0,0,0,0,0,0,0,0,0,0,0,0,0,0,0,0,0,0,0,0,0,0,0,0,0,0],"split_type":[0,0,0,0,0,0,0,0,0,0,0,0,0,0,0,0,0,0,0,0,0,0,0,0,0,0,0,0,0,0,0,0,0,0,0,0,0,0,0,0,0,0,0,0,0,0,0,0,0,0,0,0,0,0,0,0,0,0,0,0,0],"sum_hessian":[6.9817E4,2.0465E4,4.9352E4,1.2341E4,8.124E3,3.3518E4,1.5834E4,2.9E1,1.2312E4,3.049E3,5.075E3,1.3585E4,1.9933E4,1.5554E4,2.8E2,2.2E1,7E0,8.431E3,3.881E3,2.156E3,8.93E2,4.485E3,5.9E2,5.099E3,8.486E3,1.7174E4,2.759E3,1.174E4,3.814E3,2.29E2,5.1E1,9E0,1.3E1,6.132E3,2.299E3,3.243E3,6.38E2,6.93E2,1.463E3,8.43E2,5E1,3.029E3,1.456E3,7.6E1,5.14E2,4.4E3,6.99E2,7.145E3,1.341E3,1.0832E4,6.342E3,2.671E3,8.8E1,3.696E3,8.044E3,1.836E3,1.978E3,2E2,2.9E1,3.5E1,1.6E1],"tree_param":{"num_deleted":"0","num_feature":"20","num_nodes":"61","size_leaf_vector":"1"}},{"base_weights":[4.3425555E-3,-1.700032E1,7.877591E0,-9.732219E0,-2.7634811E1,3.2874687E0,2.439066E1,-7.575864E0,-2.1767885E1,-3.9026375E1,-2.170953E1,-2.708791E-1,9.100953E0,2.2550524E1,9.0443985E1,-7.109845E-1,-1.0367694E1,-2.5570715E1,-6.5971203E0,-3.420718E1,-5.9166702E1,-2.4632198E1,-8.620011E0,-1.921739E0,7.022541E0,7.34538E0,1.6232857E1,1.9186258E1,3.6957E1,4.5819466E1,1.4657487E2,-1.7149887E0,2.5522916E-2,-9.309112E-1,-3.4590706E-1,-1.746746E0,-7.5723046E-1,6.762117E-2,-1.3952776E0,-2.0152307E0,-1.0011917E0,-4.3627105E0,-1.7471981E0,-9.960074E-1,-1.6480087E0,-2.1512134E-1,-1.2975334E0,-1.6437407E-1,3.1956303E-1,3.106657E-1,1.8526491E0,8.0739003E-1,2.7487332E-1,6.5113986E-1,2.2424774E0,6.2856E-1,1.1723828E0,2.5589464E0,1.1892645E0,1.7895237E0,3.9406211E0,1.7512251E0,1.0374488E1],"categories":[],"categories_nodes":[],"categories_segments":[],"categories_sizes":[],"default_left":[0,0,0,0,0,0,0,0,0,0,0,0,0,0,0,0,0,0,0,0,0,0,0,0,0,0,0,0,0,0,0,0,0,0,0,0,0,0,0,0,0,0,0,0,0,0,0,0,0,0,0,0,0,0,0,0,0,0,0,0,0,0,0],"id":18,"left_children":[1,3,5,7,9,11,13,15,17,19,21,23,25,27,29,31,33,35,37,39,41,43,45,47,49,51,53,55,57,59,61,-1,-1,-1,-1,-1,-1,-1,-1,-1,-1,-1,-1,-1,-1,-1,-1,-1,-1,-1,-1,-1,-1,-1,-1,-1,-1,-1,-1,-1,-1,-1,-1],"loss_changes":[9.347503E6,1.707588E6,3.6171805E6,3.4052238E5,6.04612E5,7.7251544E5,1.2596195E6,2.1338212E5,1.1486881E5,2.957565E5,2.2561475E5,2.7894175E5,1.7741012E5,4.888095E5,6.9713675E5,1.3212377E5,2.2513712E5,1.5509656E5,6.796406E4,2.1349525E5,3.990415E5,1.886855E5,8.062621E4,2.1449839E5,1.0368281E5,1.8501962E5,2.566275E5,2.305765E5,3.5676475E5,4.9459312E4,8.3532275E5,0E0,0E0,0E0,0E0,0E0,0E0,0E0,0E0,0E0,0E0,0E0,0E0,0E0,0E0,0E0,0E0,0E0,0E0,0E0,0E0,0E0,0E0,0E0,0E0,0E0,0E0,0E0,0E0,0E0,0E0,0E0,0E0],"parents":[2147483647,0,0,1,1,2,2,3,3,4,4,5,5,6,6,7,7,8,8,9,9,10,10,11,11,12,12,13,13,14,14,15,15,16,16,17,17,18,18,19,19,20,20,21,21,22,22,23,23,24,24,25,25,26,26,27,27,28,28,29,29,30,30],"right_children":[2,4,6,8,10,12,14,16,18,20,22,24,26,28,30,32,34,36,38,40,42,44,46,48,50,52,54,56,58,60,62,-1,-1,-1,-1,-1,-1,-1,-1,-1,-1,-1,-1,-1,-1,-1,-1,-1,-1,-1,-1,-1,-1,-1,-1,-1,-1,-1,-1,-1,-1,-1,-1],"split_conditions":[7.899E1,1E0,1.3044E2,3.96E2,0E0,1.0579E2,3.1502E2,6E0,6E0,6.0878002E1,1E1,1.1094E2,1.2989E2,1.8E2,1.6209E2,-6E-2,8.452E0,3.63E1,6.0391724E1,6E0,1.8352E1,4E0,3.32E2,6E0,2.6376E2,1E0,6E0,1.5E1,2E0,7.5685663E0,1.1E1,-1.7149887E0,2.5522916E-2,-9.309112E-1,-3.4590706E-1,-1.746746E0,-7.5723046E-1,6.762117E-2,-1.3952776E0,-2.0152307E0,-1.0011917E0,-4.3627105E0,-1.7471981E0,-9.960074E-1,-1.6480087E0,-2.1512134E-1,-1.2975334E0,-1.6437407E-1,3.1956303E-1,3.106657E-1,1.8526491E0,8.0739003E-1,2.7487332E-1,6.5113986E-1,2.2424774E0,6.2856E-1,1.1723828E0,2.5589464E0,1.1892645E0,1.7895237E0,3.9406211E0,1.7512251E0,1.0374488E1],"split_indices":[0,19,0,16,0,0,0,4,3,10,4,9,8,0,9,0,14,0,10,3,14,3,16,3,9,3,3,1,3,15,4,0,0,0,0,0,0,0,0,0,0,0,0,0,0,0,0,0,0,0,0,0,0,0,0,0,0,0,0,0,0,0,0],"split_type":[0,0,0,0,0,0,0,0,0,0,0,0,0,0,0,0,0,0,0,0,0,0,0,0,0,0,0,0,0,0,0,0,0,0,0,0,0,0,0,0,0,0,0,0,0,0,0,0,0,0,0,0,0,0,0,0,0,0,0,0,0,0,0],"sum_hessian":[6.9817E4,2.2095E4,4.7722E4,1.3126E4,8.969E3,3.7343E4,1.0379E4,1.1133E4,1.993E3,3.067E3,5.902E3,2.3165E4,1.4178E4,1.0099E4,2.8E2,3.219E3,7.914E3,1.593E3,4E2,2.477E3,5.9E2,4.824E3,1.078E3,1.889E4,4.275E3,1.1379E4,2.799E3,8.189E3,1.91E3,1.57E2,1.23E2,1.12E2,3.107E3,2.332E3,5.582E3,8.38E2,7.55E2,2.92E2,1.08E2,1.731E3,7.46E2,2.72E2,3.18E2,3.083E3,1.741E3,8.64E2,2.14E2,1.6225E4,2.665E3,4.164E3,1.11E2,1.973E3,9.406E3,2.518E3,2.81E2,3.21E3,4.979E3,9.17E2,9.93E2,1.22E2,3.5E1,4.4E1,7.9E1],"tree_param":{"num_deleted":"0","num_feature":"20","num_nodes":"63","size_leaf_vector":"1"}},{"base_weights":[4.263517E-3,-1.2394928E1,9.800778E0,-2.2492847E1,-5.456663E0,6.470331E0,3.0181719E1,-1.3838912E1,-3.0672434E1,-7.840527E0,1.6277081E0,2.7972827E0,1.2611567E1,2.715921E1,8.598533E1,-1.8825573E1,-2.5488584E0,-2.7741114E1,-5.0656418E1,-5.6030226E0,-1.5331501E1,-5.3903365E-1,1.0318865E1,3.877117E0,-8.648477E0,1.202858E1,4.0443794E1,3.6346626E1,2.0829569E1,5.3357517E1,1.5577391E2,-5.33022E-1,-1.4025089E0,-1.1233366E0,1.788608E-1,-1.5724373E0,-7.159616E-1,-2.2327018E0,-5.6363893E0,-3.5445172E-1,8.072188E-2,-9.9043083E-1,-3.1490904E-1,-8.75527E-2,1.2105932E0,6.962467E-1,-1.3482732E-1,-1.4907929E-2,3.1179473E-1,-3.7778947E-1,-3.2735486E0,3.682858E-1,7.756788E-1,2.697891E0,1.1776054E0,1.5502851E0,6.1758647E0,1.3913522E0,2.2233556E-1,1.5621177E0,3.8400662E0,1.0876008E1,2.964954E-1],"categories":[],"categories_nodes":[],"categories_segments":[],"categories_sizes":[],"default_left":[0,0,0,0,0,0,0,0,0,0,0,1,0,0,0,0,0,0,0,0,0,0,0,0,0,0,0,0,0,0,0,0,0,0,0,0,0,0,0,0,0,0,0,0,0,0,0,0,0,0,0,0,0,0,0,0,0,0,0,0,0,0,0],"id":19,"left_children":[1,3,5,7,9,11,13,15,17,19,21,23,25,27,29,31,33,35,37,39,41,43,45,47,49,51,53,55,57,59,61,-1,-1,-1,-1,-1,-1,-1,-1,-1,-1,-1,-1,-1,-1,-1,-1,-1,-1,-1,-1,-1,-1,-1,-1,-1,-1,-1,-1,-1,-1,-1,-1],"loss_changes":[8.480835E6,2.1589085E6,2.6472375E6,8.87935E5,3.0850912E5,7.562125E5,9.216215E5,3.4337988E5,3.76491E5,2.2900469E5,8.663043E4,2.5933631E5,2.03099E5,3.01522E5,6.315391E5,3.1838038E5,2.2825472E5,2.796185E5,3.0196925E5,1.1290519E5,1.2698831E5,1.1052721E5,4.3123383E4,1.8881812E5,1.1182475E5,1.9961512E5,5.739578E4,9.8271725E5,3.5296325E5,9.7664E4,8.2216525E5,0E0,0E0,0E0,0E0,0E0,0E0,0E0,0E0,0E0,0E0,0E0,0E0,0E0,0E0,0E0,0E0,0E0,0E0,0E0,0E0,0E0,0E0,0E0,0E0,0E0,0E0,0E0,0E0,0E0,0E0,0E0,0E0],"parents":[2147483647,0,0,1,1,2,2,3,3,4,4,5,5,6,6,7,7,8,8,9,9,10,10,11,11,12,12,13,13,14,14,15,15,16,16,17,17,18,18,19,19,20,20,21,21,22,22,23,23,24,24,25,25,26,26,27,27,28,28,29,29,30,30],"right_children":[2,4,6,8,10,12,14,16,18,20,22,24,26,28,30,32,34,36,38,40,42,44,46,48,50,52,54,56,58,60,62,-1,-1,-1,-1,-1,-1,-1,-1,-1,-1,-1,-1,-1,-1,-1,-1,-1,-1,-1,-1,-1,-1,-1,-1,-1,-1,-1,-1,-1,-1,-1,-1],"split_conditions":[8.917E1,5.005E1,1.49E2,1E0,9.862E1,1.1495E2,3.1502E2,6E0,5.989821E1,1E0,1.5484185E1,4.548289E-3,2.1536E2,2E0,2.0203E2,4E0,6E0,6E0,1.7654686E1,6E0,1E1,1.7506E2,1.2E1,6E0,1.280588E2,1.1726E2,2E0,1.2E1,9E0,1.3659E2,3.96756E3,-5.33022E-1,-1.4025089E0,-1.1233366E0,1.788608E-1,-1.5724373E0,-7.159616E-1,-2.2327018E0,-5.6363893E0,-3.5445172E-1,8.072188E-2,-9.9043083E-1,-3.1490904E-1,-8.75527E-2,1.2105932E0,6.962467E-1,-1.3482732E-1,-1.4907929E-2,3.1179473E-1,-3.7778947E-1,-3.2735486E0,3.682858E-1,7.756788E-1,2.697891E0,1.1776054E0,1.5502851E0,6.1758647E0,1.3913522E0,2.2233556E-1,1.5621177E0,3.8400662E0,1.0876008E1,2.964954E-1],"split_indices":[0,0,0,19,9,0,0,3,10,19,15,17,9,3,9,3,1,3,15,3,4,9,4,1,10,8,3,4,4,9,11,0,0,0,0,0,0,0,0,0,0,0,0,0,0,0,0,0,0,0,0,0,0,0,0,0,0,0,0,0,0,0,0],"split_type":[0,0,0,0,0,0,0,0,0,0,0,0,0,0,0,0,0,0,0,0,0,0,0,0,0,0,0,0,0,0,0,0,0,0,0,0,0,0,0,0,0,0,0,0,0,0,0,0,0,0,0,0,0,0,0,0,0,0,0,0,0,0,0],"sum_hessian":[6.9817E4,3.0815E4,3.9002E4,1.2549E4,1.8266E4,3.3525E4,5.477E3,6.099E3,6.45E3,1.3667E4,4.599E3,2.0979E4,1.2546E4,5.197E3,2.8E2,4.23E3,1.869E3,5.627E3,8.23E2,1.0525E4,3.142E3,3.682E3,9.17E2,1.9171E4,1.808E3,1.229E4,2.56E2,2.118E3,3.079E3,1.92E2,8.8E1,2.245E3,1.985E3,4.39E2,1.43E3,4.408E3,1.219E3,7.52E2,7.1E1,8.728E3,1.797E3,2.1E3,1.042E3,3.511E3,1.71E2,7.18E2,1.99E2,6.921E3,1.225E4,1.775E3,3.3E1,5.258E3,7.032E3,1.41E2,1.15E2,1.997E3,1.21E2,2.157E3,9.22E2,1E2,9.2E1,6.2E1,2.6E1],"tree_param":{"num_deleted":"0","num_feature":"20","num_nodes":"63","size_leaf_vector":"1"}},{"base_weights":[4.2601246E-3,-1.627944E1,6.7568827E0,-9.232374E0,-2.5394651E1,1.3293833E0,1.8245205E1,-1.3114774E2,-8.966999E0,-3.45766E1,-2.0254547E1,-3.2031717E0,4.4184756E0,1.4765966E1,3.9904713E1,-1.5479732E2,-1.5228922E0,-1.24476385E1,-1.7887473E0,-4.076314E1,-2.0005938E1,-2.318945E1,1.7114675E-1,1.9239246E0,-6.283764E0,2.8028493E0,1.4470634E1,1.1727472E1,2.1605576E1,3.2691513E1,8.423214E1,-9.76788E0,-5.573867E0,-7.801642E-1,-2.0349061E-1,8.285363E-2,-9.350645E-1,-2.90824E0,-1.7943445E0,-8.941132E-1,-2.867006E0,-8.319542E-1,-1.7898896E0,-6.959973E-1,1.951875E-1,2.5812003E-1,-2.416195E-1,-2.9147017E0,-2.9936132E-1,3.1315157E-1,-1.5535617E-1,-7.705336E-2,1.0654968E0,9.4388276E-1,3.7371147E-1,9.2361593E-1,3.0141702E0,2.578246E0,1.2941388E0,2.0952356E0,8.615583E0],"categories":[],"categories_nodes":[],"categories_segments":[],"categories_sizes":[],"default_left":[0,0,0,0,0,0,0,0,0,0,0,0,0,0,0,0,0,0,0,0,0,0,0,0,0,0,0,0,0,0,0,0,0,0,0,0,0,0,0,0,0,0,0,0,0,0,0,0,0,0,0,0,0,0,0,0,0,0,0,0,0],"id":20,"left_children":[1,3,5,7,9,11,13,15,17,19,21,23,25,27,29,31,-1,33,35,37,39,41,43,45,47,49,51,53,55,57,59,-1,-1,-1,-1,-1,-1,-1,-1,-1,-1,-1,-1,-1,-1,-1,-1,-1,-1,-1,-1,-1,-1,-1,-1,-1,-1,-1,-1,-1,-1],"loss_changes":[7.6771345E6,1.3144095E6,3.077277E6,3.7231006E5,4.204305E5,4.6932972E5,1.192714E6,5.481703E4,2.8780375E5,2.87729E5,3.4308275E5,2.1459606E5,3.2369822E5,2.833185E5,6.978025E5,1.3363531E4,0E0,2.0503812E5,2.193295E5,1.8849675E5,7.477172E4,4.12681E5,3.7923793E4,1.1161375E5,1.3054594E5,3.5124106E5,3.0227725E5,2.8724725E5,5.0738962E5,2.41024E5,1.1336022E6,0E0,0E0,0E0,0E0,0E0,0E0,0E0,0E0,0E0,0E0,0E0,0E0,0E0,0E0,0E0,0E0,0E0,0E0,0E0,0E0,0E0,0E0,0E0,0E0,0E0,0E0,0E0,0E0,0E0,0E0],"parents":[2147483647,0,0,1,1,2,2,3,3,4,4,5,5,6,6,7,7,8,8,9,9,10,10,11,11,12,12,13,13,14,14,15,15,17,17,18,18,19,19,20,20,21,21,22,22,23,23,24,24,25,25,26,26,27,27,28,28,29,29,30,30],"right_children":[2,4,6,8,10,12,14,16,18,20,22,24,26,28,30,32,-1,34,36,38,40,42,44,46,48,50,52,54,56,58,60,-1,-1,-1,-1,-1,-1,-1,-1,-1,-1,-1,-1,-1,-1,-1,-1,-1,-1,-1,-1,-1,-1,-1,-1,-1,-1,-1,-1,-1,-1],"split_conditions":[7.587E1,2.98E2,1.19E2,-5.195E1,0E0,9.045E1,1.8E2,6E0,9.219E1,6E0,6E0,2E0,6E0,1.4137E2,1.2E1,6E0,-1.5228922E0,6E0,1.2E1,-1.37E0,2.9102E1,4E0,-2.05E0,1.5252E1,-6E-2,4E0,6E0,2E0,6E0,1E0,1.8485E2,-9.76788E0,-5.573867E0,-7.801642E-1,-2.0349061E-1,8.285363E-2,-9.350645E-1,-2.90824E0,-1.7943445E0,-8.941132E-1,-2.867006E0,-8.319542E-1,-1.7898896E0,-6.959973E-1,1.951875E-1,2.5812003E-1,-2.416195E-1,-2.9147017E0,-2.9936132E-1,3.1315157E-1,-1.5535617E-1,-7.705336E-2,1.0654968E0,9.4388276E-1,3.7371147E-1,9.2361593E-1,3.0141702E0,2.578246E0,1.2941388E0,2.0952356E0,8.615583E0],"split_indices":[0,16,0,0,0,8,0,4,9,3,3,3,3,8,4,3,0,3,4,9,14,3,9,14,8,3,1,3,3,3,9,0,0,0,0,0,0,0,0,0,0,0,0,0,0,0,0,0,0,0,0,0,0,0,0,0,0,0,0,0,0],"split_type":[0,0,0,0,0,0,0,0,0,0,0,0,0,0,0,0,0,0,0,0,0,0,0,0,0,0,0,0,0,0,0,0,0,0,0,0,0,0,0,0,0,0,0,0,0,0,0,0,0,0,0,0,0,0,0,0,0,0,0,0,0],"sum_hessian":[6.9817E4,2.0465E4,4.9352E4,1.1543E4,8.922E3,3.3518E4,1.5834E4,2.4E1,1.1519E4,3.2E3,5.722E3,1.3585E4,1.9933E4,1.3644E4,2.19E3,1.9E1,5E0,7.757E3,3.762E3,2.245E3,9.55E2,5.003E3,7.19E2,5.099E3,8.486E3,1.7174E4,2.759E3,9.449E3,4.195E3,1.885E3,3.05E2,8E0,1.1E1,5.634E3,2.123E3,3.126E3,6.36E2,4.89E2,1.756E3,9.05E2,5E1,3.294E3,1.709E3,1.5E2,5.69E2,3.447E3,1.652E3,4.7E1,8.439E3,1.0832E4,6.342E3,8.26E2,1.933E3,3.523E3,5.926E3,3.882E3,3.13E2,4.98E2,1.387E3,2.07E2,9.8E1],"tree_param":{"num_deleted":"0","num_feature":"20","num_nodes":"61","size_leaf_vector":"1"}},{"base_weights":[3.869026E-3,-8.677519E0,1.15347595E1,-2.0417847E1,-3.2765293E0,8.000219E0,2.7347754E1,-1.25047035E1,-2.7897268E1,-5.7030516E0,2.6394494E0,5.7934403E0,1.5371016E1,2.4558119E1,7.885372E1,-1.7057104E1,-2.1979077E0,-2.523849E1,-4.6781322E1,-3.8934872E0,-1.3105528E1,-1.8910974E0,5.394882E0,1.4521612E1,3.946088E0,1.2860073E1,3.8477497E1,1.7281954E1,3.1889458E1,5.724649E1,1.7290775E2,-4.717177E-1,-1.2834604E0,-1.0615712E0,1.8280013E-1,-1.4290663E0,-6.5541404E-1,-3.3116894E0,-1.4627675E0,-2.57621E-1,1.2403666E-1,1.5062946E0,-7.488457E-1,-5.480589E-1,-3.4898554E-3,1.1279237E-1,5.98033E-1,4.3790093E-1,1.6242937E0,1.8857548E-1,3.9588432E0,9.226967E-1,1.7494696E-1,2.2734594E0,3.1752175E-1,5.3325623E-1,1.5324389E0,1.4147962E0,3.6762033E0,3.444349E0,-1.1326501E0,2.526756E0,1.4666837E1],"categories":[],"categories_nodes":[],"categories_segments":[],"categories_sizes":[],"default_left":[0,0,0,0,0,0,0,0,0,0,0,0,0,0,0,0,0,0,0,0,0,0,0,0,0,0,0,0,0,0,0,0,0,0,0,0,0,0,0,0,0,0,0,0,0,0,0,0,0,0,0,0,0,0,0,0,0,0,0,0,0,0,0],"id":21,"left_children":[1,3,5,7,9,11,13,15,17,19,21,23,25,27,29,31,33,35,37,39,41,43,45,47,49,51,53,55,57,59,61,-1,-1,-1,-1,-1,-1,-1,-1,-1,-1,-1,-1,-1,-1,-1,-1,-1,-1,-1,-1,-1,-1,-1,-1,-1,-1,-1,-1,-1,-1,-1,-1],"loss_changes":[6.98917E6,2.5255925E6,1.6758602E6,7.424325E5,3.9165516E5,3.986E5,7.851585E5,2.861785E5,3.227145E5,2.59107E5,9.90802E4,3.0412206E5,3.2713888E5,2.7673125E5,5.611629E5,2.7751425E5,2.0843395E5,2.290125E5,2.6909638E5,1.24781016E5,3.078813E5,4.9590297E4,1.01684375E5,3.408755E5,2.04206E5,2.667345E5,1.239275E5,2.3060562E5,3.8512425E5,2.1547638E5,7.515111E5,0E0,0E0,0E0,0E0,0E0,0E0,0E0,0E0,0E0,0E0,0E0,0E0,0E0,0E0,0E0,0E0,0E0,0E0,0E0,0E0,0E0,0E0,0E0,0E0,0E0,0E0,0E0,0E0,0E0,0E0,0E0,0E0],"parents":[2147483647,0,0,1,1,2,2,3,3,4,4,5,5,6,6,7,7,8,8,9,9,10,10,11,11,12,12,13,13,14,14,15,15,16,16,17,17,18,18,19,19,20,20,21,21,22,22,23,23,24,24,25,25,26,26,27,27,28,28,29,29,30,30],"right_children":[2,4,6,8,10,12,14,16,18,20,22,24,26,28,30,32,34,36,38,40,42,44,46,48,50,52,54,56,58,60,62,-1,-1,-1,-1,-1,-1,-1,-1,-1,-1,-1,-1,-1,-1,-1,-1,-1,-1,-1,-1,-1,-1,-1,-1,-1,-1,-1,-1,-1,-1,-1,-1],"split_conditions":[9.945E1,5.005E1,1.49E2,1E0,9.862E1,1.2989E2,3.1502E2,6E0,6.0391724E1,1E0,8.77E1,1E0,6E0,1.3659E2,2.3106E2,4E0,6E0,6E0,1.8352E1,6E0,2E0,6.489992E0,1.2378E2,1E1,3.1502E2,4E0,2.1E1,1.7422076E-1,1.2E1,1.4752E1,3.1502E2,-4.717177E-1,-1.2834604E0,-1.0615712E0,1.8280013E-1,-1.4290663E0,-6.5541404E-1,-3.3116894E0,-1.4627675E0,-2.57621E-1,1.2403666E-1,1.5062946E0,-7.488457E-1,-5.480589E-1,-3.4898554E-3,1.1279237E-1,5.98033E-1,4.3790093E-1,1.6242937E0,1.8857548E-1,3.9588432E0,9.226967E-1,1.7494696E-1,2.2734594E0,3.1752175E-1,5.3325623E-1,1.5324389E0,1.4147962E0,3.6762033E0,3.444349E0,-1.1326501E0,2.526756E0,1.4666837E1],"split_indices":[0,0,0,19,9,8,0,3,10,19,8,3,3,9,9,3,1,3,14,3,4,15,9,4,9,3,1,12,4,14,7,0,0,0,0,0,0,0,0,0,0,0,0,0,0,0,0,0,0,0,0,0,0,0,0,0,0,0,0,0,0,0,0],"split_type":[0,0,0,0,0,0,0,0,0,0,0,0,0,0,0,0,0,0,0,0,0,0,0,0,0,0,0,0,0,0,0,0,0,0,0,0,0,0,0,0,0,0,0,0,0,0,0,0,0,0,0,0,0,0,0,0,0,0,0,0,0,0,0],"sum_hessian":[6.9817E4,3.983E4,2.9987E4,1.2549E4,2.7281E4,2.451E4,5.477E3,6.099E3,6.45E3,1.9346E4,7.935E3,1.8864E4,5.646E3,5.197E3,2.8E2,4.23E3,1.869E3,5.656E3,7.94E2,1.5547E4,3.799E3,3.001E3,4.934E3,3.294E3,1.557E4,5.094E3,5.52E2,2.61E3,2.587E3,2.29E2,5.1E1,2.245E3,1.985E3,4.39E2,1.43E3,4.433E3,1.223E3,3.75E2,4.19E2,1.2983E4,2.564E3,1.57E2,3.642E3,5.01E2,2.5E3,3.339E3,1.595E3,2.495E3,7.99E2,1.5535E4,3.5E1,3.188E3,1.906E3,4.53E2,9.9E1,1.747E3,8.63E2,2.383E3,2.04E2,2E2,2.9E1,2.6E1,2.5E1],"tree_param":{"num_deleted":"0","num_feature":"20","num_nodes":"63","size_leaf_vector":"1"}},{"base_weights":[4.0742285E-3,-1.2476677E1,7.2523932E0,-2.670043E1,-8.632583E0,3.8718724E0,2.2095596E1,-7.611814E-1,-2.9531448E1,-1.0908175E1,3.0379725E0,7.6985E-1,8.887219E0,2.02148E1,7.498045E1,-1.3985535E1,2.0788551E1,-5.0574993E1,-2.4685263E1,-5.0704823E0,-1.718542E1,-1.3813388E1,9.918306E0,6.220078E0,-1.9388E0,7.1423388E0,2.0988455E1,2.4105019E1,9.084344E0,3.6511402E1,1.23392784E2,-9.8776674E-1,9.591018E-1,2.1126404E0,1.4696546E-1,-2.0173042E0,-4.196432E0,-1.5319883E0,-7.1448976E-1,3.5573866E-2,-5.11403E-1,-5.609464E-1,-1.4209665E0,-3.160046E-1,-1.6316794E0,-2.1689281E0,5.9728086E-1,1.6926347E-1,7.8268E-1,-5.052504E-1,-2.2531508E-2,5.5320776E-1,4.148907E-2,7.24696E-1,1.8804613E0,1.1045727E0,2.581195E0,1.19365774E-1,2.0481884E0,1.338087E0,3.4404278E0,8.973311E0,1.385467E0],"categories":[],"categories_nodes":[],"categories_segments":[],"categories_sizes":[],"default_left":[0,0,0,0,0,0,0,0,0,0,0,0,0,0,0,0,0,0,0,0,0,0,0,0,0,0,0,0,0,0,0,0,0,0,0,0,0,0,0,0,0,0,0,0,0,0,0,0,0,0,0,0,0,0,0,0,0,0,0,0,0,0,0],"id":22,"left_children":[1,3,5,7,9,11,13,15,17,19,21,23,25,27,29,31,33,35,37,39,41,43,45,47,49,51,53,55,57,59,61,-1,-1,-1,-1,-1,-1,-1,-1,-1,-1,-1,-1,-1,-1,-1,-1,-1,-1,-1,-1,-1,-1,-1,-1,-1,-1,-1,-1,-1,-1,-1,-1],"loss_changes":[6.316139E6,1.4023008E6,2.216165E6,4.0070925E5,5.363605E5,5.596977E5,8.1340575E5,1.5361066E5,5.00498E5,6.19207E5,3.8228512E5,3.2817347E5,2.9014188E5,3.4241325E5,5.188225E5,6.4296617E4,7.841555E4,3.104915E5,2.472235E5,2.6117873E5,5.4548225E5,1.3461395E5,2.5346156E5,1.9730462E5,1.8046312E5,2.9749194E5,1.8641431E5,3.23735E5,4.3778544E5,4.7910625E4,6.6032425E5,0E0,0E0,0E0,0E0,0E0,0E0,0E0,0E0,0E0,0E0,0E0,0E0,0E0,0E0,0E0,0E0,0E0,0E0,0E0,0E0,0E0,0E0,0E0,0E0,0E0,0E0,0E0,0E0,0E0,0E0,0E0,0E0],"parents":[2147483647,0,0,1,1,2,2,3,3,4,4,5,5,6,6,7,7,8,8,9,9,10,10,11,11,12,12,13,13,14,14,15,15,16,16,17,17,18,18,19,19,20,20,21,21,22,22,23,23,24,24,25,25,26,26,27,27,28,28,29,29,30,30],"right_children":[2,4,6,8,10,12,14,16,18,20,22,24,26,28,30,32,34,36,38,40,42,44,46,48,50,52,54,56,58,60,62,-1,-1,-1,-1,-1,-1,-1,-1,-1,-1,-1,-1,-1,-1,-1,-1,-1,-1,-1,-1,-1,-1,-1,-1,-1,-1,-1,-1,-1,-1,-1,-1],"split_conditions":[8.379E1,2.2E-1,1.3709E2,4E0,6E0,1.0849E2,3.1502E2,6.399E1,5E0,1.702916E-3,6E0,2E0,6E0,4E0,1.6209E2,2.1746502E1,1E0,9.996698E-1,6E0,9E0,4E0,1E1,2E0,1.1497E2,7.465E1,4E0,1.2989E2,1.2E1,6E0,7.5685663E0,5.915211E-2,-9.8776674E-1,9.591018E-1,2.1126404E0,1.4696546E-1,-2.0173042E0,-4.196432E0,-1.5319883E0,-7.1448976E-1,3.5573866E-2,-5.11403E-1,-5.609464E-1,-1.4209665E0,-3.160046E-1,-1.6316794E0,-2.1689281E0,5.9728086E-1,1.6926347E-1,7.8268E-1,-5.052504E-1,-2.2531508E-2,5.5320776E-1,4.148907E-2,7.24696E-1,1.8804613E0,1.1045727E0,2.581195E0,1.19365774E-1,2.0481884E0,1.338087E0,3.4404278E0,8.973311E0,1.385467E0],"split_indices":[0,0,0,4,3,8,0,8,4,17,1,3,3,3,9,15,6,12,3,4,3,4,4,9,8,3,8,4,3,15,12,0,0,0,0,0,0,0,0,0,0,0,0,0,0,0,0,0,0,0,0,0,0,0,0,0,0,0,0,0,0,0,0],"split_type":[0,0,0,0,0,0,0,0,0,0,0,0,0,0,0,0,0,0,0,0,0,0,0,0,0,0,0,0,0,0,0,0,0,0,0,0,0,0,0,0,0,0,0,0,0,0,0,0,0,0,0,0,0,0,0,0,0,0,0,0,0,0,0],"sum_hessian":[6.9817E4,2.565E4,4.4167E4,5.456E3,2.0194E4,3.5975E4,8.192E3,5.37E2,4.919E3,1.6899E4,3.295E3,2.2228E4,1.3747E4,7.912E3,2.8E2,3.33E2,2.04E2,9.19E2,4E3,8.757E3,8.142E3,9.55E2,2.34E3,7.379E3,1.4849E4,1.2016E4,1.731E3,5.862E3,2.05E3,1.57E2,1.23E2,2.84E2,4.9E1,9.2E1,1.12E2,7.05E2,2.14E2,2.542E3,1.458E3,4.129E3,4.628E3,5.319E3,2.823E3,6.84E2,2.71E2,8.5E1,2.255E3,5.675E3,1.704E3,2.288E3,1.2561E4,7.411E3,4.605E3,1.246E3,4.85E2,5.464E3,3.98E2,1.695E3,3.55E2,1.22E2,3.5E1,7.7E1,4.6E1],"tree_param":{"num_deleted":"0","num_feature":"20","num_nodes":"63","size_leaf_vector":"1"}},{"base_weights":[4.0478036E-3,-8.061963E0,1.0201724E1,-3.7074957E0,-2.0108543E1,8.190979E0,3.339144E1,-2.2018025E0,-1.3860353E1,-3.4699986E1,-1.680234E1,5.7477746E0,1.6905447E1,2.784057E1,7.016139E1,-4.394987E0,3.0227008E0,-9.553202E0,-2.447194E1,-2.311381E1,-4.42997E1,-1.9645842E1,-2.4280605E0,1.0887944E1,3.2081378E0,1.437059E1,4.5283543E1,4.4424095E1,2.1816467E1,3.321802E1,1.5066899E2,-3.052558E-1,1.3787867E-1,8.8402055E-2,7.444369E-1,-1.099968E0,-3.1235898E-1,-1.6247422E0,-5.0945003E-2,7.2670954E-1,-1.2692001E0,-3.0014646E0,-1.461117E0,-1.1154501E0,-4.0757734E-1,-5.076296E-1,6.698676E-1,3.6312318E-1,1.0629094E0,7.435437E-2,5.6687015E-1,9.764609E-1,2.427914E-1,5.1307635E0,1.7413578E0,1.1685448E0,5.532012E0,1.890873E-1,1.5367926E0,4.0218598E-1,8.857718E0,1.1174875E1,-3.087262E-1],"categories":[],"categories_nodes":[],"categories_segments":[],"categories_sizes":[],"default_left":[0,0,0,0,0,0,0,0,0,0,0,0,0,0,0,0,0,0,0,0,0,0,0,0,0,0,0,0,0,0,0,0,0,0,0,0,0,0,0,0,0,0,0,0,0,0,0,0,0,0,0,0,0,0,0,0,0,0,0,0,0,0,0],"id":23,"left_children":[1,3,5,7,9,11,13,15,17,19,21,23,25,27,29,31,33,35,37,39,41,43,45,47,49,51,53,55,57,59,61,-1,-1,-1,-1,-1,-1,-1,-1,-1,-1,-1,-1,-1,-1,-1,-1,-1,-1,-1,-1,-1,-1,-1,-1,-1,-1,-1,-1,-1,-1,-1,-1],"loss_changes":[5.7429315E6,2.044887E6,1.43752E6,4.377152E5,4.987245E5,6.040626E5,5.0014575E5,2.8576034E5,1.6878594E5,2.1152525E5,3.4492275E5,2.8929756E5,4.4627762E5,2.1271875E5,9.5269475E5,2.1486834E5,1.0975661E5,1.081622E5,2.0073512E5,7.455531E4,2.458415E5,2.155045E5,1.7066625E5,2.7539494E5,2.0755173E5,2.7992425E5,3.015628E5,7.9063525E5,2.5259262E5,8.029913E5,1.1550702E6,0E0,0E0,0E0,0E0,0E0,0E0,0E0,0E0,0E0,0E0,0E0,0E0,0E0,0E0,0E0,0E0,0E0,0E0,0E0,0E0,0E0,0E0,0E0,0E0,0E0,0E0,0E0,0E0,0E0,0E0,0E0,0E0],"parents":[2147483647,0,0,1,1,2,2,3,3,4,4,5,5,6,6,7,7,8,8,9,9,10,10,11,11,12,12,13,13,14,14,15,15,16,16,17,17,18,18,19,19,20,20,21,21,22,22,23,23,24,24,25,25,26,26,27,27,28,28,29,29,30,30],"right_children":[2,4,6,8,10,12,14,16,18,20,22,24,26,28,30,32,34,36,38,40,42,44,46,48,50,52,54,56,58,60,62,-1,-1,-1,-1,-1,-1,-1,-1,-1,-1,-1,-1,-1,-1,-1,-1,-1,-1,-1,-1,-1,-1,-1,-1,-1,-1,-1,-1,-1,-1,-1,-1],"split_conditions":[9.853E1,7.347669E-1,1.7532E2,3.61E2,-3.24E0,1.353E2,1.2E1,9.862E1,4E0,5.110459E1,1.7873556E1,2E0,6E0,1E0,1.8485E2,6E0,1.6992609E1,5.16E1,6E0,4E0,1.8452E1,6E0,8.9E1,1E1,6E0,4E0,2E0,9E0,1.5369E2,2.024413E-1,1E0,-3.052558E-1,1.3787867E-1,8.8402055E-2,7.444369E-1,-1.099968E0,-3.1235898E-1,-1.6247422E0,-5.0945003E-2,7.2670954E-1,-1.2692001E0,-3.0014646E0,-1.461117E0,-1.1154501E0,-4.0757734E-1,-5.076296E-1,6.698676E-1,3.6312318E-1,1.0629094E0,7.435437E-2,5.6687015E-1,9.764609E-1,2.427914E-1,5.1307635E0,1.7413578E0,1.1685448E0,5.532012E0,1.890873E-1,1.5367926E0,4.0218598E-1,8.857718E0,1.1174875E1,-3.087262E-1],"split_indices":[0,12,0,16,0,8,4,9,3,10,15,3,3,3,9,3,15,0,3,4,14,3,9,4,3,3,4,4,8,12,6,0,0,0,0,0,0,0,0,0,0,0,0,0,0,0,0,0,0,0,0,0,0,0,0,0,0,0,0,0,0,0,0],"split_type":[0,0,0,0,0,0,0,0,0,0,0,0,0,0,0,0,0,0,0,0,0,0,0,0,0,0,0,0,0,0,0,0,0,0,0,0,0,0,0,0,0,0,0,0,0,0,0,0,0,0,0,0,0,0,0,0,0,0,0,0,0,0,0],"sum_hessian":[6.9817E4,3.8983E4,3.0834E4,2.8634E4,1.0349E4,2.8375E4,2.459E3,2.4937E4,3.697E3,1.91E3,8.439E3,2.2163E4,6.212E3,2.138E3,3.21E2,1.7564E4,7.373E3,2.631E3,1.066E3,8.67E2,1.043E3,7.045E3,1.394E3,7.328E3,1.4835E4,5.704E3,5.08E2,5.68E2,1.57E3,2.21E2,1E2,1.4175E4,3.389E3,6.669E3,7.04E2,5.51E2,2.08E3,7.94E2,2.72E2,4.9E1,8.18E2,5.09E2,5.34E2,5.719E3,1.326E3,9.37E2,4.57E2,5.431E3,1.897E3,1.2244E4,2.591E3,3.698E3,2.006E3,7.7E1,4.31E2,4.32E2,1.36E2,5.2E2,1.05E3,1.89E2,3.2E1,6.8E1,3.2E1],"tree_param":{"num_deleted":"0","num_feature":"20","num_nodes":"63","size_leaf_vector":"1"}},{"base_weights":[4.273114E-3,-1.5151933E1,4.955066E0,-9.419633E0,-2.2729717E1,5.956837E-1,1.5084158E1,-2.8297916E1,-7.009294E0,-2.577735E1,-9.959844E0,-3.2890856E0,3.563239E0,1.2822118E1,3.903484E1,1.1047267E1,-3.3676334E1,2.0721695E0,-9.174064E0,-1.8914103E1,-3.6117565E1,-2.158961E1,-3.8236961E0,-1.5593296E0,-1.0979051E1,1.9569756E0,1.1952411E1,9.806329E0,1.9262043E1,2.8184185E1,7.470559E1,1.0437493E0,-2.300724E0,-5.810737E0,-1.5646274E0,-9.8590815E-1,2.7982637E-1,-3.163621E-1,-9.387183E-1,-5.965137E0,-8.746424E-1,-4.9366508E0,-1.7062018E0,-1.2289014E0,1.0405949E0,-1.088776E0,-1.7140156E-2,6.92166E-2,-3.1983685E-1,-8.361744E-1,-8.169236E-2,6.789728E-1,3.9923664E-2,4.9071273E-1,2.0070865E0,7.201611E-1,2.8391492E-1,8.765586E-1,2.6317804E0,2.9702234E0,9.399338E-1,9.852635E0,2.3037097E0],"categories":[],"categories_nodes":[],"categories_segments":[],"categories_sizes":[],"default_left":[0,0,0,0,0,0,0,0,0,0,0,0,0,0,0,0,0,0,0,0,0,0,0,0,0,0,0,0,0,0,0,0,0,0,0,0,0,0,0,0,0,0,0,0,0,0,0,0,0,0,0,0,0,0,0,0,0,0,0,0,0,0,0],"id":24,"left_children":[1,3,5,7,9,11,13,15,17,19,21,23,25,27,29,31,33,35,37,39,41,43,45,47,49,51,53,55,57,59,61,-1,-1,-1,-1,-1,-1,-1,-1,-1,-1,-1,-1,-1,-1,-1,-1,-1,-1,-1,-1,-1,-1,-1,-1,-1,-1,-1,-1,-1,-1,-1,-1],"loss_changes":[5.2388855E6,7.4653075E5,2.3238638E6,4.45231E5,2.878525E5,4.241828E5,8.5739825E5,2.3484119E5,1.7070078E5,4.2341825E5,1.0182233E5,2.1194648E5,2.8106966E5,2.8083975E5,5.266059E5,7.6105984E4,1.881985E5,1.2851483E5,1.9149431E5,5.10697E5,2.940905E5,6.298122E4,5.8481664E4,1.8526723E5,1.5704894E5,2.3574206E5,2.0164166E5,1.8696562E5,2.6560638E5,3.062595E5,1.1048652E6,0E0,0E0,0E0,0E0,0E0,0E0,0E0,0E0,0E0,0E0,0E0,0E0,0E0,0E0,0E0,0E0,0E0,0E0,0E0,0E0,0E0,0E0,0E0,0E0,0E0,0E0,0E0,0E0,0E0,0E0,0E0,0E0],"parents":[2147483647,0,0,1,1,2,2,3,3,4,4,5,5,6,6,7,7,8,8,9,9,10,10,11,11,12,12,13,13,14,14,15,15,16,16,17,17,18,18,19,19,20,20,21,21,22,22,23,23,24,24,25,25,26,26,27,27,28,28,29,29,30,30],"right_children":[2,4,6,8,10,12,14,16,18,20,22,24,26,28,30,32,34,36,38,40,42,44,46,48,50,52,54,56,58,60,62,-1,-1,-1,-1,-1,-1,-1,-1,-1,-1,-1,-1,-1,-1,-1,-1,-1,-1,-1,-1,-1,-1,-1,-1,-1,-1,-1,-1,-1,-1,-1,-1],"split_conditions":[6.827E1,3.52E2,1.19E2,8E-2,6E0,9.045E1,2.0238E2,9.402E0,4E0,4E0,-5.05E0,1E0,1.2378E2,1.3659E2,1.8485E2,1.0131E2,-5.195E1,2.4520001E0,8.1650496E-1,-2.973E1,-5.195E1,9E0,-1.852E1,4E0,1E1,2E0,6E0,3.2101604E1,1.2E1,1E0,4.1290067E-2,1.0437493E0,-2.300724E0,-5.810737E0,-1.5646274E0,-9.8590815E-1,2.7982637E-1,-3.163621E-1,-9.387183E-1,-5.965137E0,-8.746424E-1,-4.9366508E0,-1.7062018E0,-1.2289014E0,1.0405949E0,-1.088776E0,-1.7140156E-2,6.92166E-2,-3.1983685E-1,-8.361744E-1,-8.169236E-2,6.789728E-1,3.9923664E-2,4.9071273E-1,2.0070865E0,7.201611E-1,2.8391492E-1,8.765586E-1,2.6317804E0,2.9702234E0,9.399338E-1,9.852635E0,2.3037097E0],"split_indices":[0,16,0,9,3,8,0,14,4,3,0,19,9,9,9,8,0,14,12,9,0,4,9,3,4,4,3,10,4,3,12,0,0,0,0,0,0,0,0,0,0,0,0,0,0,0,0,0,0,0,0,0,0,0,0,0,0,0,0,0,0,0,0],"split_type":[0,0,0,0,0,0,0,0,0,0,0,0,0,0,0,0,0,0,0,0,0,0,0,0,0,0,0,0,0,0,0,0,0,0,0,0,0,0,0,0,0,0,0,0,0,0,0,0,0,0,0,0,0,0,0,0,0,0,0,0,0,0,0],"sum_hessian":[6.9817E4,1.719E4,5.2627E4,9.788E3,7.402E3,3.6793E4,1.5834E4,1.107E3,8.681E3,5.975E3,1.427E3,1.5934E4,2.0859E4,1.4469E4,1.365E3,1.33E2,9.74E2,1.671E3,7.01E3,3.593E3,2.382E3,4.92E2,9.35E2,1.3009E4,2.925E3,1.7508E4,3.351E3,9.856E3,4.613E3,1.048E3,3.17E2,1.14E2,1.9E1,2.6E1,9.48E2,2.32E2,1.439E3,5.408E3,1.602E3,4.9E1,3.544E3,7.2E1,2.31E3,4.6E2,3.2E1,1.51E2,7.84E2,8.088E3,4.921E3,1.811E3,1.114E3,1.586E3,1.5922E4,3.116E3,2.35E2,4.662E3,5.194E3,4.387E3,2.26E2,2.41E2,8.07E2,5.9E1,2.58E2],"tree_param":{"num_deleted":"0","num_feature":"20","num_nodes":"63","size_leaf_vector":"1"}},{"base_weights":[4.020576E-3,-1.2788877E1,5.3090563E0,-7.3502584E0,-2.0335838E1,2.0926764E0,1.7385153E1,-9.13764E0,3.2368999E0,-2.2743492E1,-3.345604E0,-8.3429255E-2,7.5883594E0,1.6049778E1,6.532073E1,-6.09357E0,-1.5421017E1,-1.984379E1,6.9413314E0,-1.7023052E1,-2.9176598E1,6.97784E-2,-1.9698982E1,1.1931121E1,-1.2359778E0,3.0209577E0,1.1419095E1,1.9512392E1,7.391882E0,4.657708E1,1.4696916E2,-4.6705633E-1,1.2332734E-1,-8.723696E-1,1.14039436E-1,-1.9050492E0,3.0874515E-1,9.4436806E-1,-4.906825E-2,-4.510322E0,-7.815575E-1,-1.8763716E0,-7.3699397E-1,7.707185E-1,-1.7414512E-1,1.0903786E0,-1.1360788E0,3.4572423E-1,1.941264E0,1.0336955E-2,-3.9888486E-1,3.771194E-1,-3.0592355E-1,4.7200975E-1,1.2551262E0,8.974153E-1,2.116612E0,7.699021E-2,1.5693408E0,2.8765342E0,-1.4182304E0,1.8663098E0,1.2758826E1],"categories":[],"categories_nodes":[],"categories_segments":[],"categories_sizes":[],"default_left":[0,0,0,0,0,0,0,0,0,0,0,0,0,0,0,0,0,0,0,0,0,0,0,0,1,0,0,0,0,0,0,0,0,0,0,0,0,0,0,0,0,0,0,0,0,0,0,0,0,0,0,0,0,0,0,0,0,0,0,0,0,0,0],"id":25,"left_children":[1,3,5,7,9,11,13,15,17,19,21,23,25,27,29,31,33,35,37,39,41,43,45,47,49,51,53,55,57,59,61,-1,-1,-1,-1,-1,-1,-1,-1,-1,-1,-1,-1,-1,-1,-1,-1,-1,-1,-1,-1,-1,-1,-1,-1,-1,-1,-1,-1,-1,-1,-1,-1],"loss_changes":[4.7383905E6,8.3987825E5,1.9168988E6,2.2514112E5,3.5053425E5,4.6609794E5,6.6339575E5,1.94581E5,1.4711367E5,2.7576275E5,5.9484863E4,3.866328E5,1.9338944E5,3.0264325E5,4.23194E5,1.9067173E5,1.19165625E5,1.13292E5,1.4028206E5,4.0360162E5,4.2526E5,4.8135426E4,2.357968E4,3.294717E5,2.4780092E5,2.084808E5,1.6255681E5,2.56724E5,4.0534488E5,1.904345E5,6.074124E5,0E0,0E0,0E0,0E0,0E0,0E0,0E0,0E0,0E0,0E0,0E0,0E0,0E0,0E0,0E0,0E0,0E0,0E0,0E0,0E0,0E0,0E0,0E0,0E0,0E0,0E0,0E0,0E0,0E0,0E0,0E0,0E0],"parents":[2147483647,0,0,1,1,2,2,3,3,4,4,5,5,6,6,7,7,8,8,9,9,10,10,11,11,12,12,13,13,14,14,15,15,16,16,17,17,18,18,19,19,20,20,21,21,22,22,23,23,24,24,25,25,26,26,27,27,28,28,29,29,30,30],"right_children":[2,4,6,8,10,12,14,16,18,20,22,24,26,28,30,32,34,36,38,40,42,44,46,48,50,52,54,56,58,60,62,-1,-1,-1,-1,-1,-1,-1,-1,-1,-1,-1,-1,-1,-1,-1,-1,-1,-1,-1,-1,-1,-1,-1,-1,-1,-1,-1,-1,-1,-1,-1,-1],"split_conditions":[7.587E1,1E0,1.3044E2,1.8E1,1E1,1.1094E2,3.1502E2,1E1,3.752E0,4E0,3.45E2,2E0,1.5E1,4E0,2.3106E2,1E0,1E1,1E0,2.1E1,-2.973E1,6E0,2E0,5.04E0,3.2827574E4,2.679928E4,4E0,6E0,1.2E1,6E0,1.4752E1,3.1502E2,-4.6705633E-1,1.2332734E-1,-8.723696E-1,1.14039436E-1,-1.9050492E0,3.0874515E-1,9.4436806E-1,-4.906825E-2,-4.510322E0,-7.815575E-1,-1.8763716E0,-7.3699397E-1,7.707185E-1,-1.7414512E-1,1.0903786E0,-1.1360788E0,3.4572423E-1,1.941264E0,1.0336955E-2,-3.9888486E-1,3.771194E-1,-3.0592355E-1,4.7200975E-1,1.2551262E0,8.974153E-1,2.116612E0,7.699021E-2,1.5693408E0,2.8765342E0,-1.4182304E0,1.8663098E0,1.2758826E1],"split_indices":[0,19,0,1,4,9,0,1,14,3,16,4,1,3,9,16,4,6,1,9,3,3,8,11,11,3,3,4,3,14,7,0,0,0,0,0,0,0,0,0,0,0,0,0,0,0,0,0,0,0,0,0,0,0,0,0,0,0,0,0,0,0,0],"split_type":[0,0,0,0,0,0,0,0,0,0,0,0,0,0,0,0,0,0,0,0,0,0,0,0,0,0,0,0,0,0,0,0,0,0,0,0,0,0,0,0,0,0,0,0,0,0,0,0,0,0,0,0,0,0,0,0,0,0,0,0,0,0,0],"sum_hessian":[6.9817E4,2.0465E4,4.9352E4,1.1895E4,8.57E3,3.8973E4,1.0379E4,1.0177E4,1.718E3,7.506E3,1.064E3,2.7919E4,1.1054E4,1.0099E4,2.8E2,6.857E3,3.32E3,2.37E2,1.481E3,3.975E3,3.531E3,8.81E2,1.83E2,2.443E3,2.5476E4,5.043E3,6.011E3,7.213E3,2.886E3,2.29E2,5.1E1,4.971E3,1.886E3,2.979E3,3.41E2,1.39E2,9.8E1,5.9E2,8.91E2,7.3E1,3.902E3,2.236E3,1.295E3,1.65E2,7.16E2,1.2E1,1.71E2,2.06E3,3.83E2,2.0986E4,4.49E3,3.374E3,1.669E3,5.253E3,7.58E2,6.752E3,4.61E2,2.321E3,5.65E2,2E2,2.9E1,2.6E1,2.5E1],"tree_param":{"num_deleted":"0","num_feature":"20","num_nodes":"63","size_leaf_vector":"1"}},{"base_weights":[4.03838E-3,-6.507416E0,9.521892E0,-1.6136868E1,-2.3267E0,7.768883E0,3.0457636E1,-9.754977E0,-2.2169018E1,-4.317271E0,2.276193E0,5.0660224E0,1.4140328E1,2.4797987E1,6.5240776E1,-1.367382E1,-8.8311917E-1,-4.2892498E1,-2.0341055E1,8.912364E0,-5.067958E0,-5.4134345E0,3.8000839E0,1.2928618E1,3.2447934E0,1.1897093E1,3.833298E1,4.1226425E1,1.8873932E1,2.607602E1,1.2916515E2,-3.4307316E-1,-1.068557E0,-9.2907363E-1,2.2796698E-1,-3.415879E0,-1.0336984E0,-1.1584915E0,-4.2815208E-1,2.5042897E-1,1.7387017E0,-1.6661094E-1,-6.1021113E-1,-1.0639958E0,-1.1006571E-1,1.2730981E-1,6.7413765E-1,3.2656577E-1,1.3720978E0,1.5196526E-1,3.7989438E0,8.021259E-1,1.998947E-1,4.4616327E0,1.4550449E0,8.808697E-1,5.5120864E0,-1.3834684E-1,1.3803737E0,1.5477903E-1,8.927115E0,9.456621E0,-4.674563E-1],"categories":[],"categories_nodes":[],"categories_segments":[],"categories_sizes":[],"default_left":[0,0,0,0,0,0,0,0,0,0,0,0,0,0,0,0,0,0,0,0,0,0,0,0,0,0,0,0,0,0,0,0,0,0,0,0,0,0,0,0,0,0,0,0,0,0,0,0,0,0,0,0,0,0,0,0,0,0,0,0,0,0,0],"id":26,"left_children":[1,3,5,7,9,11,13,15,17,19,21,23,25,27,29,31,33,35,37,39,41,43,45,47,49,51,53,55,57,59,61,-1,-1,-1,-1,-1,-1,-1,-1,-1,-1,-1,-1,-1,-1,-1,-1,-1,-1,-1,-1,-1,-1,-1,-1,-1,-1,-1,-1,-1,-1,-1,-1],"loss_changes":[4.327037E6,1.6689388E6,1.040664E6,4.82915E5,2.6487612E5,4.5063988E5,4.2970338E5,2.1206919E5,2.43503E5,2.0046884E5,1.02296625E5,2.631234E5,4.22577E5,1.82773E5,7.627281E5,2.2171381E5,1.8020789E5,2.934695E5,1.9737325E5,1.0926473E5,2.3652038E5,7.35467E4,8.841269E4,3.206973E5,2.228082E5,2.3357519E5,3.080138E5,8.1112075E5,2.6241034E5,6.686621E5,9.653015E5,0E0,0E0,0E0,0E0,0E0,0E0,0E0,0E0,0E0,0E0,0E0,0E0,0E0,0E0,0E0,0E0,0E0,0E0,0E0,0E0,0E0,0E0,0E0,0E0,0E0,0E0,0E0,0E0,0E0,0E0,0E0,0E0],"parents":[2147483647,0,0,1,1,2,2,3,3,4,4,5,5,6,6,7,7,8,8,9,9,10,10,11,11,12,12,13,13,14,14,15,15,16,16,17,17,18,18,19,19,20,20,21,21,22,22,23,23,24,24,25,25,26,26,27,27,28,28,29,29,30,30],"right_children":[2,4,6,8,10,12,14,16,18,20,22,24,26,28,30,32,34,36,38,40,42,44,46,48,50,52,54,56,58,60,62,-1,-1,-1,-1,-1,-1,-1,-1,-1,-1,-1,-1,-1,-1,-1,-1,-1,-1,-1,-1,-1,-1,-1,-1,-1,-1,-1,-1,-1,-1,-1,-1],"split_conditions":[1.0102E2,5.005E1,1.8E2,1E0,9.862E1,1.2989E2,1.2E1,6E0,-2.998E1,2E0,6.379216E0,1E0,6E0,1E0,1.65E2,4E0,6E0,1.7752E1,6E0,1.1292576E-3,1E0,6.707E1,6E0,9E0,3.1502E2,4E0,2E0,9E0,1.478E2,1.464813E4,1E0,-3.4307316E-1,-1.068557E0,-9.2907363E-1,2.2796698E-1,-3.415879E0,-1.0336984E0,-1.1584915E0,-4.2815208E-1,2.5042897E-1,1.7387017E0,-1.6661094E-1,-6.1021113E-1,-1.0639958E0,-1.1006571E-1,1.2730981E-1,6.7413765E-1,3.2656577E-1,1.3720978E0,1.5196526E-1,3.7989438E0,8.021259E-1,1.998947E-1,4.4616327E0,1.4550449E0,8.808697E-1,5.5120864E0,-1.3834684E-1,1.3803737E0,1.5477903E-1,8.927115E0,9.456621E0,-4.674563E-1],"split_indices":[0,0,0,19,9,8,4,3,0,4,15,3,3,3,9,3,1,14,3,17,19,8,3,4,9,3,4,4,8,11,6,0,0,0,0,0,0,0,0,0,0,0,0,0,0,0,0,0,0,0,0,0,0,0,0,0,0,0,0,0,0,0,0],"split_type":[0,0,0,0,0,0,0,0,0,0,0,0,0,0,0,0,0,0,0,0,0,0,0,0,0,0,0,0,0,0,0,0,0,0,0,0,0,0,0,0,0,0,0,0,0,0,0,0,0,0,0,0,0,0,0,0,0,0,0,0,0,0,0],"sum_hessian":[6.9817E4,4.1456E4,2.8361E4,1.2549E4,2.8907E4,2.6171E4,2.19E3,6.099E3,6.45E3,2.018E4,8.727E3,1.8377E4,7.794E3,1.885E3,3.05E2,4.23E3,1.869E3,5.21E2,5.929E3,1.083E3,1.9097E4,1.443E3,7.284E3,3.455E3,1.4922E4,7.134E3,6.6E2,4.98E2,1.387E3,1.9E2,1.15E2,2.245E3,1.985E3,4.39E2,1.43E3,2.42E2,2.79E2,4.78E3,1.149E3,9.42E2,1.41E2,1.5362E4,3.735E3,2.42E2,1.201E3,6.45E3,8.34E2,2.399E3,1.056E3,1.4881E4,4.1E1,4.678E3,2.456E3,1E2,5.6E2,3.72E2,1.26E2,3.99E2,9.88E2,1.66E2,2.4E1,8E1,3.5E1],"tree_param":{"num_deleted":"0","num_feature":"20","num_nodes":"63","size_leaf_vector":"1"}},{"base_weights":[4.2804517E-3,-5.933728E0,9.426422E0,-1.4441047E1,-1.5972427E0,7.701577E0,2.8946487E1,-2.8339867E1,-1.1968693E1,-2.8277209E0,6.142028E0,5.7730365E0,1.545596E1,2.3562138E1,6.203779E1,-2.328252E1,-4.349702E1,-1.4899571E1,-1.8323383E0,2.9577097E-1,-9.029407E0,-8.208432E0,1.5242533E1,1.2962859E1,4.2151155E0,1.2878312E1,4.974244E1,3.9177914E1,1.7931133E1,9.390596E1,-9.731577E0,5.4137844E-1,-1.2717624E0,-3.1662102E0,-1.1534067E0,-4.5263296E-1,-1.1760858E0,-1.0183731E0,1.2548344E-1,-4.732352E-2,5.980063E-1,-1.728134E-1,-1.0808163E0,-6.750813E-1,1.1500919E-1,1.4112128E0,4.9496984E-1,3.9214754E-1,1.5539751E0,2.0140746E-1,3.5150704E0,9.9818975E-1,3.8536516E-1,4.5143065E0,1.2403859E0,8.3694404E-1,5.2386527E0,-1.3144656E-1,1.311425E0,8.108127E0,5.655722E-1,-1.0969037E0,3.4475396E0],"categories":[],"categories_nodes":[],"categories_segments":[],