{"learner":{"attributes":{"scikit_learn":"{\"_estimator_type\": \"regressor\"}"},"feature_names":["price_eur_mwh","hour","minute","day_of_week","month","is_holiday","is_15min_era","price_lag_1h","price_lag_24h","price_lag_168h","volatility_24h","total_renewable","renewable_penetration","residual_load","temperature_2m","wind_speed_10m","solar_irradiance","solar_penetration_ratio","solar_squared","is_peak_solar_window"],"feature_types":["float","float","float","float","float","float","float","float","float","float","float","float","float","float","float","float","float","float","float","int"],"gradient_booster":{"model":{"cats":{"enc":[],"feature_segments":[],"sorted_idx":[]},"gbtree_model_param":{"num_parallel_tree":"1","num_trees":"100"},"iteration_indptr":[0,1,2,3,4,5,6,7,8,9,10,11,12,13,14,15,16,17,18,19,20,21,22,23,24,25,26,27,28,29,30,31,32,33,34,35,36,37,38,39,40,41,42,43,44,45,46,47,48,49,50,51,52,53,54,55,56,57,58,59,60,61,62,63,64,65,66,67,68,69,70,71,72,73,74,75,76,77,78,79,80,81,82,83,84,85,86,87,88,89,90,91,92,93,94,95,96,97,98,99,100],"tree_info":[0,0,0,0,0,0,0,0,0,0,0,0,0,0,0,0,0,0,0,0,0,0,0,0,0,0,0,0,0,0,0,0,0,0,0,0,0,0,0,0,0,0,0,0,0,0,0,0,0,0,0,0,0,0,0,0,0,0,0,0,0,0,0,0,0,0,0,0,0,0,0,0,0,0,0,0,0,0,0,0,0,0,0,0,0,0,0,0,0,0,0,0,0,0,0,0,0,0,0,0],"trees":[{"base_weights":[-1.0668989E-6,-2.9405891E1,2.72112E1,-1.7316528E1,-6.3997635E1,1.60774E1,6.538656E1,-1.0003834E1,-3.544678E1,-8.726318E1,-5.1084522E1,7.356379E0,2.82031E1,5.9708965E1,2.2416678E2,-1.2446935E1,1.1291358E1,-4.053112E1,2.924457E-1,-1.0465961E2,-5.367382E1,-3.1698442E1,-6.1925972E1,4.091479E0,1.6864859E1,2.5483912E1,4.890909E1,5.1480865E1,8.1353294E1,1.24738754E2,3.4904953E2,-9.529743E-1,-3.6465117E-1,2.1331573E-3,9.036154E-1,-1.5469793E0,-3.1357267E0,1.1696256E0,-4.7669473E-1,-7.050888E0,-4.6875167E0,-4.6018405E0,-2.1101336E0,-9.055312E-1,-2.2566442E0,-3.473498E0,-9.419384E-1,1.0554243E0,1.1600103E-1,7.298237E-1,1.6011704E0,1.5212778E0,7.371839E-1,5.534013E-1,2.843643E0,2.442024E0,4.7100825E0,5.280768E0,2.9712398E0,5.3350496E0,7.6999335E0,7.4858255E0,2.2840563E1],"categories":[],"categories_nodes":[],"categories_segments":[],"categories_sizes":[],"default_left":[0,0,0,0,0,0,0,0,0,0,0,0,0,0,0,0,0,0,0,0,0,0,0,0,0,0,0,0,0,0,0,0,0,0,0,0,0,0,0,0,0,0,0,0,0,0,0,0,0,0,0,0,0,0,0,0,0,0,0,0,0,0,0],"id":0,"left_children":[1,3,5,7,9,11,13,15,17,19,21,23,25,27,29,31,33,35,37,39,41,43,45,47,49,51,53,55,57,59,61,-1,-1,-1,-1,-1,-1,-1,-1,-1,-1,-1,-1,-1,-1,-1,-1,-1,-1,-1,-1,-1,-1,-1,-1,-1,-1,-1,-1,-1,-1,-1,-1],"loss_changes":[5.5610188E7,1.3967348E7,1.534108E7,3.281423E6,2.594264E6,2.9551455E6,7.333748E6,9.178845E5,1.292699E6,1.79764E6,1.16765E6,5.0461706E5,6.56998E5,1.397394E6,3.445594E6,5.3918475E5,1.3851797E5,1.323209E6,2.0156234E5,7.92756E5,4.60387E5,3.6390712E5,1.158467E6,3.64795E5,1.4240412E5,5.48128E5,4.080115E5,6.3892E5,1.146101E6,6.6958E4,2.595186E6,0E0,0E0,0E0,0E0,0E0,0E0,0E0,0E0,0E0,0E0,0E0,0E0,0E0,0E0,0E0,0E0,0E0,0E0,0E0,0E0,0E0,0E0,0E0,0E0,0E0,0E0,0E0,0E0,0E0,0E0,0E0,0E0],"parents":[2147483647,0,0,1,1,2,2,3,3,4,4,5,5,6,6,7,7,8,8,9,9,10,10,11,11,12,12,13,13,14,14,15,15,16,16,17,17,18,18,19,19,20,20,21,21,22,22,23,23,24,24,25,25,26,26,27,27,28,28,29,29,30,30],"right_children":[2,4,6,8,10,12,14,16,18,20,22,24,26,28,30,32,34,36,38,40,42,44,46,48,50,52,54,56,58,60,62,-1,-1,-1,-1,-1,-1,-1,-1,-1,-1,-1,-1,-1,-1,-1,-1,-1,-1,-1,-1,-1,-1,-1,-1,-1,-1,-1,-1,-1,-1,-1,-1],"split_conditions":[9.205E1,7.6934075E-1,1.37E2,1.96E2,-1E-1,1.1163E2,3.1502E2,1.2036E2,6E0,6E0,2.5907308E-3,1.1117E2,6E0,1.7532E2,1.6209E2,7.711E1,9.376E1,4E0,1E1,-1.85E1,-2.973E1,8E0,6E0,2E0,1.38E2,4E0,6E0,6E0,2E0,1.3645E2,1.1E1,-9.529743E-1,-3.6465117E-1,2.1331573E-3,9.036154E-1,-1.5469793E0,-3.1357267E0,1.1696256E0,-4.7669473E-1,-7.050888E0,-4.6875167E0,-4.6018405E0,-2.1101336E0,-9.055312E-1,-2.2566442E0,-3.473498E0,-9.419384E-1,1.0554243E0,1.1600103E-1,7.298237E-1,1.6011704E0,1.5212778E0,7.371839E-1,5.534013E-1,2.843643E0,2.442024E0,4.7100825E0,5.280768E0,2.9712398E0,5.3350496E0,7.6999335E0,7.4858255E0,2.2840563E1],"split_indices":[0,12,0,16,0,0,0,9,3,3,17,9,3,0,9,0,8,3,1,0,0,4,3,4,8,3,1,3,3,9,4,0,0,0,0,0,0,0,0,0,0,0,0,0,0,0,0,0,0,0,0,0,0,0,0,0,0,0,0,0,0,0,0],"split_type":[0,0,0,0,0,0,0,0,0,0,0,0,0,0,0,0,0,0,0,0,0,0,0,0,0,0,0,0,0,0,0,0,0,0,0,0,0,0,0,0,0,0,0,0,0,0,0,0,0,0,0,0,0,0,0,0,0,0,0,0,0,0,0],"sum_hessian":[6.9496E4,3.3401E4,3.6095E4,2.4752E4,8.649E3,2.7946E4,8.149E3,1.7639E4,7.113E3,3.085E3,5.564E3,1.6256E4,1.169E4,7.869E3,2.8E2,1.5824E4,1.815E3,6.227E3,8.86E2,2.031E3,1.054E3,1.997E3,3.567E3,1.2102E4,4.154E3,1.0335E4,1.355E3,5.704E3,2.165E3,1.57E2,1.23E2,6.93E3,8.894E3,6.83E2,1.132E3,4.349E3,1.878E3,2.64E2,6.22E2,4.66E2,1.565E3,2.41E2,8.13E2,9.94E2,1.003E3,3.035E3,5.32E2,1.14E3,1.0962E4,3.615E3,5.39E2,7.077E3,3.258E3,2.36E2,1.119E3,5.374E3,3.3E2,1.026E3,1.139E3,1E2,5.7E1,4.4E1,7.9E1],"tree_param":{"num_deleted":"0","num_feature":"20","num_nodes":"63","size_leaf_vector":"1"}},{"base_weights":[5.392801E-4,-2.9562859E1,2.446141E1,-1.8463766E1,-6.2986546E1,1.4188399E1,6.212444E1,-1.03110695E1,-3.464015E1,-8.3363464E1,-5.0060688E1,5.7665367E0,2.6345188E1,5.6725475E1,2.1311275E2,-1.2544729E1,1.0086548E1,-3.9965942E1,-2.6795226E-1,-9.978548E1,-5.1313087E1,-5.6754047E1,-1.8193262E1,2.6779666E0,1.56968155E1,2.3837744E1,4.5491253E1,4.955282E1,7.923663E1,1.20586006E2,3.3446558E2,-7.5496197E-1,-9.200104E-2,1.23606004E-1,1.057744E0,-1.5505934E0,-2.9966147E0,1.1879295E0,-5.370349E-1,-6.699098E0,-4.469224E0,-4.3726993E0,-2.0102623E0,-2.0595765E0,-3.798891E0,-3.5198839E0,-5.974552E-1,9.836149E-1,5.0391655E-2,6.816332E-1,1.4989666E0,1.4246415E0,6.901232E-1,4.7440678E-1,2.649254E0,2.3587003E0,4.4907384E0,5.2246733E0,2.785907E0,5.0709376E0,7.517257E0,2.3472795E1,9.232722E0],"categories":[],"categories_nodes":[],"categories_segments":[],"categories_sizes":[],"default_left":[0,0,0,0,0,0,0,0,0,0,0,0,0,0,0,0,0,0,0,0,0,0,0,0,0,0,0,0,0,0,0,0,0,0,0,0,0,0,0,0,0,0,0,0,0,0,0,0,0,0,0,0,0,0,0,0,0,0,0,0,0,0,0],"id":1,"left_children":[1,3,5,7,9,11,13,15,17,19,21,23,25,27,29,31,33,35,37,39,41,43,45,47,49,51,53,55,57,59,61,-1,-1,-1,-1,-1,-1,-1,-1,-1,-1,-1,-1,-1,-1,-1,-1,-1,-1,-1,-1,-1,-1,-1,-1,-1,-1,-1,-1,-1,-1,-1,-1],"loss_changes":[5.025723E7,1.1672232E7,1.4713796E7,3.115202E6,2.06185E6,3.05925E6,6.631628E6,7.158495E5,1.449087E6,1.596508E6,1.023235E6,5.414126E5,5.86002E5,1.266802E6,3.114844E6,3.8715425E5,1.3066445E5,1.223501E6,2.6773138E5,7.03292E5,4.1117875E5,1.183977E6,2.7134597E5,3.8221138E5,1.23059E5,5.04831E5,3.8126575E5,5.67641E5,1.122783E6,7.658675E4,2.360303E6,0E0,0E0,0E0,0E0,0E0,0E0,0E0,0E0,0E0,0E0,0E0,0E0,0E0,0E0,0E0,0E0,0E0,0E0,0E0,0E0,0E0,0E0,0E0,0E0,0E0,0E0,0E0,0E0,0E0,0E0,0E0,0E0],"parents":[2147483647,0,0,1,1,2,2,3,3,4,4,5,5,6,6,7,7,8,8,9,9,10,10,11,11,12,12,13,13,14,14,15,15,16,16,17,17,18,18,19,19,20,20,21,21,22,22,23,23,24,24,25,25,26,26,27,27,28,28,29,29,30,30],"right_children":[2,4,6,8,10,12,14,16,18,20,22,24,26,28,30,32,34,36,38,40,42,44,46,48,50,52,54,56,58,60,62,-1,-1,-1,-1,-1,-1,-1,-1,-1,-1,-1,-1,-1,-1,-1,-1,-1,-1,-1,-1,-1,-1,-1,-1,-1,-1,-1,-1,-1,-1,-1,-1],"split_conditions":[8.996E1,7.8818774E-1,1.37E2,1.63E2,-1E-1,1.1074E2,3.1502E2,1.2136E2,6E0,6E0,6E0,1.1117E2,6E0,1.8E2,1.7143E2,6E0,1.0878E2,4E0,1E1,-1.85E1,-2.973E1,4E0,6E0,2E0,1.38E2,4E0,6E0,6E0,2E0,1.3645E2,5.0876364E-2,-7.5496197E-1,-9.200104E-2,1.23606004E-1,1.057744E0,-1.5505934E0,-2.9966147E0,1.1879295E0,-5.370349E-1,-6.699098E0,-4.469224E0,-4.3726993E0,-2.0102623E0,-2.0595765E0,-3.798891E0,-3.5198839E0,-5.974552E-1,9.836149E-1,5.0391655E-2,6.816332E-1,1.4989666E0,1.4246415E0,6.901232E-1,4.7440678E-1,2.649254E0,2.3587003E0,4.4907384E0,5.2246733E0,2.785907E0,5.0709376E0,7.517257E0,2.3472795E1,9.232722E0],"split_indices":[0,12,0,16,0,0,0,9,3,3,3,9,3,0,9,3,8,3,1,0,0,3,1,4,8,3,1,3,3,9,12,0,0,0,0,0,0,0,0,0,0,0,0,0,0,0,0,0,0,0,0,0,0,0,0,0,0,0,0,0,0,0,0],"split_type":[0,0,0,0,0,0,0,0,0,0,0,0,0,0,0,0,0,0,0,0,0,0,0,0,0,0,0,0,0,0,0,0,0,0,0,0,0,0,0,0,0,0,0,0,0,0,0,0,0,0,0,0,0,0,0,0,0,0,0,0,0,0,0],"sum_hessian":[6.9496E4,3.1466E4,3.803E4,2.3623E4,7.843E3,2.9881E4,8.149E3,1.5708E4,7.915E3,3.042E3,4.801E3,1.7653E4,1.2228E4,7.869E3,2.8E2,1.4158E4,1.55E3,6.853E3,1.062E3,2.01E3,1.032E3,3.967E3,8.34E2,1.3466E4,4.187E3,1.0814E4,1.414E3,5.97E3,1.899E3,1.6E2,1.2E2,1.143E4,2.728E3,9.19E2,6.31E2,4.733E3,2.12E3,3.22E2,7.4E2,4.66E2,1.544E3,2.41E2,7.91E2,2.194E3,1.773E3,8.8E1,7.46E2,1.204E3,1.2262E4,3.66E3,5.27E2,7.386E3,3.428E3,2.44E2,1.17E3,5.639E3,3.31E2,9.14E2,9.85E2,1E2,6E1,6.2E1,5.8E1],"tree_param":{"num_deleted":"0","num_feature":"20","num_nodes":"63","size_leaf_vector":"1"}},{"base_weights":[1.0508706E-3,-3.1149837E1,2.0983099E1,-2.0207552E1,-6.068453E1,1.1693526E1,5.9025597E1,-1.1817683E1,-3.514972E1,-4.0398163E1,-7.294854E1,2.7400842E0,2.3501877E1,5.3891087E1,2.026183E2,-1.3933736E1,7.604857E0,-4.0613777E1,-1.6037195E0,-1.062481E1,-4.7145123E1,-8.099296E1,-4.436977E1,-1.7692213E-1,1.38787985E1,2.1150372E1,4.161402E1,4.504211E1,7.0704506E1,1.1266293E2,3.1560483E2,-8.416788E-1,-1.3500431E-1,1.4601186E-3,9.768797E-1,-1.6198311E0,-2.9419248E0,1.0521728E0,-5.6313103E-1,-9.550273E-1,1.2698683E0,-2.8095613E0,-1.3251013E0,-6.194972E0,-3.6356914E0,-4.1524553E0,-1.6683072E0,-1.1138966E-1,6.116571E-1,6.485262E-1,2.467727E0,1.2900838E0,5.645246E-1,1.6441082E0,3.5591183E0,2.128159E0,4.144969E0,4.533605E0,2.6540906E0,4.8199015E0,6.952193E0,6.5615306E0,2.0768515E1],"categories":[],"categories_nodes":[],"categories_segments":[],"categories_sizes":[],"default_left":[0,0,0,0,0,0,0,0,0,0,0,0,0,0,0,0,0,0,0,0,0,0,0,0,0,0,0,0,0,0,0,0,0,0,0,0,0,0,0,0,0,0,0,0,0,0,0,0,0,0,0,0,0,0,0,0,0,0,0,0,0,0,0],"id":2,"left_children":[1,3,5,7,9,11,13,15,17,19,21,23,25,27,29,31,33,35,37,39,41,43,45,47,49,51,53,55,57,59,61,-1,-1,-1,-1,-1,-1,-1,-1,-1,-1,-1,-1,-1,-1,-1,-1,-1,-1,-1,-1,-1,-1,-1,-1,-1,-1,-1,-1,-1,-1,-1,-1],"loss_changes":[4.5424544E7,9.038358E6,1.4674888E7,2.5583655E6,1.87817E6,3.5288375E6,5.997894E6,5.3739475E5,1.345154E6,5.72207E5,1.079462E6,6.168573E5,6.12172E5,1.167726E6,2.820455E6,3.839905E5,1.1616122E5,9.432E5,2.2532747E5,1.6169112E5,4.32493E5,1.296456E6,4.3858962E5,3.829696E5,1.263135E5,5.84073E5,4.2444175E5,4.80621E5,9.49492E5,5.4391625E4,2.226368E6,0E0,0E0,0E0,0E0,0E0,0E0,0E0,0E0,0E0,0E0,0E0,0E0,0E0,0E0,0E0,0E0,0E0,0E0,0E0,0E0,0E0,0E0,0E0,0E0,0E0,0E0,0E0,0E0,0E0,0E0,0E0,0E0],"parents":[2147483647,0,0,1,1,2,2,3,3,4,4,5,5,6,6,7,7,8,8,9,9,10,10,11,11,12,12,13,13,14,14,15,15,16,16,17,17,18,18,19,19,20,20,21,21,22,22,23,23,24,24,25,25,26,26,27,27,28,28,29,29,30,30],"right_children":[2,4,6,8,10,12,14,16,18,20,22,24,26,28,30,32,34,36,38,40,42,44,46,48,50,52,54,56,58,60,62,-1,-1,-1,-1,-1,-1,-1,-1,-1,-1,-1,-1,-1,-1,-1,-1,-1,-1,-1,-1,-1,-1,-1,-1,-1,-1,-1,-1,-1,-1,-1,-1],"split_conditions":[8.62E1,7.951139E-1,1.37E2,1.73E2,1E0,1.0809E2,3.1502E2,1.2136E2,6E0,4E0,6E0,1.1117E2,6E0,1.6858E2,1.6209E2,6E0,1.0878E2,4E0,1E1,1.0499E2,6E0,-1.157E1,-2.973E1,6E0,2.6376E2,4E0,1.2968E2,6E0,2E0,1.3645E2,1.1E1,-8.416788E-1,-1.3500431E-1,1.4601186E-3,9.768797E-1,-1.6198311E0,-2.9419248E0,1.0521728E0,-5.6313103E-1,-9.550273E-1,1.2698683E0,-2.8095613E0,-1.3251013E0,-6.194972E0,-3.6356914E0,-4.1524553E0,-1.6683072E0,-1.1138966E-1,6.116571E-1,6.485262E-1,2.467727E0,1.2900838E0,5.645246E-1,1.6441082E0,3.5591183E0,2.128159E0,4.144969E0,4.533605E0,2.6540906E0,4.8199015E0,6.952193E0,6.5615306E0,2.0768515E1],"split_indices":[0,12,0,16,19,0,0,9,3,4,3,9,3,0,9,3,8,3,1,9,3,0,0,3,9,3,8,3,3,9,4,0,0,0,0,0,0,0,0,0,0,0,0,0,0,0,0,0,0,0,0,0,0,0,0,0,0,0,0,0,0,0,0],"split_type":[0,0,0,0,0,0,0,0,0,0,0,0,0,0,0,0,0,0,0,0,0,0,0,0,0,0,0,0,0,0,0,0,0,0,0,0,0,0,0,0,0,0,0,0,0,0,0,0,0,0,0,0,0,0,0,0,0,0,0,0,0,0,0],"sum_hessian":[6.9496E4,2.797E4,4.1526E4,2.041E4,7.56E3,3.3377E4,8.149E3,1.3072E4,7.338E3,2.85E3,4.71E3,1.8984E4,1.4393E4,7.869E3,2.8E2,1.1788E4,1.284E3,6.31E3,1.028E3,5.27E2,2.323E3,3.674E3,1.036E3,1.5045E4,3.939E3,1.2741E4,1.652E3,5.158E3,2.711E3,1.57E2,1.23E2,9.369E3,2.419E3,7.86E2,4.98E2,4.351E3,1.959E3,3.07E2,7.21E2,4.27E2,1E2,1.614E3,7.09E2,5.92E2,3.082E3,2.28E2,8.08E2,1.2912E4,2.133E3,3.842E3,9.7E1,8.656E3,4.085E3,1.277E3,3.75E2,4.843E3,3.15E2,1.269E3,1.442E3,1E2,5.7E1,4.4E1,7.9E1],"tree_param":{"num_deleted":"0","num_feature":"20","num_nodes":"63","size_leaf_vector":"1"}},{"base_weights":[1.5698127E-3,-2.4874472E1,2.3757982E1,-5.225034E1,-1.3348798E1,1.4142857E1,5.6080765E1,-6.352206E1,-2.3239933E1,-8.007443E0,-3.0023945E1,7.58978E0,2.593521E1,5.1198242E1,1.9262654E2,-3.5150227E1,-7.504577E1,-4.5262283E1,-7.831523E0,-1.0150817E1,9.654581E0,-3.2478687E1,7.1329174E0,9.613818E-1,1.1251496E1,2.3538164E1,4.4557297E1,4.279122E1,6.717193E1,1.07104294E2,3.0004498E2,-1.2771084E0,-3.2279565E0,-5.7819133E0,-3.4722068E0,-3.9557972E0,-1.8144296E0,3.2142627E-1,-7.306017E-1,-7.7529085E-1,-2.6241645E-1,1.0902936E0,2.2072482E-1,-1.2413871E0,-2.6544862E0,1.2237241E0,2.306552E-2,2.8135896E-1,-3.1666863E-1,4.340373E-1,1.3838437E0,1.406264E0,6.8711346E-1,5.234296E-1,2.6181617E0,2.021773E0,3.9383767E0,4.307103E0,2.5214782E0,4.5812926E0,6.610576E0,2.1339415E1,8.107482E0],"categories":[],"categories_nodes":[],"categories_segments":[],"categories_sizes":[],"default_left":[0,0,0,0,0,0,0,0,0,0,0,0,0,0,0,0,0,0,0,0,0,0,0,0,0,0,0,0,0,0,0,0,0,0,0,0,0,0,0,0,0,0,0,0,0,0,0,0,0,0,0,0,0,0,0,0,0,0,0,0,0,0,0],"id":3,"left_children":[1,3,5,7,9,11,13,15,17,19,21,23,25,27,29,31,33,35,37,39,41,43,45,47,49,51,53,55,57,59,61,-1,-1,-1,-1,-1,-1,-1,-1,-1,-1,-1,-1,-1,-1,-1,-1,-1,-1,-1,-1,-1,-1,-1,-1,-1,-1,-1,-1,-1,-1,-1,-1],"loss_changes":[4.107092E7,1.0711072E7,1.1047392E7,3.28746E6,2.1277695E6,2.117171E6,5.423644E6,2.365452E6,9.551974E5,6.8518375E5,5.28888E5,4.2750406E5,4.358225E5,1.053996E6,2.549318E6,5.9003675E5,1.162998E6,3.49224E5,1.6040662E5,4.2361275E5,1.2464067E5,8.56064E5,4.1639312E4,2.1340634E5,4.7885075E5,3.89334E5,2.9614675E5,4.34049E5,8.57001E5,4.9288125E4,2.097984E6,0E0,0E0,0E0,0E0,0E0,0E0,0E0,0E0,0E0,0E0,0E0,0E0,0E0,0E0,0E0,0E0,0E0,0E0,0E0,0E0,0E0,0E0,0E0,0E0,0E0,0E0,0E0,0E0,0E0,0E0,0E0,0E0],"parents":[2147483647,0,0,1,1,2,2,3,3,4,4,5,5,6,6,7,7,8,8,9,9,10,10,11,11,12,12,13,13,14,14,15,15,16,16,17,17,18,18,19,19,20,20,21,21,22,22,23,23,24,24,25,25,26,26,27,27,28,28,29,29,30,30],"right_children":[2,4,6,8,10,12,14,16,18,20,22,24,26,28,30,32,34,36,38,40,42,44,46,48,50,52,54,56,58,60,62,-1,-1,-1,-1,-1,-1,-1,-1,-1,-1,-1,-1,-1,-1,-1,-1,-1,-1,-1,-1,-1,-1,-1,-1,-1,-1,-1,-1,-1,-1,-1,-1],"split_conditions":[9.277E1,3.174E1,1.37E2,6E0,2.39E2,1.1483E2,3.1502E2,2.5152448E-3,-1E-1,1.2036E2,6E0,9.459E1,6E0,1.6858E2,1.6209E2,5E0,-1.157E1,-2.973E1,3.056924E4,8.016E1,2E0,4E0,1E1,4E0,6E0,4E0,6E0,6E0,2E0,1.3645E2,5.0876364E-2,-1.2771084E0,-3.2279565E0,-5.7819133E0,-3.4722068E0,-3.9557972E0,-1.8144296E0,3.2142627E-1,-7.306017E-1,-7.7529085E-1,-2.6241645E-1,1.0902936E0,2.2072482E-1,-1.2413871E0,-2.6544862E0,1.2237241E0,2.306552E-2,2.8135896E-1,-3.1666863E-1,4.340373E-1,1.3838437E0,1.406264E0,6.8711346E-1,5.234296E-1,2.6181617E0,2.021773E0,3.9383767E0,4.307103E0,2.5214782E0,4.5812926E0,6.610576E0,2.1339415E1,8.107482E0],"split_indices":[0,0,0,3,16,0,0,17,0,9,3,8,3,0,9,3,0,0,11,0,3,3,1,3,3,3,1,3,3,9,12,0,0,0,0,0,0,0,0,0,0,0,0,0,0,0,0,0,0,0,0,0,0,0,0,0,0,0,0,0,0,0,0],"split_type":[0,0,0,0,0,0,0,0,0,0,0,0,0,0,0,0,0,0,0,0,0,0,0,0,0,0,0,0,0,0,0,0,0,0,0,0,0,0,0,0,0,0,0,0,0,0,0,0,0,0,0,0,0,0,0,0,0,0,0,0,0,0,0],"sum_hessian":[6.9496E4,3.3948E4,3.5548E4,1.0057E4,2.3891E4,2.7399E4,8.149E3,7.242E3,2.815E3,1.8096E4,5.795E3,1.7613E4,9.786E3,7.869E3,2.8E2,2.093E3,5.149E3,1.158E3,1.657E3,1.6138E4,1.958E3,5.436E3,3.59E2,6.268E3,1.1345E4,8.672E3,1.114E3,5.158E3,2.711E3,1.57E2,1.23E2,1.579E3,5.14E2,6.22E2,4.527E3,2.41E2,9.17E2,5.34E2,1.123E3,7.712E3,8.426E3,5.89E2,1.369E3,3.966E3,1.47E3,9.9E1,2.6E2,3.823E3,2.445E3,9.811E3,1.534E3,5.905E3,2.767E3,2.08E2,9.06E2,4.843E3,3.15E2,1.269E3,1.442E3,1E2,5.7E1,6.3E1,6E1],"tree_param":{"num_deleted":"0","num_feature":"20","num_nodes":"63","size_leaf_vector":"1"}},{"base_weights":[2.0395552E-3,-2.8401213E1,1.880599E1,-6.0708603E1,-2.0017725E1,7.65521E0,4.4935314E1,-7.456558E1,-3.2646713E1,-1.20442505E1,-3.453275E1,1.4405158E0,1.6691711E1,4.1755432E1,1.8313983E2,-1.0908526E2,-6.7616486E1,-7.517649E1,-2.6374018E1,-1.40638075E1,5.5863323E0,-3.8786762E1,3.0146298E0,-1.1905271E0,1.2413078E1,1.4643305E1,3.1849133E1,3.366663E1,5.9705112E1,1.01819916E2,2.852802E2,-7.5987535E0,-4.527808E0,-7.558047E-2,-3.5239398E0,-3.1946814E0,-5.758681E0,2.0023575E-1,-1.4835151E0,-8.49209E-1,-1.13814496E-1,5.5624974E-1,-5.402318E-1,-1.516269E0,-2.8329809E0,9.806393E-1,-1.9780254E-1,7.252764E-1,-1.2930366E-1,5.7081413E-1,2.34572E0,9.304398E-1,3.252285E-1,1.4448143E0,5.037142E0,1.5714037E0,2.84795E0,3.8279054E0,2.3469214E0,4.3544955E0,6.2857466E0,5.7267613E0,1.8887915E1],"categories":[],"categories_nodes":[],"categories_segments":[],"categories_sizes":[],"default_left":[0,0,0,0,0,0,0,0,0,0,0,0,0,0,0,0,0,0,0,0,0,0,0,0,0,0,0,0,0,0,0,0,0,0,0,0,0,0,0,0,0,0,0,0,0,0,0,0,0,0,0,0,0,0,0,0,0,0,0,0,0,0,0],"id":4,"left_children":[1,3,5,7,9,11,13,15,17,19,21,23,25,27,29,31,33,35,37,39,41,43,45,47,49,51,53,55,57,59,61,-1,-1,-1,-1,-1,-1,-1,-1,-1,-1,-1,-1,-1,-1,-1,-1,-1,-1,-1,-1,-1,-1,-1,-1,-1,-1,-1,-1,-1,-1,-1,-1],"loss_changes":[3.7118424E7,7.496688E6,1.218297E7,2.215196E6,2.543559E6,1.6459428E6,5.488854E6,9.08248E5,5.0142425E5,5.0529162E5,1.24487E6,5.013877E5,3.7034675E5,1.773246E6,2.304952E6,4.93263E5,6.0159E5,1.01851375E5,1.6494412E5,4.382125E5,1.3257411E5,1.056885E6,9.1943734E4,3.068986E5,1.1498306E5,3.39499E5,2.8616662E5,4.37813E5,8.13357E5,4.466325E4,1.914714E6,0E0,0E0,0E0,0E0,0E0,0E0,0E0,0E0,0E0,0E0,0E0,0E0,0E0,0E0,0E0,0E0,0E0,0E0,0E0,0E0,0E0,0E0,0E0,0E0,0E0,0E0,0E0,0E0,0E0,0E0,0E0,0E0],"parents":[2147483647,0,0,1,1,2,2,3,3,4,4,5,5,6,6,7,7,8,8,9,9,10,10,11,11,12,12,13,13,14,14,15,15,16,16,17,17,18,18,19,19,20,20,21,21,22,22,23,23,24,24,25,25,26,26,27,27,28,28,29,29,30,30],"right_children":[2,4,6,8,10,12,14,16,18,20,22,24,26,28,30,32,34,36,38,40,42,44,46,48,50,52,54,56,58,60,62,-1,-1,-1,-1,-1,-1,-1,-1,-1,-1,-1,-1,-1,-1,-1,-1,-1,-1,-1,-1,-1,-1,-1,-1,-1,-1,-1,-1,-1,-1,-1,-1],"split_conditions":[8.59E1,1.2E0,1.2513E2,6E0,1.99E2,1.0568E2,3.1502E2,-1.157E1,-2.973E1,1.2036E2,6E0,1.1117E2,6E0,1.5757E2,1.6209E2,-1E0,2E0,1.8129137E1,3.056924E4,6E0,1.2E1,4E0,1E1,2E0,2.6376E2,4E0,1.4444E2,6E0,2E0,1.3645E2,1.1E1,-7.5987535E0,-4.527808E0,-7.558047E-2,-3.5239398E0,-3.1946814E0,-5.758681E0,2.0023575E-1,-1.4835151E0,-8.49209E-1,-1.13814496E-1,5.5624974E-1,-5.402318E-1,-1.516269E0,-2.8329809E0,9.806393E-1,-1.9780254E-1,7.252764E-1,-1.2930366E-1,5.7081413E-1,2.34572E0,9.304398E-1,3.252285E-1,1.4448143E0,5.037142E0,1.5714037E0,2.84795E0,3.8279054E0,2.3469214E0,4.3544955E0,6.2857466E0,5.7267613E0,1.8887915E1],"split_indices":[0,0,0,3,16,0,0,0,0,9,3,9,3,0,9,9,4,15,11,3,4,3,1,4,9,3,8,3,3,9,4,0,0,0,0,0,0,0,0,0,0,0,0,0,0,0,0,0,0,0,0,0,0,0,0,0,0,0,0,0,0,0,0],"split_type":[0,0,0,0,0,0,0,0,0,0,0,0,0,0,0,0,0,0,0,0,0,0,0,0,0,0,0,0,0,0,0,0,0,0,0,0,0,0,0,0,0,0,0,0,0,0,0,0,0,0,0,0,0,0,0,0,0,0,0,0,0,0,0],"sum_hessian":[6.9496E4,2.7682E4,4.1814E4,5.702E3,2.198E4,2.9308E4,1.2506E4,3.816E3,1.886E3,1.4188E4,7.792E3,1.7366E4,1.1942E4,1.2226E4,2.8E2,6.37E2,3.179E3,2.41E2,1.645E3,1.273E4,1.458E3,6.999E3,7.93E2,1.4008E4,3.358E3,1.0522E4,1.42E3,8.43E3,3.796E3,1.57E2,1.23E2,1.9E2,4.47E2,1.32E2,3.047E3,1.9E2,5.1E1,1.61E2,1.484E3,1.0202E4,2.528E3,1.09E3,3.68E2,4.752E3,2.247E3,2.34E2,5.59E2,1.143E3,1.2865E4,3.265E3,9.3E1,7.074E3,3.448E3,1.363E3,5.7E1,7.693E3,7.37E2,1.634E3,2.162E3,1E2,5.7E1,4.4E1,7.9E1],"tree_param":{"num_deleted":"0","num_feature":"20","num_nodes":"63","size_leaf_vector":"1"}},{"base_weights":[2.3204936E-3,-2.838811E1,1.701071E1,-5.7677727E1,-2.017237E1,6.633855E0,4.269221E1,-7.084142E1,-3.1019802E1,-1.2702241E1,-3.454783E1,8.395101E-1,1.5857773E1,3.9668526E1,1.741083E2,-8.531043E1,-5.5166824E1,-7.1454666E1,-2.5056099E1,-1.5639887E1,-3.2440642E-1,-3.8571384E1,1.6213735E0,-4.051403E0,6.4886603E0,1.3911258E1,3.0261236E1,3.1983822E1,5.672148E1,1.3222559E2,3.5601053E2,-5.959041E0,-3.8203201E0,-7.183005E-2,-2.9665315E0,-6.324097E0,-3.18319E0,1.9028588E-1,-1.4093894E0,-1.373702E0,-5.878827E-1,-9.305682E-1,5.477049E-1,-1.5242413E0,-2.7954106E0,8.696181E-1,-2.2262113E-1,7.387392E-1,-2.7807292E-1,2.0261614E-1,8.0972785E-1,8.839242E-1,3.0897194E-1,5.6800254E-2,1.8452971E0,1.4928437E0,2.7057457E0,3.636627E0,2.2296293E0,4.839813E0,1.0354847E1,2.6846724E1,6.128019E0],"categories":[],"categories_nodes":[],"categories_segments":[],"categories_sizes":[],"default_left":[0,0,0,0,0,0,0,0,0,0,0,0,0,0,0,0,0,0,0,0,0,0,0,0,0,0,0,0,0,0,0,0,0,0,0,0,0,0,0,0,0,0,0,0,0,0,0,0,0,0,0,0,0,0,0,0,0,0,0,0,0,0,0],"id":5,"left_children":[1,3,5,7,9,11,13,15,17,19,21,23,25,27,29,31,33,35,37,39,41,43,45,47,49,51,53,55,57,59,61,-1,-1,-1,-1,-1,-1,-1,-1,-1,-1,-1,-1,-1,-1,-1,-1,-1,-1,-1,-1,-1,-1,-1,-1,-1,-1,-1,-1,-1,-1,-1,-1],"loss_changes":[3.3558884E7,6.264272E6,1.1581779E7,1.99908E6,2.1832665E6,1.654425E6,4.962886E6,8.60974E5,4.5324362E5,4.8662325E5,1.011924E6,5.25346E5,3.344195E5,1.600496E6,2.093742E6,5.88934E5,4.104445E5,9.56955E4,1.4888319E5,4.96596E5,5.298527E5,8.75497E5,6.684291E4,2.8979788E5,2.085705E5,3.0639988E5,2.7496225E5,3.95246E5,7.3412E5,5.9006125E5,2.130503E6,0E0,0E0,0E0,0E0,0E0,0E0,0E0,0E0,0E0,0E0,0E0,0E0,0E0,0E0,0E0,0E0,0E0,0E0,0E0,0E0,0E0,0E0,0E0,0E0,0E0,0E0,0E0,0E0,0E0,0E0,0E0,0E0],"parents":[2147483647,0,0,1,1,2,2,3,3,4,4,5,5,6,6,7,7,8,8,9,9,10,10,11,11,12,12,13,13,14,14,15,15,16,16,17,17,18,18,19,19,20,20,21,21,22,22,23,23,24,24,25,25,26,26,27,27,28,28,29,29,30,30],"right_children":[2,4,6,8,10,12,14,16,18,20,22,24,26,28,30,32,34,36,38,40,42,44,46,48,50,52,54,56,58,60,62,-1,-1,-1,-1,-1,-1,-1,-1,-1,-1,-1,-1,-1,-1,-1,-1,-1,-1,-1,-1,-1,-1,-1,-1,-1,-1,-1,-1,-1,-1,-1,-1],"split_conditions":[8.434E1,1.2E0,1.2513E2,6E0,2.33E2,1.0568E2,3.1502E2,3.179E1,-2.973E1,6E0,6E0,9.494E1,6E0,1.5757E2,2.3064E2,-1.157E1,2E0,8.247529E-3,3.056924E4,5.021E1,6E0,4E0,1E1,2E0,1.2661E2,4E0,6E0,6E0,2E0,1.6209E2,4.635341E-2,-5.959041E0,-3.8203201E0,-7.183005E-2,-2.9665315E0,-6.324097E0,-3.18319E0,1.9028588E-1,-1.4093894E0,-1.373702E0,-5.878827E-1,-9.305682E-1,5.477049E-1,-1.5242413E0,-2.7954106E0,8.696181E-1,-2.2262113E-1,7.387392E-1,-2.7807292E-1,2.0261614E-1,8.0972785E-1,8.839242E-1,3.0897194E-1,5.6800254E-2,1.8452971E0,1.4928437E0,2.7057457E0,3.636627E0,2.2296293E0,4.839813E0,1.0354847E1,2.6846724E1,6.128019E0],"split_indices":[0,0,0,3,16,0,0,9,0,3,3,9,3,0,9,0,4,17,11,0,1,3,1,4,9,3,1,3,3,9,12,0,0,0,0,0,0,0,0,0,0,0,0,0,0,0,0,0,0,0,0,0,0,0,0,0,0,0,0,0,0,0,0],"split_type":[0,0,0,0,0,0,0,0,0,0,0,0,0,0,0,0,0,0,0,0,0,0,0,0,0,0,0,0,0,0,0,0,0,0,0,0,0,0,0,0,0,0,0,0,0,0,0,0,0,0,0,0,0,0,0,0,0,0,0,0,0,0,0],"sum_hessian":[6.9496E4,2.6036E4,4.346E4,5.702E3,2.0334E4,3.0954E4,1.2506E4,3.816E3,1.886E3,1.3382E4,6.952E3,1.9012E4,1.1942E4,1.2226E4,2.8E2,1.982E3,1.834E3,2.41E2,1.645E3,1.0815E4,2.567E3,6.256E3,6.96E2,1.019E4,8.822E3,1.0522E4,1.42E3,8.43E3,3.796E3,2.29E2,5.1E1,4.1E2,1.572E3,1.32E2,1.702E3,2.8E1,2.13E2,1.61E2,1.484E3,2.67E3,8.145E3,9.79E2,1.588E3,4.268E3,1.988E3,1.93E2,5.03E2,7.56E2,9.434E3,7.053E3,1.769E3,7.074E3,3.448E3,2.64E2,1.156E3,7.693E3,7.37E2,1.634E3,2.162E3,1.57E2,7.2E1,2.8E1,2.3E1],"tree_param":{"num_deleted":"0","num_feature":"20","num_nodes":"63","size_leaf_vector":"1"}},{"base_weights":[2.6825867E-3,-2.1385048E1,2.0427786E1,-1.1576635E1,-4.583324E1,1.2121037E1,4.835227E1,-7.376131E0,-2.7041996E1,-2.93425E1,-5.754747E1,6.494938E0,2.2245281E1,4.4160686E1,1.6557431E2,-1.19283495E1,8.4805295E-2,-3.4009563E1,-1.5482268E1,-9.085302E0,-3.4211143E1,-6.907028E1,-4.496521E1,3.4935155E0,1.3288506E1,2.0196274E1,3.8163486E1,5.7219566E1,3.5903107E1,1.2568038E2,3.3884415E2,-7.5583494E-1,1.6764892E-2,-1.5700367E-1,4.8011923E-1,-1.9727043E0,-1.4548726E-1,-4.970564E-1,-1.5359968E0,-8.3682054E-1,8.9168644E-1,-2.023066E0,-8.6711186E-1,-4.009456E0,-2.0500011E0,-2.3946238E0,-1.0733155E0,5.8353704E-1,8.551382E-3,5.70582E-1,1.8321825E0,1.2170177E0,5.673439E-1,3.3929354E-1,2.2675877E0,2.4385362E0,5.2133594E0,1.6517432E0,3.687638E0,4.5993543E0,9.844197E0,2.4908922E1,4.946281E0],"categories":[],"categories_nodes":[],"categories_segments":[],"categories_sizes":[],"default_left":[0,0,0,0,0,0,0,0,0,0,0,0,0,0,0,0,0,0,0,0,0,0,0,0,0,0,0,0,0,0,0,0,0,0,0,0,0,0,0,0,0,0,0,0,0,0,0,0,0,0,0,0,0,0,0,0,0,0,0,0,0,0,0],"id":6,"left_children":[1,3,5,7,9,11,13,15,17,19,21,23,25,27,29,31,33,35,37,39,41,43,45,47,49,51,53,55,57,59,61,-1,-1,-1,-1,-1,-1,-1,-1,-1,-1,-1,-1,-1,-1,-1,-1,-1,-1,-1,-1,-1,-1,-1,-1,-1,-1,-1,-1,-1,-1,-1,-1],"loss_changes":[3.0359966E7,8.140369E6,8.245421E6,1.5738375E6,1.875986E6,1.5605598E6,3.997156E6,6.472154E5,4.1628425E5,3.98036E5,8.20688E5,3.591095E5,3.18447E5,8.46606E5,1.899802E6,4.62763E5,2.2169528E5,5.4646225E5,1.6417216E5,1.617714E5,3.4259E5,9.21802E5,1.86005E5,3.3194556E5,2.361565E5,3.177855E5,2.5118112E5,1.206091E6,5.212665E5,5.3367825E5,1.938534E6,0E0,0E0,0E0,0E0,0E0,0E0,0E0,0E0,0E0,0E0,0E0,0E0,0E0,0E0,0E0,0E0,0E0,0E0,0E0,0E0,0E0,0E0,0E0,0E0,0E0,0E0,0E0,0E0,0E0,0E0,0E0,0E0],"parents":[2147483647,0,0,1,1,2,2,3,3,4,4,5,5,6,6,7,7,8,8,9,9,10,10,11,11,12,12,13,13,14,14,15,15,16,16,17,17,18,18,19,19,20,20,21,21,22,22,23,23,24,24,25,25,26,26,27,27,28,28,29,29,30,30],"right_children":[2,4,6,8,10,12,14,16,18,20,22,24,26,28,30,32,34,36,38,40,42,44,46,48,50,52,54,56,58,60,62,-1,-1,-1,-1,-1,-1,-1,-1,-1,-1,-1,-1,-1,-1,-1,-1,-1,-1,-1,-1,-1,-1,-1,-1,-1,-1,-1,-1,-1,-1,-1,-1],"split_conditions":[9.277E1,7.4495727E-1,1.37E2,2.74E2,1E0,1.1483E2,3.1502E2,9.21E1,7.591E1,4E0,0E0,1.8E1,6E0,2E0,2.3064E2,6E0,1.2136E2,6E0,4E0,1.0528E2,6E0,6E0,6E0,4.202E0,1.38E2,4E0,6E0,1.1E1,6E0,1.6209E2,5.0876364E-2,-7.5583494E-1,1.6764892E-2,-1.5700367E-1,4.8011923E-1,-1.9727043E0,-1.4548726E-1,-4.970564E-1,-1.5359968E0,-8.3682054E-1,8.9168644E-1,-2.023066E0,-8.6711186E-1,-4.009456E0,-2.0500011E0,-2.3946238E0,-1.0733155E0,5.8353704E-1,8.551382E-3,5.70582E-1,1.8321825E0,1.2170177E0,5.673439E-1,3.3929354E-1,2.2675877E0,2.4385362E0,5.2133594E0,1.6517432E0,3.687638E0,4.5993543E0,9.844197E0,2.4908922E1,4.946281E0],"split_indices":[0,12,0,16,19,0,0,9,0,4,0,1,3,3,9,3,9,3,3,9,3,3,3,14,8,3,1,4,3,9,12,0,0,0,0,0,0,0,0,0,0,0,0,0,0,0,0,0,0,0,0,0,0,0,0,0,0,0,0,0,0,0,0],"split_type":[0,0,0,0,0,0,0,0,0,0,0,0,0,0,0,0,0,0,0,0,0,0,0,0,0,0,0,0,0,0,0,0,0,0,0,0,0,0,0,0,0,0,0,0,0,0,0,0,0,0,0,0,0,0,0,0,0,0,0,0,0,0,0],"sum_hessian":[6.9496E4,3.3948E4,3.5548E4,2.4229E4,9.719E3,2.7399E4,8.149E3,1.9055E4,5.174E3,4.038E3,5.681E3,1.7613E4,9.786E3,7.869E3,2.8E2,1.1834E4,7.221E3,3.227E3,1.947E3,7.83E2,3.255E3,2.963E3,2.718E3,1.2217E4,5.396E3,8.672E3,1.114E3,3.046E3,4.823E3,2.29E2,5.1E1,9.392E3,2.442E3,5.394E3,1.827E3,2.746E3,4.81E2,1.429E3,5.18E2,6.1E2,1.73E2,2.374E3,8.81E2,2.121E3,8.42E2,2.416E3,3.02E2,3.529E3,8.688E3,4.996E3,4E2,5.905E3,2.767E3,2.08E2,9.06E2,2.584E3,4.62E2,4.485E3,3.38E2,1.57E2,7.2E1,3E1,2.1E1],"tree_param":{"num_deleted":"0","num_feature":"20","num_nodes":"63","size_leaf_vector":"1"}},{"base_weights":[3.236032E-3,-2.8475258E1,1.3917665E1,-1.6865143E1,-4.6146595E1,4.331005E0,3.726948E1,-2.7384981E1,-1.1526797E1,-6.4036385E1,-3.5575108E1,-1.4032434E0,1.1785904E1,3.472899E1,1.5745325E2,-3.6955826E1,-7.886902E0,-1.4157173E1,4.851189E-1,-7.47188E1,-3.777503E1,-3.862834E1,-4.031186E0,-3.1788328E0,1.2649875E1,7.184182E0,1.6704844E1,2.795378E1,5.169266E1,1.1945916E2,3.2247607E2,-1.2144431E0,-2.5120895E0,-1.5119542E0,-1.3619971E-2,-5.115637E-1,-1.1990453E0,-1.1314331E0,7.210282E-1,-5.547027E0,-3.475797E0,-3.9206135E0,-1.567974E0,-2.0518663E0,-7.0147717E-1,-1.3058122E0,-2.0026946E-2,-2.4303456E-1,3.4699687E-1,5.5335134E-1,2.5973833E0,9.050933E-1,1.8396991E-1,7.080432E-1,1.5679272E0,1.2996559E0,2.3614461E0,3.3133678E0,2.0325916E0,4.370842E0,9.35873E0,2.4348175E1,5.514198E0],"categories":[],"categories_nodes":[],"categories_segments":[],"categories_sizes":[],"default_left":[0,0,0,0,0,0,0,0,0,0,0,0,0,0,0,0,0,0,0,0,0,0,0,0,0,0,0,0,0,0,0,0,0,0,0,0,0,0,0,0,0,0,0,0,0,0,0,0,0,0,0,0,0,0,0,0,0,0,0,0,0,0,0],"id":7,"left_children":[1,3,5,7,9,11,13,15,17,19,21,23,25,27,29,31,33,35,37,39,41,43,45,47,49,51,53,55,57,59,61,-1,-1,-1,-1,-1,-1,-1,-1,-1,-1,-1,-1,-1,-1,-1,-1,-1,-1,-1,-1,-1,-1,-1,-1,-1,-1,-1,-1,-1,-1,-1,-1],"loss_changes":[2.7539414E7,4.679268E6,1.0451468E7,7.728755E5,1.70814E6,1.4149835E6,4.143304E6,8.6447325E5,2.8863512E5,9.39214E5,5.47565E5,4.6690272E5,3.2562862E5,1.528076E6,1.7233175E6,5.21834E5,2.5988828E5,2.887755E5,5.292158E5,4.41945E5,2.51212E5,3.06677E5,4.0321617E4,2.827423E5,1.29988E5,2.8450362E5,2.5882938E5,3.582495E5,6.08308E5,4.8268275E5,1.7612475E6,0E0,0E0,0E0,0E0,0E0,0E0,0E0,0E0,0E0,0E0,0E0,0E0,0E0,0E0,0E0,0E0,0E0,0E0,0E0,0E0,0E0,0E0,0E0,0E0,0E0,0E0,0E0,0E0,0E0,0E0,0E0,0E0],"parents":[2147483647,0,0,1,1,2,2,3,3,4,4,5,5,6,6,7,7,8,8,9,9,10,10,11,11,12,12,13,13,14,14,15,15,16,16,17,17,18,18,19,19,20,20,21,21,22,22,23,23,24,24,25,25,26,26,27,27,28,28,29,29,30,30],"right_children":[2,4,6,8,10,12,14,16,18,20,22,24,26,28,30,32,34,36,38,40,42,44,46,48,50,52,54,56,58,60,62,-1,-1,-1,-1,-1,-1,-1,-1,-1,-1,-1,-1,-1,-1,-1,-1,-1,-1,-1,-1,-1,-1,-1,-1,-1,-1,-1,-1,-1,-1,-1,-1],"split_conditions":[8.016E1,1E0,1.23E2,3.174E1,1E-2,1.0127E2,3.1502E2,6E0,6E0,6E0,1.1E1,1.2036E2,1.4E1,1.5757E2,2.3064E2,4E0,-1E-1,1.9639363E-3,6E0,-2.973E1,-5.195E1,6E0,3.174E1,6E0,2.6376E2,2.552E0,6E0,6E0,2E0,1.6209E2,4.635341E-2,-1.2144431E0,-2.5120895E0,-1.5119542E0,-1.3619971E-2,-5.115637E-1,-1.1990453E0,-1.1314331E0,7.210282E-1,-5.547027E0,-3.475797E0,-3.9206135E0,-1.567974E0,-2.0518663E0,-7.0147717E-1,-1.3058122E0,-2.0026946E-2,-2.4303456E-1,3.4699687E-1,5.5335134E-1,2.5973833E0,9.050933E-1,1.8396991E-1,7.080432E-1,1.5679272E0,1.2996559E0,2.3614461E0,3.3133678E0,2.0325916E0,4.370842E0,9.35873E0,2.4348175E1,5.514198E0],"split_indices":[0,19,0,0,0,0,0,3,3,3,4,9,1,0,9,3,0,17,1,0,0,3,0,3,9,14,3,3,3,9,12,0,0,0,0,0,0,0,0,0,0,0,0,0,0,0,0,0,0,0,0,0,0,0,0,0,0,0,0,0,0,0,0],"split_type":[0,0,0,0,0,0,0,0,0,0,0,0,0,0,0,0,0,0,0,0,0,0,0,0,0,0,0,0,0,0,0,0,0,0,0,0,0,0,0,0,0,0,0,0,0,0,0,0,0,0,0,0,0,0,0,0,0,0,0,0,0,0,0],"sum_hessian":[6.9496E4,2.281E4,4.6686E4,1.3767E4,9.043E3,3.3099E4,1.3587E4,4.633E3,9.134E3,3.357E3,5.686E3,1.8709E4,1.439E4,1.3307E4,2.8E2,3.107E3,1.526E3,7.493E3,1.641E3,2.385E3,9.72E2,5.184E3,5.02E2,1.6611E4,2.098E3,7.436E3,6.954E3,9.511E3,3.796E3,2.29E2,5.1E1,1.592E3,1.515E3,3.87E2,1.139E3,5.355E3,2.138E3,6.17E2,1.024E3,2.97E2,2.088E3,1.31E2,8.41E2,4.721E3,4.63E2,7E1,4.32E2,1.4244E4,2.367E3,2.018E3,8E1,1.806E3,5.63E3,5.927E3,1.027E3,8.635E3,8.76E2,1.634E3,2.162E3,1.57E2,7.2E1,2.8E1,2.3E1],"tree_param":{"num_deleted":"0","num_feature":"20","num_nodes":"63","size_leaf_vector":"1"}},{"base_weights":[3.5525742E-3,-2.1625708E1,1.6568014E1,-4.1116108E1,-1.1863902E1,8.711866E0,4.1199593E1,-5.007931E1,-1.804736E1,-6.4666142E0,-2.2004555E1,2.688763E0,1.6485703E1,3.789334E1,1.4973572E2,-2.707254E1,-5.9424187E1,-3.591276E1,-5.547931E0,-8.769346E0,5.171226E0,-2.495099E1,9.694286E0,-2.962716E0,5.94631E0,1.4658103E1,3.0250172E1,3.2815052E1,5.7486286E1,1.1354589E2,3.0692654E2,-9.192814E-1,-2.6835542E0,-4.5652785E0,-2.7512279E0,-3.1555605E0,-1.4351841E0,-1.3606704E0,-1.0897912E-1,-2.2395623E-1,-6.469085E-1,-9.106995E-2,6.6255426E-1,-9.126344E-1,-2.0232637E0,1.6382567E0,1.7999253E-1,-8.5514285E-2,-1.3817238E0,1.962309E-1,9.092423E-1,9.237283E-1,3.2688907E-1,1.1418809E0,2.9451914E0,1.5556443E0,2.912876E0,3.84039E0,1.974889E0,4.1536827E0,8.897203E0,2.4197674E1,6.254428E0],"categories":[],"categories_nodes":[],"categories_segments":[],"categories_sizes":[],"default_left":[0,0,0,0,0,0,0,0,0,0,0,0,0,0,0,0,0,0,0,0,0,0,0,0,0,0,0,0,0,0,0,0,0,0,0,0,0,0,0,0,0,0,0,0,0,0,0,0,0,0,0,0,0,0,0,0,0,0,0,0,0,0,0],"id":8,"left_children":[1,3,5,7,9,11,13,15,17,19,21,23,25,27,29,31,33,35,37,39,41,43,45,47,49,51,53,55,57,59,61,-1,-1,-1,-1,-1,-1,-1,-1,-1,-1,-1,-1,-1,-1,-1,-1,-1,-1,-1,-1,-1,-1,-1,-1,-1,-1,-1,-1,-1,-1,-1,-1],"loss_changes":[2.489954E7,5.734182E6,7.615587E6,2.07879E6,1.0990958E6,1.3971895E6,3.409478E6,1.555604E6,6.286341E5,3.5135112E5,6.517905E5,3.095811E5,3.272635E5,9.17183E5,1.563677E6,4.8285125E5,7.17346E5,2.2544025E5,1.2093636E5,1.9567744E5,1.2240188E5,6.6257875E5,8.34007E4,1.8995472E5,2.638574E5,3.5633675E5,3.227725E5,3.15977E5,6.573395E5,4.365595E5,1.6133545E6,0E0,0E0,0E0,0E0,0E0,0E0,0E0,0E0,0E0,0E0,0E0,0E0,0E0,0E0,0E0,0E0,0E0,0E0,0E0,0E0,0E0,0E0,0E0,0E0,0E0,0E0,0E0,0E0,0E0,0E0,0E0,0E0],"parents":[2147483647,0,0,1,1,2,2,3,3,4,4,5,5,6,6,7,7,8,8,9,9,10,10,11,11,12,12,13,13,14,14,15,15,16,16,17,17,18,18,19,19,20,20,21,21,22,22,23,23,24,24,25,25,26,26,27,27,28,28,29,29,30,30],"right_children":[2,4,6,8,10,12,14,16,18,20,22,24,26,28,30,32,34,36,38,40,42,44,46,48,50,52,54,56,58,60,62,-1,-1,-1,-1,-1,-1,-1,-1,-1,-1,-1,-1,-1,-1,-1,-1,-1,-1,-1,-1,-1,-1,-1,-1,-1,-1,-1,-1,-1,-1,-1,-1],"split_conditions":[8.859E1,3.174E1,1.3289E2,6E0,1.38E2,1.0809E2,3.1502E2,2.5152448E-3,-1E-1,1.1078E2,6E0,9.041E1,6E0,1.8E2,2.3064E2,5E0,-1.157E1,-2.973E1,5E0,9E0,1.004E2,4E0,9E0,4.27E2,6E0,4E0,1.2968E2,6E0,2E0,1.6209E2,4.112423E-2,-9.192814E-1,-2.6835542E0,-4.5652785E0,-2.7512279E0,-3.1555605E0,-1.4351841E0,-1.3606704E0,-1.0897912E-1,-2.2395623E-1,-6.469085E-1,-9.106995E-2,6.6255426E-1,-9.126344E-1,-2.0232637E0,1.6382567E0,1.7999253E-1,-8.5514285E-2,-1.3817238E0,1.962309E-1,9.092423E-1,9.237283E-1,3.2688907E-1,1.1418809E0,2.9451914E0,1.5556443E0,2.912876E0,3.84039E0,1.974889E0,4.1536827E0,8.897203E0,2.4197674E1,6.254428E0],"split_indices":[0,0,0,3,16,0,0,17,0,9,3,8,3,0,9,3,0,0,1,4,8,3,1,16,3,3,8,3,3,9,12,0,0,0,0,0,0,0,0,0,0,0,0,0,0,0,0,0,0,0,0,0,0,0,0,0,0,0,0,0,0,0,0],"split_type":[0,0,0,0,0,0,0,0,0,0,0,0,0,0,0,0,0,0,0,0,0,0,0,0,0,0,0,0,0,0,0,0,0,0,0,0,0,0,0,0,0,0,0,0,0,0,0,0,0,0,0,0,0,0,0,0,0,0,0,0,0,0,0],"sum_hessian":[6.9496E4,3.014E4,3.9356E4,1.0057E4,2.0083E4,2.984E4,9.516E3,7.242E3,2.815E3,1.3108E4,6.975E3,1.6814E4,1.3026E4,9.236E3,2.8E2,2.093E3,5.149E3,1.158E3,1.657E3,1.0943E4,2.165E3,6.382E3,5.93E2,6.148E3,1.0666E4,1.1501E4,1.525E3,7.337E3,1.899E3,2.29E2,5.1E1,1.579E3,5.14E2,6.22E2,4.527E3,2.41E2,9.17E2,2.22E2,1.435E3,5.394E3,5.549E3,1.161E3,1.004E3,4.459E3,1.923E3,1.23E2,4.7E2,5.852E3,2.96E2,9.155E3,1.511E3,7.823E3,3.678E3,1.213E3,3.12E2,6.879E3,4.58E2,9.14E2,9.85E2,1.57E2,7.2E1,2.5E1,2.6E1],"tree_param":{"num_deleted":"0","num_feature":"20","num_nodes":"63","size_leaf_vector":"1"}},{"base_weights":[3.9567025E-3,-2.5783657E1,1.2603637E1,-1.5160173E1,-4.195331E1,3.939092E0,3.3709305E1,-1.1657911E1,-2.8385008E1,-5.8177757E1,-3.236589E1,-1.2049712E0,1.0626708E1,3.1411676E1,1.4240373E2,-2.153332E0,-1.5359995E1,-3.4575615E1,-4.277475E0,-6.787877E1,-3.432905E1,-3.5188404E1,-3.2066798E0,-2.861511E0,1.1905866E1,6.306362E0,1.5244937E1,2.5235832E1,4.6874733E1,1.0792534E2,2.9216583E2,-2.5809617E0,-4.2806163E-2,-6.537184E-1,-1.5906192E0,-2.4490223E0,-1.0977454E0,-7.281211E-2,-3.042582E0,-5.043424E0,-3.1570115E0,-3.5694852E0,-1.4239146E0,-3.3579752E-1,-1.8505005E0,-1.1789176E0,7.0557804E-3,-2.1985169E-1,3.1884125E-1,5.2015203E-1,2.4609087E0,8.312526E-1,1.4969765E-1,6.22295E-1,1.3444499E0,1.1738061E0,2.1267638E0,3.0062048E0,1.841897E0,3.947313E0,8.458438E0,2.1560118E1,4.148525E0],"categories":[],"categories_nodes":[],"categories_segments":[],"categories_sizes":[],"default_left":[0,0,0,0,0,0,0,0,0,0,0,0,0,0,0,0,0,0,0,0,0,0,0,0,0,0,0,0,0,0,0,0,0,0,0,0,0,0,0,0,0,0,0,0,0,0,0,0,0,0,0,0,0,0,0,0,0,0,0,0,0,0,0],"id":9,"left_children":[1,3,5,7,9,11,13,15,17,19,21,23,25,27,29,31,33,35,37,39,41,43,45,47,49,51,53,55,57,59,61,-1,-1,-1,-1,-1,-1,-1,-1,-1,-1,-1,-1,-1,-1,-1,-1,-1,-1,-1,-1,-1,-1,-1,-1,-1,-1,-1,-1,-1,-1,-1,-1],"loss_changes":[2.258099E7,3.917792E6,8.537566E6,6.37359E5,1.404917E6,1.138703E6,3.388989E6,3.83045E5,4.299625E5,7.74564E5,4.679395E5,4.063895E5,2.8703812E5,1.269697E6,1.4194275E6,1.9585948E5,2.9421138E5,4.1579025E5,9.408063E4,3.66619E5,2.0894538E5,2.68675E5,3.4308023E4,2.3568044E5,1.1718697E5,2.5414481E5,2.2634362E5,2.885655E5,5.02715E5,3.948435E5,1.4766845E6,0E0,0E0,0E0,0E0,0E0,0E0,0E0,0E0,0E0,0E0,0E0,0E0,0E0,0E0,0E0,0E0,0E0,0E0,0E0,0E0,0E0,0E0,0E0,0E0,0E0,0E0,0E0,0E0,0E0,0E0,0E0,0E0],"parents":[2147483647,0,0,1,1,2,2,3,3,4,4,5,5,6,6,7,7,8,8,9,9,10,10,11,11,12,12,13,13,14,14,15,15,16,16,17,17,18,18,19,19,20,20,21,21,22,22,23,23,24,24,25,25,26,26,27,27,28,28,29,29,30,30],"right_children":[2,4,6,8,10,12,14,16,18,20,22,24,26,28,30,32,34,36,38,40,42,44,46,48,50,52,54,56,58,60,62,-1,-1,-1,-1,-1,-1,-1,-1,-1,-1,-1,-1,-1,-1,-1,-1,-1,-1,-1,-1,-1,-1,-1,-1,-1,-1,-1,-1,-1,-1,-1,-1],"split_conditions":[8.016E1,1E0,1.23E2,3.07E2,1E-2,1.0127E2,3.1502E2,6E0,6E0,6E0,1.1E1,1.2036E2,1.4E1,1.5757E2,2.3064E2,-6E-2,8.1465524E-1,3.681E1,3.1452E1,-2.973E1,-5.195E1,3E0,3.174E1,6E0,2.6376E2,2.552E0,1.3047E2,6E0,2E0,1.6209E2,5.0876364E-2,-2.5809617E0,-4.2806163E-2,-6.537184E-1,-1.5906192E0,-2.4490223E0,-1.0977454E0,-7.281211E-2,-3.042582E0,-5.043424E0,-3.1570115E0,-3.5694852E0,-1.4239146E0,-3.3579752E-1,-1.8505005E0,-1.1789176E0,7.0557804E-3,-2.1985169E-1,3.1884125E-1,5.2015203E-1,2.4609087E0,8.312526E-1,1.4969765E-1,6.22295E-1,1.3444499E0,1.1738061E0,2.1267638E0,3.0062048E0,1.841897E0,3.947313E0,8.458438E0,2.1560118E1,4.148525E0],"split_indices":[0,19,0,16,0,0,0,4,3,3,4,9,1,0,9,0,12,0,14,0,0,4,0,3,9,14,9,3,3,9,12,0,0,0,0,0,0,0,0,0,0,0,0,0,0,0,0,0,0,0,0,0,0,0,0,0,0,0,0,0,0,0,0],"split_type":[0,0,0,0,0,0,0,0,0,0,0,0,0,0,0,0,0,0,0,0,0,0,0,0,0,0,0,0,0,0,0,0,0,0,0,0,0,0,0,0,0,0,0,0,0,0,0,0,0,0,0,0,0,0,0,0,0,0,0,0,0,0,0],"sum_hessian":[6.9496E4,2.281E4,4.6686E4,1.3767E4,9.043E3,3.3099E4,1.3587E4,1.0886E4,2.881E3,3.357E3,5.686E3,1.8709E4,1.439E4,1.3307E4,2.8E2,3.052E3,7.834E3,2.292E3,5.89E2,2.385E3,9.72E2,5.184E3,5.02E2,1.6611E4,2.098E3,7.436E3,6.954E3,9.511E3,3.796E3,2.29E2,5.1E1,7.7E1,2.975E3,6.88E3,9.54E2,1.069E3,1.223E3,5.62E2,2.7E1,2.97E2,2.088E3,1.31E2,8.41E2,3.12E2,4.872E3,7E1,4.32E2,1.4244E4,2.367E3,2.018E3,8E1,1.806E3,5.63E3,5.608E3,1.346E3,8.635E3,8.76E2,1.634E3,2.162E3,1.57E2,7.2E1,3E1,2.1E1],"tree_param":{"num_deleted":"0","num_feature":"20","num_nodes":"63","size_leaf_vector":"1"}},{"base_weights":[4.107328E-3,-2.2484838E1,1.3063921E1,-1.2969467E1,-3.8460915E1,5.9954147E0,3.609109E1,-2.3382328E1,-8.7244215E0,-5.217584E1,-2.6811068E1,7.3355025E-1,1.3765551E1,3.330916E1,1.3541919E2,-3.1830774E1,-6.171357E0,-1.0970354E1,2.0241668E0,-6.0322067E1,-2.9512564E1,-3.0026094E1,-2.8962138E0,-3.4241216E0,5.529412E0,1.2223442E1,2.5177795E1,2.8896181E1,5.221401E1,1.0258301E2,2.7805194E2,-1.0178035E0,-2.1933649E0,-1.3984615E0,2.3968942E-2,-3.9591888E-1,-9.7516644E-1,-8.969302E-1,7.4732214E-1,-4.228889E0,-2.741085E0,-3.392363E0,-1.228075E0,-1.5036772E-1,-1.622432E0,-1.7238892E0,-4.6038356E-2,6.760873E-1,-2.3952448E-1,1.7453328E-1,6.854976E-1,7.8869E-1,2.4261534E-1,-1.1668938E-1,1.5815939E0,1.3596939E0,2.646077E0,3.498434E0,1.784243E0,3.7511964E0,8.041309E0,2.199778E1,5.5923266E0],"categories":[],"categories_nodes":[],"categories_segments":[],"categories_sizes":[],"default_left":[0,0,0,0,0,0,0,0,0,0,0,0,0,0,0,0,0,0,0,0,0,0,0,0,0,0,0,0,0,0,0,0,0,0,0,0,0,0,0,0,0,0,0,0,0,0,0,0,0,0,0,0,0,0,0,0,0,0,0,0,0,0,0],"id":10,"left_children":[1,3,5,7,9,11,13,15,17,19,21,23,25,27,29,31,33,35,37,39,41,43,45,47,49,51,53,55,57,59,61,-1,-1,-1,-1,-1,-1,-1,-1,-1,-1,-1,-1,-1,-1,-1,-1,-1,-1,-1,-1,-1,-1,-1,-1,-1,-1,-1,-1,-1,-1,-1,-1],"loss_changes":[2.0411662E7,3.880833E6,7.156027E6,7.071775E5,1.521273E6,1.3754158E6,2.848812E6,6.73615E5,2.7450094E5,8.06118E5,3.96265E5,3.9998778E5,2.3873825E5,8.36596E5,1.2875445E6,4.2837E5,2.2138547E5,2.4477475E5,5.074262E5,4.24693E5,2.1830888E5,2.973255E5,3.8149527E4,2.4885762E5,1.5530819E5,3.1312788E5,2.8701388E5,3.317605E5,5.55095E5,3.57114E5,1.3500738E6,0E0,0E0,0E0,0E0,0E0,0E0,0E0,0E0,0E0,0E0,0E0,0E0,0E0,0E0,0E0,0E0,0E0,0E0,0E0,0E0,0E0,0E0,0E0,0E0,0E0,0E0,0E0,0E0,0E0,0E0,0E0,0E0],"parents":[2147483647,0,0,1,1,2,2,3,3,4,4,5,5,6,6,7,7,8,8,9,9,10,10,11,11,12,12,13,13,14,14,15,15,16,16,17,17,18,18,19,19,20,20,21,21,22,22,23,23,24,24,25,25,26,26,27,27,28,28,29,29,30,30],"right_children":[2,4,6,8,10,12,14,16,18,20,22,24,26,28,30,32,34,36,38,40,42,44,46,48,50,52,54,56,58,60,62,-1,-1,-1,-1,-1,-1,-1,-1,-1,-1,-1,-1,-1,-1,-1,-1,-1,-1,-1,-1,-1,-1,-1,-1,-1,-1,-1,-1,-1,-1,-1,-1],"split_conditions":[8.379E1,1E0,1.3021E2,3.174E1,9E0,1.0636E2,3.1502E2,6E0,6E0,6E0,1.1E1,9.494E1,6E0,1.8E2,2.3064E2,4E0,6E0,1.9639363E-3,6E0,-1.157E1,-5.195E1,3E0,1.316711E4,2E0,1.2661E2,4E0,6E0,6E0,2E0,1.6209E2,4.112423E-2,-1.0178035E0,-2.1933649E0,-1.3984615E0,2.3968942E-2,-3.9591888E-1,-9.7516644E-1,-8.969302E-1,7.4732214E-1,-4.228889E0,-2.741085E0,-3.392363E0,-1.228075E0,-1.5036772E-1,-1.622432E0,-1.7238892E0,-4.6038356E-2,6.760873E-1,-2.3952448E-1,1.7453328E-1,6.854976E-1,7.8869E-1,2.4261534E-1,-1.1668938E-1,1.5815939E0,1.3596939E0,2.646077E0,3.498434E0,1.784243E0,3.7511964E0,8.041309E0,2.199778E1,5.5923266E0],"split_indices":[0,19,0,0,0,0,0,3,3,3,4,9,3,0,9,3,1,17,1,0,0,4,13,4,9,3,1,3,3,9,12,0,0,0,0,0,0,0,0,0,0,0,0,0,0,0,0,0,0,0,0,0,0,0,0,0,0,0,0,0,0,0,0],"split_type":[0,0,0,0,0,0,0,0,0,0,0,0,0,0,0,0,0,0,0,0,0,0,0,0,0,0,0,0,0,0,0,0,0,0,0,0,0,0,0,0,0,0,0,0,0,0,0,0,0,0,0,0,0,0,0,0,0,0,0,0,0,0,0],"sum_hessian":[6.9496E4,2.5531E4,4.3965E4,1.6002E4,9.529E3,3.364E4,1.0325E4,4.633E3,1.1369E4,4.375E3,5.154E3,2.0058E4,1.3582E4,1.0045E4,2.8E2,3.107E3,1.526E3,9.404E3,1.965E3,3.217E3,1.158E3,4.543E3,6.11E2,1.0744E4,9.314E3,1.1967E4,1.615E3,8.146E3,1.899E3,2.29E2,5.1E1,1.592E3,1.515E3,3.56E2,1.17E3,6.928E3,2.476E3,7.72E2,1.193E3,5.92E2,2.625E3,1.31E2,1.027E3,3.74E2,4.169E3,3.5E1,5.76E2,8.01E2,9.943E3,7.457E3,1.857E3,8.076E3,3.891E3,3.07E2,1.308E3,7.609E3,5.37E2,9.14E2,9.85E2,1.57E2,7.2E1,2.5E1,2.6E1],"tree_param":{"num_deleted":"0","num_feature":"20","num_nodes":"63","size_leaf_vector":"1"}},{"base_weights":[4.3515344E-3,-2.3953527E1,1.1095935E1,-1.4190438E1,-3.828757E1,3.324825E0,3.0493153E1,-1.7824352E1,-2.481141E0,-5.2623756E1,-2.9611322E1,-1.2780285E0,9.570478E0,2.8415344E1,1.2878839E2,-3.0240267E1,-1.2211313E1,-2.3070158E1,6.489575E0,-6.1379185E1,-3.1099527E1,-3.2048523E1,-3.4286456E0,-3.2205474E0,8.387999E0,5.538723E0,1.388027E1,2.1279905E1,3.9685715E1,9.7505135E1,2.6467993E2,-1.1185654E0,-2.318681E0,-4.4569668E-1,-1.0196325E0,-6.568867E-1,-2.7877712E0,-1.1121886E0,5.4168123E-1,-4.0811715E0,-2.7050512E0,-3.22403E0,-1.2914728E0,-1.3475744E0,-2.0700881E0,8.6566776E-2,-8.405401E-1,-3.5910717E-1,6.413625E-3,3.711243E-1,2.314256E0,7.712415E-1,1.2286905E-1,5.622858E-1,1.2420214E0,1.0263275E0,2.5337312E0,2.5868478E0,1.5679805E0,5.600439E0,-1.4597319E-1,1.8856276E1,2.4765491E0],"categories":[],"categories_nodes":[],"categories_segments":[],"categories_sizes":[],"default_left":[0,0,0,0,0,0,0,0,0,0,0,0,0,0,0,0,0,0,0,0,0,0,0,0,0,0,0,0,0,0,0,0,0,0,0,0,0,0,0,0,0,0,0,0,0,0,0,0,0,0,0,0,0,0,0,0,0,0,0,0,0,0,0],"id":11,"left_children":[1,3,5,7,9,11,13,15,17,19,21,23,25,27,29,31,33,35,37,39,41,43,45,47,49,51,53,55,57,59,61,-1,-1,-1,-1,-1,-1,-1,-1,-1,-1,-1,-1,-1,-1,-1,-1,-1,-1,-1,-1,-1,-1,-1,-1,-1,-1,-1,-1,-1,-1,-1,-1],"loss_changes":[1.8467758E7,3.077258E6,7.160702E6,5.5668775E5,1.106706E6,9.750811E5,2.771534E6,6.954955E5,5.727142E5,6.30919E5,3.542405E5,3.666933E5,2.499815E5,1.069372E6,1.16876E6,3.9353125E5,1.8536575E5,3.0475744E5,2.698502E5,3.47139E5,1.6950525E5,2.41067E5,3.2759598E4,2.1573025E5,1.1923306E5,2.2651152E5,2.0054738E5,1.7946075E5,5.15931E5,3.3532725E5,1.2393328E6,0E0,0E0,0E0,0E0,0E0,0E0,0E0,0E0,0E0,0E0,0E0,0E0,0E0,0E0,0E0,0E0,0E0,0E0,0E0,0E0,0E0,0E0,0E0,0E0,0E0,0E0,0E0,0E0,0E0,0E0,0E0,0E0],"parents":[2147483647,0,0,1,1,2,2,3,3,4,4,5,5,6,6,7,7,8,8,9,9,10,10,11,11,12,12,13,13,14,14,15,15,16,16,17,17,18,18,19,19,20,20,21,21,22,22,23,23,24,24,25,25,26,26,27,27,28,28,29,29,30,30],"right_children":[2,4,6,8,10,12,14,16,18,20,22,24,26,28,30,32,34,36,38,40,42,44,46,48,50,52,54,56,58,60,62,-1,-1,-1,-1,-1,-1,-1,-1,-1,-1,-1,-1,-1,-1,-1,-1,-1,-1,-1,-1,-1,-1,-1,-1,-1,-1,-1,-1,-1,-1,-1,-1],"split_conditions":[7.9E1,1E0,1.23E2,6E0,1E-2,1.0127E2,3.1502E2,3.174E1,6E0,6E0,1.1E1,1.1117E2,1.4E1,1.49E2,2.3064E2,5E0,1.9303581E-3,2.993429E4,-3.9E-1,-1E0,-5.195E1,4E0,7.091E1,8.765E1,2.6376E2,2.4520001E0,1.3047E2,2.1536E2,2E0,1.4752E1,3.32926E3,-1.1185654E0,-2.318681E0,-4.4569668E-1,-1.0196325E0,-6.568867E-1,-2.7877712E0,-1.1121886E0,5.4168123E-1,-4.0811715E0,-2.7050512E0,-3.22403E0,-1.2914728E0,-1.3475744E0,-2.0700881E0,8.6566776E-2,-8.405401E-1,-3.5910717E-1,6.413625E-3,3.711243E-1,2.314256E0,7.712415E-1,1.2286905E-1,5.622858E-1,1.2420214E0,1.0263275E0,2.5337312E0,2.5868478E0,1.5679805E0,5.600439E0,-1.4597319E-1,1.8856276E1,2.4765491E0],"split_indices":[0,19,0,3,0,0,0,0,1,3,4,9,1,0,9,3,17,11,0,9,0,3,7,8,9,14,9,9,3,14,11,0,0,0,0,0,0,0,0,0,0,0,0,0,0,0,0,0,0,0,0,0,0,0,0,0,0,0,0,0,0,0,0],"split_type":[0,0,0,0,0,0,0,0,0,0,0,0,0,0,0,0,0,0,0,0,0,0,0,0,0,0,0,0,0,0,0,0,0,0,0,0,0,0,0,0,0,0,0,0,0,0,0,0,0,0,0,0,0,0,0,0,0,0,0,0,0,0,0],"sum_hessian":[6.9496E4,2.1992E4,4.7504E4,1.3083E4,8.909E3,3.3917E4,1.3587E4,9.984E3,3.099E3,3.357E3,5.552E3,1.9527E4,1.439E4,1.3307E4,2.8E2,3.107E3,6.877E3,9.4E2,2.159E3,2.385E3,9.72E2,5.079E3,4.73E2,1.626E4,3.267E3,7.436E3,6.954E3,8.15E3,5.157E3,2.29E2,5.1E1,2.09E3,1.017E3,4.903E3,1.974E3,7.22E2,2.18E2,2.83E2,1.876E3,6.28E2,1.757E3,1.31E2,8.41E2,3.29E3,1.789E3,3.42E2,1.31E2,7.448E3,8.812E3,3.187E3,8E1,1.766E3,5.67E3,5.608E3,1.346E3,7.948E3,2.02E2,2.105E3,3.052E3,2E2,2.9E1,3.3E1,1.8E1],"tree_param":{"num_deleted":"0","num_feature":"20","num_nodes":"63","size_leaf_vector":"1"}},{"base_weights":[4.3511577E-3,-1.702379E1,1.4093503E1,-9.380012E0,-3.4137337E1,9.282108E0,4.1332005E1,-6.5359426E0,-2.2772293E1,-1.9720512E1,-4.153016E1,4.065668E0,1.7854263E1,3.7126095E1,1.22444305E2,-1.0178654E1,2.9807243E-2,-1.7195808E1,-3.4539936E1,-5.7867744E1,-1.6365105E1,-4.709291E1,-2.1582548E1,1.728188E0,1.0724984E1,1.2459031E1,2.2099552E1,4.8774364E1,2.9156498E1,6.738844E1,1.946885E2,-6.548387E-1,4.4147257E-2,-9.474414E-2,6.8253267E-1,-1.6353537E0,-5.9385085E-1,-2.3092048E0,-1.361593E-1,-5.821307E0,-2.732142E0,-6.593719E-2,-1.1286215E0,-3.8682294E0,-2.15025E0,-1.8630501E0,-5.799234E-1,7.6867884E-1,1.7423652E-2,3.2902023E-1,8.249456E-1,1.2316985E0,4.1115037E-1,9.865838E-1,1.956684E0,2.1449742E0,7.225818E0,1.8045872E0,6.5303534E-1,2.6950212E0,5.101466E0,2.6976793E0,1.3441333E1],"categories":[],"categories_nodes":[],"categories_segments":[],"categories_sizes":[],"default_left":[0,0,0,0,0,0,0,0,0,0,0,0,0,0,0,0,0,0,0,0,0,0,0,0,0,0,0,0,0,0,0,0,0,0,0,0,0,0,0,0,0,0,0,0,0,0,0,0,0,0,0,0,0,0,0,0,0,0,0,0,0,0,0],"id":12,"left_children":[1,3,5,7,9,11,13,15,17,19,21,23,25,27,29,31,33,35,37,39,41,43,45,47,49,51,53,55,57,59,61,-1,-1,-1,-1,-1,-1,-1,-1,-1,-1,-1,-1,-1,-1,-1,-1,-1,-1,-1,-1,-1,-1,-1,-1,-1,-1,-1,-1,-1,-1,-1,-1],"loss_changes":[1.6673409E7,4.115946E6,4.9837755E6,8.283919E5,1.034615E6,1.4452872E6,1.943086E6,4.291693E5,2.4942612E5,4.2081138E5,7.11481E5,3.1279622E5,2.7979825E5,5.025625E5,1.104548E6,3.725445E5,1.6791253E5,2.1304206E5,4.53341E5,4.3871E4,2.8296506E5,6.17888E5,2.1902988E5,2.8006134E5,1.24832625E5,2.7762306E5,2.7519775E5,1.233491E6,3.596415E5,6.972575E4,1.2479885E6,0E0,0E0,0E0,0E0,0E0,0E0,0E0,0E0,0E0,0E0,0E0,0E0,0E0,0E0,0E0,0E0,0E0,0E0,0E0,0E0,0E0,0E0,0E0,0E0,0E0,0E0,0E0,0E0,0E0,0E0,0E0,0E0],"parents":[2147483647,0,0,1,1,2,2,3,3,4,4,5,5,6,6,7,7,8,8,9,9,10,10,11,11,12,12,13,13,14,14,15,15,16,16,17,17,18,18,19,19,20,20,21,21,22,22,23,23,24,24,25,25,26,26,27,27,28,28,29,29,30,30],"right_children":[2,4,6,8,10,12,14,16,18,20,22,24,26,28,30,32,34,36,38,40,42,44,46,48,50,52,54,56,58,60,62,-1,-1,-1,-1,-1,-1,-1,-1,-1,-1,-1,-1,-1,-1,-1,-1,-1,-1,-1,-1,-1,-1,-1,-1,-1,-1,-1,-1,-1,-1,-1,-1],"split_conditions":[8.996E1,7.4495727E-1,1.477E2,3.43E2,4.2742044E-3,1.1483E2,3.1502E2,9.21E1,4E0,7E-2,6E0,1.1117E2,1.1762E2,2E0,1.7143E2,6E0,1.665754E1,5.201E1,6E0,-5.195E1,4E0,-1.157E1,-5E0,2E0,1.8E1,1E0,6E0,1.2E1,9E0,6.9899354E0,1.1E1,-6.548387E-1,4.4147257E-2,-9.474414E-2,6.8253267E-1,-1.6353537E0,-5.9385085E-1,-2.3092048E0,-1.361593E-1,-5.821307E0,-2.732142E0,-6.593719E-2,-1.1286215E0,-3.8682294E0,-2.15025E0,-1.8630501E0,-5.799234E-1,7.6867884E-1,1.7423652E-2,3.2902023E-1,8.249456E-1,1.2316985E0,4.1115037E-1,9.865838E-1,1.956684E0,2.1449742E0,7.225818E0,1.8045872E0,6.5303534E-1,2.6950212E0,5.101466E0,2.6976793E0,1.3441333E1],"split_indices":[0,12,0,16,17,0,0,9,3,9,3,9,8,3,9,3,15,0,3,7,4,0,0,4,1,3,3,4,4,15,4,0,0,0,0,0,0,0,0,0,0,0,0,0,0,0,0,0,0,0,0,0,0,0,0,0,0,0,0,0,0,0,0],"split_type":[0,0,0,0,0,0,0,0,0,0,0,0,0,0,0,0,0,0,0,0,0,0,0,0,0,0,0,0,0,0,0,0,0,0,0,0,0,0,0,0,0,0,0,0,0,0,0,0,0,0,0,0,0,0,0,0,0,0,0,0,0,0,0],"sum_hessian":[6.9496E4,3.1466E4,3.803E4,2.1752E4,9.714E3,3.2322E4,5.708E3,1.7943E4,3.809E3,3.294E3,6.42E3,2.0095E4,1.2227E4,5.428E3,2.8E2,1.154E4,6.403E3,2.586E3,1.223E3,2.65E2,3.029E3,5.019E3,1.401E3,1.4875E4,5.22E3,5.386E3,6.841E3,2.203E3,3.225E3,1.6E2,1.2E2,9.131E3,2.409E3,5.611E3,7.92E2,6.59E2,1.927E3,8.95E2,3.28E2,1.2E1,2.53E2,8.85E2,2.144E3,5.95E2,4.424E3,5.44E2,8.57E2,1.365E3,1.351E4,3.04E3,2.18E3,1.389E3,3.997E3,6.008E3,8.33E2,2.077E3,1.26E2,2.253E3,9.72E2,1.17E2,4.3E1,4.2E1,7.8E1],"tree_param":{"num_deleted":"0","num_feature":"20","num_nodes":"63","size_leaf_vector":"1"}},{"base_weights":[4.412195E-3,-2.1723566E1,1.0063636E1,-1.282438E1,-3.4789246E1,3.4401119E0,2.8597788E1,-1.616369E1,-2.0644324E0,-4.8974613E1,-2.7482077E1,-2.8273955E-1,1.0627111E1,2.657742E1,1.16407265E2,-9.843361E0,-2.556692E1,-2.1746023E1,6.5107718E0,-5.7040005E1,-2.947352E1,-3.0107271E1,-7.148624E0,-5.3777857E0,3.0759711E0,9.12472E0,2.1745373E1,2.2755358E1,4.4320263E1,7.523674E1,2.0437921E2,-6.308617E-1,2.8118256E-1,-7.779958E-1,-1.8467537E0,-6.240265E-1,-2.6117775E0,-9.965046E-1,5.2539724E-1,-3.8730474E0,-2.4764051E0,-1.8335246E0,9.090038E-2,-1.1619965E0,-2.2978165E0,-2.1832538E-1,-1.7270192E0,-1.6601071E-1,-7.609001E-1,7.048855E-2,7.5470173E-1,6.129097E-1,1.3471594E-1,9.5826787E-1,4.102264E0,1.3307835E0,7.6102287E-1,2.9051495E0,1.593242E0,2.4669738E0,5.127637E0,1.4679587E1,2.5714896E0],"categories":[],"categories_nodes":[],"categories_segments":[],"categories_sizes":[],"default_left":[0,0,0,0,0,0,0,0,0,0,0,0,0,0,0,0,0,0,0,0,0,0,0,0,0,0,0,0,0,0,0,0,0,0,0,0,0,0,0,0,0,0,0,0,0,0,0,0,0,0,0,0,0,0,0,0,0,0,0,0,0,0,0],"id":13,"left_children":[1,3,5,7,9,11,13,15,17,19,21,23,25,27,29,31,33,35,37,39,41,43,45,47,49,51,53,55,57,59,61,-1,-1,-1,-1,-1,-1,-1,-1,-1,-1,-1,-1,-1,-1,-1,-1,-1,-1,-1,-1,-1,-1,-1,-1,-1,-1,-1,-1,-1,-1,-1,-1],"loss_changes":[1.5189941E7,2.556766E6,5.8316825E6,4.7008525E5,9.22219E5,9.3644094E5,2.215742E6,5.9317175E5,5.233399E5,4.74575E5,3.138155E5,3.9458603E5,1.9929725E5,8.28157E5,1.002363E6,2.5633381E5,4.5594875E5,2.6518103E5,2.2849706E5,3.24593E5,2.0004794E5,5.659925E5,5.1212742E4,1.8543181E5,2.782592E5,2.1200012E5,2.1949912E5,2.92269E5,3.699855E5,1.3147025E5,1.1993058E6,0E0,0E0,0E0,0E0,0E0,0E0,0E0,0E0,0E0,0E0,0E0,0E0,0E0,0E0,0E0,0E0,0E0,0E0,0E0,0E0,0E0,0E0,0E0,0E0,0E0,0E0,0E0,0E0,0E0,0E0,0E0,0E0],"parents":[2147483647,0,0,1,1,2,2,3,3,4,4,5,5,6,6,7,7,8,8,9,9,10,10,11,11,12,12,13,13,14,14,15,15,16,16,17,17,18,18,19,19,20,20,21,21,22,22,23,23,24,24,25,25,26,26,27,27,28,28,29,29,30,30],"right_children":[2,4,6,8,10,12,14,16,18,20,22,24,26,28,30,32,34,36,38,40,42,44,46,48,50,52,54,56,58,60,62,-1,-1,-1,-1,-1,-1,-1,-1,-1,-1,-1,-1,-1,-1,-1,-1,-1,-1,-1,-1,-1,-1,-1,-1,-1,-1,-1,-1,-1,-1,-1,-1],"split_conditions":[7.9E1,1E0,1.2513E2,6E0,0E0,1.0568E2,3.1502E2,4E0,6E0,6E0,6E0,8.765E1,6E0,1.7532E2,2.0203E2,1.1034E2,2E1,2.993429E4,-3.9E-1,-1E0,9E0,4E0,1.0095E2,1E0,1.2415E2,4E0,1.4444E2,4E0,2E0,1.3645E2,3.6620496E3,-6.308617E-1,2.8118256E-1,-7.779958E-1,-1.8467537E0,-6.240265E-1,-2.6117775E0,-9.965046E-1,5.2539724E-1,-3.8730474E0,-2.4764051E0,-1.8335246E0,9.090038E-2,-1.1619965E0,-2.2978165E0,-2.1832538E-1,-1.7270192E0,-1.6601071E-1,-7.609001E-1,7.048855E-2,7.5470173E-1,6.129097E-1,1.3471594E-1,9.5826787E-1,4.102264E0,1.3307835E0,7.6102287E-1,2.9051495E0,1.593242E0,2.4669738E0,5.127637E0,1.4679587E1,2.5714896E0],"split_indices":[0,19,0,3,0,0,0,3,1,3,3,8,3,0,9,9,16,11,0,9,4,3,8,19,9,3,8,3,3,9,11,0,0,0,0,0,0,0,0,0,0,0,0,0,0,0,0,0,0,0,0,0,0,0,0,0,0,0,0,0,0,0,0],"split_type":[0,0,0,0,0,0,0,0,0,0,0,0,0,0,0,0,0,0,0,0,0,0,0,0,0,0,0,0,0,0,0,0,0,0,0,0,0,0,0,0,0,0,0,0,0,0,0,0,0,0,0,0,0,0,0,0,0,0,0,0,0,0,0],"sum_hessian":[6.9496E4,2.1992E4,4.7504E4,1.3083E4,8.909E3,3.4998E4,1.2506E4,9.984E3,3.099E3,3.027E3,5.882E3,2.3056E4,1.1942E4,1.2226E4,2.8E2,5.972E3,4.012E3,9.4E2,2.159E3,2.14E3,8.87E2,5.209E3,6.73E2,9.16E3,1.3896E4,1.0522E4,1.42E3,1.0061E4,2.165E3,1.92E2,8.8E1,5.064E3,9.08E2,2.135E3,1.877E3,7.22E2,2.18E2,2.83E2,1.876E3,5.73E2,1.567E3,7.21E2,1.66E2,3.636E3,1.573E3,6.12E2,6.1E1,7.577E3,1.583E3,1.2205E4,1.691E3,7.074E3,3.448E3,1.363E3,5.7E1,6.651E3,3.41E3,1.026E3,1.139E3,1E2,9.2E1,5.5E1,3.3E1],"tree_param":{"num_deleted":"0","num_feature":"20","num_nodes":"63","size_leaf_vector":"1"}},{"base_weights":[4.4359355E-3,-2.1831224E1,9.055667E0,-1.2883064E1,-3.3857437E1,2.2176104E0,2.5546906E1,-1.5265732E2,-1.2570124E1,-4.5664043E1,-2.7263208E1,-3.1365182E0,6.5128555E0,2.3851088E1,1.10675316E2,-1.8453487E2,-1.988521E0,-1.684104E1,-3.724576E0,-5.3847458E1,-2.5894964E1,-3.0895607E1,-1.4489E0,2.6347318E0,-6.439087E0,4.6097803E0,1.8354704E1,1.8809471E1,3.6275448E1,8.287408E1,2.3151396E2,-1.1289451E1,-6.9108176E0,-1.0367559E0,-3.248938E-1,-3.6974615E-1,7.6358974E-1,-3.68625E0,-2.4128685E0,-1.1704453E0,-3.3727615E0,-1.1649672E0,-2.2917078E0,-7.809344E-1,1.6660461E-1,2.794348E-2,7.8654045E-1,-4.1821662E-1,1.6494928E-1,4.2404762E-1,-9.803527E-2,8.062796E-1,4.0651507E0,9.048695E-1,2.8982203E0,2.355284E0,1.4136751E0,4.8230953E0,-5.463437E-1,4.2691197E0,1.871808E1],"categories":[],"categories_nodes":[],"categories_segments":[],"categories_sizes":[],"default_left":[0,0,0,0,0,0,0,0,0,0,0,0,0,0,0,0,0,0,0,0,0,0,0,0,0,0,0,0,0,0,0,0,0,0,0,0,0,0,0,0,0,0,0,0,0,0,0,0,0,0,0,0,0,0,0,0,0,0,0,0,0],"id":14,"left_children":[1,3,5,7,9,11,13,15,17,19,21,23,25,27,29,31,-1,33,35,37,39,41,43,45,47,49,51,53,55,57,59,-1,-1,-1,-1,-1,-1,-1,-1,-1,-1,-1,-1,-1,-1,-1,-1,-1,-1,-1,-1,-1,-1,-1,-1,-1,-1,-1,-1,-1,-1],"loss_changes":[1.3735559E7,2.1912E6,5.5404615E6,5.0893325E5,6.75163E5,7.987625E5,2.076321E6,8.62235E4,4.4020925E5,5.0206E5,5.2289875E5,2.9470284E5,4.3422762E5,8.838405E5,9.2482275E5,7.008875E3,0E0,3.16403E5,2.6478247E5,2.409005E5,9.275325E4,5.537215E5,4.6728785E4,1.5299206E5,1.8439719E5,4.2237275E5,3.7305962E5,2.79077E5,3.5182E5,2.9420075E5,1.0535128E6,0E0,0E0,0E0,0E0,0E0,0E0,0E0,0E0,0E0,0E0,0E0,0E0,0E0,0E0,0E0,0E0,0E0,0E0,0E0,0E0,0E0,0E0,0E0,0E0,0E0,0E0,0E0,0E0,0E0,0E0],"parents":[2147483647,0,0,1,1,2,2,3,3,4,4,5,5,6,6,7,7,8,8,9,9,10,10,11,11,12,12,13,13,14,14,15,15,17,17,18,18,19,19,20,20,21,21,22,22,23,23,24,24,25,25,26,26,27,27,28,28,29,29,30,30],"right_children":[2,4,6,8,10,12,14,16,18,20,22,24,26,28,30,32,-1,34,36,38,40,42,44,46,48,50,52,54,56,58,60,-1,-1,-1,-1,-1,-1,-1,-1,-1,-1,-1,-1,-1,-1,-1,-1,-1,-1,-1,-1,-1,-1,-1,-1,-1,-1,-1,-1,-1,-1],"split_conditions":[7.591E1,3.07E2,1.2128E2,-5.195E1,0E0,9.34E1,3.1502E2,6E0,9.21E1,6E0,6E0,2E0,6E0,1.5552E2,2.3064E2,6E0,-1.988521E0,6E0,1.787718E1,-1.42E0,2.9102E1,4E0,-1.42E0,1.1887E2,1.8E1,4E0,1.3915E2,2.3064E2,2E0,1.4752E1,3.1502E2,-1.1289451E1,-6.9108176E0,-1.0367559E0,-3.248938E-1,-3.6974615E-1,7.6358974E-1,-3.68625E0,-2.4128685E0,-1.1704453E0,-3.3727615E0,-1.1649672E0,-2.2917078E0,-7.809344E-1,1.6660461E-1,2.794348E-2,7.8654045E-1,-4.1821662E-1,1.6494928E-1,4.2404762E-1,-9.803527E-2,8.062796E-1,4.0651507E0,9.048695E-1,2.8982203E0,2.355284E0,1.4136751E0,4.8230953E0,-5.463437E-1,4.2691197E0,1.871808E1],"split_indices":[0,16,0,0,0,8,0,4,9,3,3,3,3,0,9,3,0,3,15,9,14,3,9,9,1,3,8,9,3,14,7,0,0,0,0,0,0,0,0,0,0,0,0,0,0,0,0,0,0,0,0,0,0,0,0,0,0,0,0,0,0],"split_type":[0,0,0,0,0,0,0,0,0,0,0,0,0,0,0,0,0,0,0,0,0,0,0,0,0,0,0,0,0,0,0,0,0,0,0,0,0,0,0,0,0,0,0,0,0,0,0,0,0,0,0,0,0,0,0,0,0,0,0,0,0],"sum_hessian":[6.9496E4,2.0365E4,4.9131E4,1.1678E4,8.687E3,3.4731E4,1.44E4,2.5E1,1.1653E4,3.111E3,5.576E3,1.546E4,1.9271E4,1.412E4,2.8E2,1.9E1,6E0,7.858E3,3.795E3,2.199E3,9.12E2,4.888E3,6.88E2,5.627E3,9.833E3,1.6604E4,2.667E3,1.0046E4,4.074E3,2.29E2,5.1E1,8E0,1.1E1,5.708E3,2.15E3,3.181E3,6.14E2,4.8E2,1.719E3,8.62E2,5E1,3.242E3,1.646E3,1.73E2,5.15E2,4.858E3,7.69E2,8.21E3,1.623E3,1.0448E4,6.156E3,2.577E3,9E1,9.868E3,1.78E2,1.729E3,2.345E3,2E2,2.9E1,2.6E1,2.5E1],"tree_param":{"num_deleted":"0","num_feature":"20","num_nodes":"61","size_leaf_vector":"1"}},{"base_weights":[4.28144E-3,-1.7267054E1,1.0351345E1,-3.5884712E1,-1.2044836E1,5.553561E0,3.1137724E1,-4.4051548E1,-1.9345917E1,-6.534632E0,-1.9679102E1,8.5610425E-1,1.1954441E1,2.8487982E1,1.0523858E2,-1.3193298E1,-4.8203033E1,-4.7780453E1,-1.515363E1,1.2215387E0,-9.467659E0,-2.2899458E1,5.48196E0,2.174305E0,-1.0325681E1,7.1310883E0,1.495341E1,3.30551E1,1.5165358E1,5.6364716E1,1.6939935E2,-1.6338357E0,3.5678026E-1,-3.4873407E0,-2.128348E0,-1.8948389E0,-4.0347958E0,-1.9178337E0,-6.130362E-1,-1.7621936E-1,5.310332E-1,-8.190029E-1,-3.2947248E-1,-8.315474E-1,-1.7778805E0,1.3259448E0,3.3785567E-2,-3.197543E-2,3.1275508E-1,-2.503812E-1,-1.1368856E0,5.644159E-1,-2.019735E-2,6.4679646E-1,1.3828564E0,1.525295E0,3.3887703E0,3.4896383E-1,2.7759888E0,2.1708076E0,4.4904704E0,2.1014678E0,1.1829151E1],"categories":[],"categories_nodes":[],"categories_segments":[],"categories_sizes":[],"default_left":[0,0,0,0,0,0,0,0,0,0,0,0,0,0,0,0,0,0,0,0,0,0,0,0,0,0,0,0,0,0,0,0,0,0,0,0,0,0,0,0,0,0,0,0,0,0,0,0,0,0,0,0,0,0,0,0,0,0,0,0,0,0,0],"id":15,"left_children":[1,3,5,7,9,11,13,15,17,19,21,23,25,27,29,31,33,35,37,39,41,43,45,47,49,51,53,55,57,59,61,-1,-1,-1,-1,-1,-1,-1,-1,-1,-1,-1,-1,-1,-1,-1,-1,-1,-1,-1,-1,-1,-1,-1,-1,-1,-1,-1,-1,-1,-1,-1,-1],"loss_changes":[1.2419821E7,2.5310265E6,4.33413E6,7.6945E5,8.55291E5,1.0617459E6,1.5972395E6,4.883505E5,2.2421712E5,2.6872338E5,6.9080475E5,3.002287E5,2.1608875E5,4.78357E5,8.716075E5,1.8005188E5,4.05495E5,7.567075E4,1.1001619E5,1.4465511E5,1.70415E5,5.990395E5,9.785534E4,2.0921697E5,1.4167111E5,1.7955872E5,2.3581812E5,5.16595E5,6.639354E5,6.582359E4,1.0254755E6,0E0,0E0,0E0,0E0,0E0,0E0,0E0,0E0,0E0,0E0,0E0,0E0,0E0,0E0,0E0,0E0,0E0,0E0,0E0,0E0,0E0,0E0,0E0,0E0,0E0,0E0,0E0,0E0,0E0,0E0,0E0,0E0],"parents":[2147483647,0,0,1,1,2,2,3,3,4,4,5,5,6,6,7,7,8,8,9,9,10,10,11,11,12,12,13,13,14,14,15,15,16,16,17,17,18,18,19,19,20,20,21,21,22,22,23,23,24,24,25,25,26,26,27,27,28,28,29,29,30,30],"right_children":[2,4,6,8,10,12,14,16,18,20,22,24,26,28,30,32,34,36,38,40,42,44,46,48,50,52,54,56,58,60,62,-1,-1,-1,-1,-1,-1,-1,-1,-1,-1,-1,-1,-1,-1,-1,-1,-1,-1,-1,-1,-1,-1,-1,-1,-1,-1,-1,-1,-1,-1,-1,-1],"split_conditions":[8.434E1,1.2E0,1.37E2,6E0,1.38E2,1.074E2,3.1502E2,4E0,-2.973E1,6E0,6E0,4.453075E-3,1E1,4E0,1.7143E2,1.4982228E1,5E0,1.787718E1,6E0,1.0413E2,7.252E0,4E0,9E0,9.883E1,1E0,4E0,6E0,1.2E1,6E0,6.9899354E0,1.1E1,-1.6338357E0,3.5678026E-1,-3.4873407E0,-2.128348E0,-1.8948389E0,-4.0347958E0,-1.9178337E0,-6.130362E-1,-1.7621936E-1,5.310332E-1,-8.190029E-1,-3.2947248E-1,-8.315474E-1,-1.7778805E0,1.3259448E0,3.3785567E-2,-3.197543E-2,3.1275508E-1,-2.503812E-1,-1.1368856E0,5.644159E-1,-2.019735E-2,6.4679646E-1,1.3828564E0,1.525295E0,3.3887703E0,3.4896383E-1,2.7759888E0,2.1708076E0,4.4904704E0,2.1014678E0,1.1829151E1],"split_indices":[0,0,0,3,16,0,0,4,7,4,3,17,1,3,9,15,4,15,1,9,14,3,1,9,19,3,3,4,3,15,4,0,0,0,0,0,0,0,0,0,0,0,0,0,0,0,0,0,0,0,0,0,0,0,0,0,0,0,0,0,0,0,0],"split_type":[0,0,0,0,0,0,0,0,0,0,0,0,0,0,0,0,0,0,0,0,0,0,0,0,0,0,0,0,0,0,0,0,0,0,0,0,0,0,0,0,0,0,0,0,0,0,0,0,0,0,0,0,0,0,0,0,0,0,0,0,0,0,0],"sum_hessian":[6.9496E4,2.6036E4,4.346E4,5.702E3,2.0334E4,3.5311E4,8.149E3,3.816E3,1.886E3,1.1811E4,8.523E3,2.0366E4,1.4945E4,7.869E3,2.8E2,4.53E2,3.363E3,2.41E2,1.645E3,3.241E3,8.57E3,7.556E3,9.67E2,1.8219E4,2.147E3,5.731E3,9.214E3,5.859E3,2.01E3,1.6E2,1.2E2,2.31E2,2.22E2,6.95E2,2.668E3,1.87E2,5.4E1,1.81E2,1.464E3,2.154E3,1.087E3,2.518E3,6.052E3,5.055E3,2.501E3,1.79E2,7.88E2,1.0784E4,7.435E3,1.504E3,6.43E2,3.693E3,2.038E3,7.953E3,1.261E3,5.46E3,3.99E2,1.672E3,3.38E2,1.17E2,4.3E1,4.2E1,7.8E1],"tree_param":{"num_deleted":"0","num_feature":"20","num_nodes":"63","size_leaf_vector":"1"}},{"base_weights":[4.250765E-3,-1.978579E1,8.207539E0,-1.1672164E1,-3.1074516E1,1.6790929E0,2.2382244E1,-1.4804768E1,-2.0201573E0,-3.9361176E1,-2.231009E1,-3.4954224E0,5.3363476E0,2.094617E1,1.0004993E2,-8.860658E0,-2.3365046E1,-2.0679619E1,5.9411054E0,-4.5493782E1,-2.2299845E1,-2.4739763E1,1.4576931E0,2.0423188E0,-6.7746315E0,3.623238E0,1.6118341E1,1.5707507E1,3.115537E1,6.3398033E1,1.7840685E2,-5.312638E-1,6.469361E-1,-1.695831E0,-7.727032E-1,-4.2007205E-1,-2.1735814E0,-8.5771656E-1,4.838615E-1,-1.7678623E0,-2.8055696E0,-2.2523718E0,-8.3403105E-1,6.211485E-1,-1.2869248E0,2.821646E-1,-9.8119384E-1,4.52832E-3,7.290191E-1,-4.2849427E-1,1.3727388E-1,3.593988E-1,-1.2386405E-1,-6.448939E-2,1.174006E0,7.52047E-1,2.2789772E0,1.1474093E0,1.9601196E0,3.5735962E0,-5.0073713E-1,1.5062671E1,4.2601733E0],"categories":[],"categories_nodes":[],"categories_segments":[],"categories_sizes":[],"default_left":[0,0,0,0,0,0,0,0,0,0,0,0,0,0,0,0,0,0,0,0,0,0,0,0,0,0,0,0,0,0,0,0,0,0,0,0,0,0,0,0,0,0,0,0,0,0,0,0,0,0,0,0,0,0,0,0,0,0,0,0,0,0,0],"id":16,"left_children":[1,3,5,7,9,11,13,15,17,19,21,23,25,27,29,31,33,35,37,39,41,43,45,47,49,51,53,55,57,59,61,-1,-1,-1,-1,-1,-1,-1,-1,-1,-1,-1,-1,-1,-1,-1,-1,-1,-1,-1,-1,-1,-1,-1,-1,-1,-1,-1,-1,-1,-1,-1,-1],"loss_changes":[1.1282543E7,1.8650105E6,4.546579E6,3.5829588E5,6.176205E5,6.366396E5,1.725941E6,4.5504538E5,4.3166897E5,4.56848E5,2.3917025E5,2.529926E5,3.6399988E5,8.13141E5,7.9570175E5,2.0332334E5,3.05489E5,2.4281956E5,1.7593352E5,3.443555E5,1.4739638E5,1.3976375E5,3.4082754E4,1.2680841E5,1.495699E5,3.699083E5,3.463045E5,1.9954675E5,3.39752E5,1.1511206E5,9.9335675E5,0E0,0E0,0E0,0E0,0E0,0E0,0E0,0E0,0E0,0E0,0E0,0E0,0E0,0E0,0E0,0E0,0E0,0E0,0E0,0E0,0E0,0E0,0E0,0E0,0E0,0E0,0E0,0E0,0E0,0E0,0E0,0E0],"parents":[2147483647,0,0,1,1,2,2,3,3,4,4,5,5,6,6,7,7,8,8,9,9,10,10,11,11,12,12,13,13,14,14,15,15,16,16,17,17,18,18,19,19,20,20,21,21,22,22,23,23,24,24,25,25,26,26,27,27,28,28,29,29,30,30],"right_children":[2,4,6,8,10,12,14,16,18,20,22,24,26,28,30,32,34,36,38,40,42,44,46,48,50,52,54,56,58,60,62,-1,-1,-1,-1,-1,-1,-1,-1,-1,-1,-1,-1,-1,-1,-1,-1,-1,-1,-1,-1,-1,-1,-1,-1,-1,-1,-1,-1,-1,-1,-1,-1],"split_conditions":[7.591E1,1E0,1.1935E2,6E0,9E0,9.107E1,3.1502E2,4E0,6E0,6E0,1.1E1,2E0,6E0,1.49E2,2.0203E2,1.0878E2,3.469E1,1E1,-3.9E-1,4E0,-2.973E1,2E0,7.091E1,1.1887E2,1.8E1,4E0,6E0,2.1536E2,1.3562E2,1.3950112E-1,4.112423E-2,-5.312638E-1,6.469361E-1,-1.695831E0,-7.727032E-1,-4.2007205E-1,-2.1735814E0,-8.5771656E-1,4.838615E-1,-1.7678623E0,-2.8055696E0,-2.2523718E0,-8.3403105E-1,6.211485E-1,-1.2869248E0,2.821646E-1,-9.8119384E-1,4.52832E-3,7.290191E-1,-4.2849427E-1,1.3727388E-1,3.593988E-1,-1.2386405E-1,-6.448939E-2,1.174006E0,7.52047E-1,2.2789772E0,1.1474093E0,1.9601196E0,3.5735962E0,-5.0073713E-1,1.5062671E1,4.2601733E0],"split_indices":[0,19,0,3,0,8,0,3,1,3,4,3,3,0,9,8,0,4,0,3,0,4,7,9,1,3,1,9,9,12,12,0,0,0,0,0,0,0,0,0,0,0,0,0,0,0,0,0,0,0,0,0,0,0,0,0,0,0,0,0,0,0,0],"split_type":[0,0,0,0,0,0,0,0,0,0,0,0,0,0,0,0,0,0,0,0,0,0,0,0,0,0,0,0,0,0,0,0,0,0,0,0,0,0,0,0,0,0,0,0,0,0,0,0,0,0,0,0,0,0,0,0,0,0,0,0,0,0,0],"sum_hessian":[6.9496E4,2.0365E4,4.9131E4,1.185E4,8.515E3,3.3639E4,1.5492E4,8.946E3,2.904E3,4.375E3,4.14E3,1.393E4,1.9709E4,1.5212E4,2.8E2,5.281E3,3.665E3,8.68E2,2.036E3,3.217E3,1.158E3,3.756E3,3.84E2,5.181E3,8.749E3,1.7008E4,2.701E3,1.0055E4,5.157E3,1.92E2,8.8E1,4.886E3,3.95E2,1.569E3,2.096E3,5.65E2,3.03E2,2.83E2,1.753E3,1.648E3,1.569E3,2.28E2,9.3E2,9.8E1,3.658E3,3.21E2,6.3E1,4.484E3,6.97E2,7.361E3,1.388E3,1.0735E4,6.273E3,8.03E2,1.898E3,9.837E3,2.18E2,2.555E3,2.602E3,1.73E2,1.9E1,3.7E1,5.1E1],"tree_param":{"num_deleted":"0","num_feature":"20","num_nodes":"63","size_leaf_vector":"1"}},{"base_weights":[4.268862E-3,-1.2390307E1,1.1840986E1,-2.4672894E1,-5.2411056E0,8.021286E0,3.298975E1,-1.510305E1,-3.374189E1,-7.8837247E0,2.2247212E0,3.8176582E0,1.4162202E1,2.9598204E1,9.512713E1,-2.04219E1,-2.9334078E0,-3.0582592E1,-5.7231907E1,-5.615431E0,-1.6329842E1,-2.823597E0,6.118618E0,1.6027278E0,8.7756815E0,9.403127E0,1.7786516E1,3.9297523E1,2.289779E1,7.0418236E1,2.025871E2,-6.1205333E-1,-1.4825286E0,-1.0321256E0,1.2955E-1,-1.7266983E0,-8.1191444E-1,-4.4451547E0,-2.1252189E0,-6.3053435E-1,-1.9803545E-1,-1.0821153E0,-3.0692154E-1,-2.8750482E-3,-4.6213326E-1,8.814602E-2,6.7525613E-1,3.9990422E-1,-5.0271273E-2,3.5323274E-1,1.4557799E0,1.0323534E0,2.6883897E-1,7.8409576E-1,1.6409485E0,1.4780357E0,4.64772E0,1.0177815E0,3.5980706E0,4.152296E0,-8.267245E-1,1.4460483E1,3.6171135E-1],"categories":[],"categories_nodes":[],"categories_segments":[],"categories_sizes":[],"default_left":[0,0,0,0,0,0,0,0,0,0,0,0,0,0,0,0,0,0,0,0,0,0,0,0,0,0,0,0,0,0,0,0,0,0,0,0,0,0,0,0,0,0,0,0,0,0,0,0,0,0,0,0,0,0,0,0,0,0,0,0,0,0,0],"id":17,"left_children":[1,3,5,7,9,11,13,15,17,19,21,23,25,27,29,31,33,35,37,39,41,43,45,47,49,51,53,55,57,59,61,-1,-1,-1,-1,-1,-1,-1,-1,-1,-1,-1,-1,-1,-1,-1,-1,-1,-1,-1,-1,-1,-1,-1,-1,-1,-1,-1,-1,-1,-1,-1,-1],"loss_changes":[1.0196129E7,2.980956E6,2.8714525E6,1.083483E6,4.2340906E5,7.772609E5,1.143198E6,3.9342462E5,4.740965E5,3.03567E5,1.10316234E5,1.9630539E5,2.1088375E5,3.343155E5,7.3185025E5,3.189945E5,1.8104325E5,3.19906E5,3.5024775E5,1.4459378E5,1.8151181E5,4.3394543E4,1.0190145E5,2.0614034E5,1.9190216E5,2.3946853E5,2.192065E5,1.0975252E6,3.7932888E5,2.5391562E5,8.7784975E5,0E0,0E0,0E0,0E0,0E0,0E0,0E0,0E0,0E0,0E0,0E0,0E0,0E0,0E0,0E0,0E0,0E0,0E0,0E0,0E0,0E0,0E0,0E0,0E0,0E0,0E0,0E0,0E0,0E0,0E0,0E0,0E0],"parents":[2147483647,0,0,1,1,2,2,3,3,4,4,5,5,6,6,7,7,8,8,9,9,10,10,11,11,12,12,13,13,14,14,15,15,16,16,17,17,18,18,19,19,20,20,21,21,22,22,23,23,24,24,25,25,26,26,27,27,28,28,29,29,30,30],"right_children":[2,4,6,8,10,12,14,16,18,20,22,24,26,28,30,32,34,36,38,40,42,44,46,48,50,52,54,56,58,60,62,-1,-1,-1,-1,-1,-1,-1,-1,-1,-1,-1,-1,-1,-1,-1,-1,-1,-1,-1,-1,-1,-1,-1,-1,-1,-1,-1,-1,-1,-1,-1,-1],"split_conditions":[9.277E1,5.021E1,1.49E2,1E0,9.853E1,1.1514E2,3.1502E2,6E0,5.9953423E1,1E0,8.82E1,1.8E1,1.1762E2,2E0,2.3064E2,4E0,6E0,6E0,-1E0,6.831E1,1E1,4.0606884E1,1.2245E2,4.202E0,1.38E2,1E0,6E0,1.1E1,6E0,1.4752E1,3.6620496E3,-6.1205333E-1,-1.4825286E0,-1.0321256E0,1.2955E-1,-1.7266983E0,-8.1191444E-1,-4.4451547E0,-2.1252189E0,-6.3053435E-1,-1.9803545E-1,-1.0821153E0,-3.0692154E-1,-2.8750482E-3,-4.6213326E-1,8.814602E-2,6.7525613E-1,3.9990422E-1,-5.0271273E-2,3.5323274E-1,1.4557799E0,1.0323534E0,2.6883897E-1,7.8409576E-1,1.6409485E0,1.4780357E0,4.64772E0,1.0177815E0,3.5980706E0,4.152296E0,-8.267245E-1,1.4460483E1,3.6171135E-1],"split_indices":[0,0,0,19,9,0,0,3,10,19,8,1,8,3,9,3,1,3,9,0,4,10,9,14,8,3,3,4,3,14,11,0,0,0,0,0,0,0,0,0,0,0,0,0,0,0,0,0,0,0,0,0,0,0,0,0,0,0,0,0,0,0,0],"split_type":[0,0,0,0,0,0,0,0,0,0,0,0,0,0,0,0,0,0,0,0,0,0,0,0,0,0,0,0,0,0,0,0,0,0,0,0,0,0,0,0,0,0,0,0,0,0,0,0,0,0,0,0,0,0,0,0,0,0,0,0,0,0,0],"sum_hessian":[6.9496E4,3.3948E4,3.5548E4,1.2489E4,2.1459E4,3.0111E4,5.437E3,6.078E3,6.411E3,1.5849E4,5.61E3,1.7876E4,1.2235E4,5.157E3,2.8E2,4.229E3,1.849E3,5.653E3,7.58E2,1.2495E4,3.354E3,2.443E3,3.167E3,1.2357E4,5.519E3,5.291E3,6.944E3,2.105E3,3.052E3,2.29E2,5.1E1,2.243E3,1.986E3,4.39E2,1.41E3,4.431E3,1.222E3,2.39E2,5.19E2,2.389E3,1.0106E4,2.204E3,1.15E3,1.708E3,7.35E2,1.993E3,1.174E3,3.579E3,8.778E3,5.092E3,4.27E2,1.394E3,3.897E3,6.093E3,8.51E2,1.783E3,3.22E2,2.903E3,1.49E2,2E2,2.9E1,3.5E1,1.6E1],"tree_param":{"num_deleted":"0","num_feature":"20","num_nodes":"63","size_leaf_vector":"1"}},{"base_weights":[4.3540313E-3,-1.787781E1,7.416797E0,-1.0313969E1,-2.8043581E1,2.9294024E0,2.428053E1,-2.9137604E1,-8.387286E0,-3.8021168E1,-2.2471E1,-5.0134176E-1,9.300425E0,2.2427675E1,9.0435356E1,-1.0545418E1,-4.563842E1,-8.960219E-1,-1.1374773E1,-4.48267E1,-2.1580648E1,-2.5543352E1,-6.376234E-1,-2.171943E0,6.944018E0,7.696324E0,1.6678099E1,1.904394E1,3.6924973E1,4.5805946E1,1.4657256E2,8.539816E-1,-9.1270345E-1,-6.9122314E0,-2.0673034E0,-2.2476304E-1,6.627895E-1,-7.281493E-1,-2.0292555E-3,-3.5521896E0,-2.0645893E0,-9.636124E-1,-3.0109632E0,-9.4356555E-1,-1.9332659E0,-6.835938E-1,1.8794417E-1,-1.7932229E-1,3.2303184E-1,3.1209552E-1,1.684808E0,3.178212E-1,8.2308114E-1,4.1033694E-1,1.0460905E0,8.7506723E-1,2.0414248E0,2.543474E0,1.1973568E0,1.7901274E0,3.9355912E0,1.7512432E0,1.0374299E1],"categories":[],"categories_nodes":[],"categories_segments":[],"categories_sizes":[],"default_left":[0,0,0,0,0,0,0,0,0,0,0,0,0,0,0,0,0,0,0,0,0,0,0,0,0,0,0,0,0,0,0,0,0,0,0,0,0,0,0,0,0,0,0,0,0,0,0,0,0,0,0,0,0,0,0,0,0,0,0,0,0,0,0],"id":18,"left_children":[1,3,5,7,9,11,13,15,17,19,21,23,25,27,29,31,33,35,37,39,41,43,45,47,49,51,53,55,57,59,61,-1,-1,-1,-1,-1,-1,-1,-1,-1,-1,-1,-1,-1,-1,-1,-1,-1,-1,-1,-1,-1,-1,-1,-1,-1,-1,-1,-1,-1,-1,-1,-1],"loss_changes":[9.211997E6,1.5656985E6,3.7179552E6,4.2332E5,4.822065E5,8.482227E5,1.263685E6,3.3207506E5,2.3712881E5,3.47224E5,3.7408775E5,3.1376934E5,1.6062012E5,4.92103E5,6.97295E5,1.0913017E5,2.2244812E5,1.5398742E5,2.737282E5,2.009515E5,8.027306E4,4.2730375E5,3.953466E4,2.5160244E5,8.662291E4,1.30953625E5,8.700706E4,2.73063E5,3.42624E5,4.9190844E4,8.3528225E5,0E0,0E0,0E0,0E0,0E0,0E0,0E0,0E0,0E0,0E0,0E0,0E0,0E0,0E0,0E0,0E0,0E0,0E0,0E0,0E0,0E0,0E0,0E0,0E0,0E0,0E0,0E0,0E0,0E0,0E0,0E0,0E0],"parents":[2147483647,0,0,1,1,2,2,3,3,4,4,5,5,6,6,7,7,8,8,9,9,10,10,11,11,12,12,13,13,14,14,15,15,16,16,17,17,18,18,19,19,20,20,21,21,22,22,23,23,24,24,25,25,26,26,27,27,28,28,29,29,30,30],"right_children":[2,4,6,8,10,12,14,16,18,20,22,24,26,28,30,32,34,36,38,40,42,44,46,48,50,52,54,56,58,60,62,-1,-1,-1,-1,-1,-1,-1,-1,-1,-1,-1,-1,-1,-1,-1,-1,-1,-1,-1,-1,-1,-1,-1,-1,-1,-1,-1,-1,-1,-1,-1,-1],"split_conditions":[7.591E1,3.07E2,1.3021E2,7E-2,0E0,1.0636E2,3.1502E2,3.39641E4,6E0,6E0,6E0,1.1117E2,1.322E2,1.8E2,1.6209E2,9.402E0,-5.195E1,1.7399586E1,6E0,-2.973E1,2.9102E1,4E0,-1.42E0,6E0,2.6376E2,6E0,1.4E1,6E0,2E0,7.5685663E0,1.1E1,8.539816E-1,-9.1270345E-1,-6.9122314E0,-2.0673034E0,-2.2476304E-1,6.627895E-1,-7.281493E-1,-2.0292555E-3,-3.5521896E0,-2.0645893E0,-9.636124E-1,-3.0109632E0,-9.4356555E-1,-1.9332659E0,-6.835938E-1,1.8794417E-1,-1.7932229E-1,3.2303184E-1,3.1209552E-1,1.684808E0,3.178212E-1,8.2308114E-1,4.1033694E-1,1.0460905E0,8.7506723E-1,2.0414248E0,2.543474E0,1.1973568E0,1.7901274E0,3.9355912E0,1.7512432E0,1.0374299E1],"split_indices":[0,16,0,9,0,0,0,11,4,3,3,9,9,0,9,14,0,15,3,8,14,3,9,3,9,3,1,3,3,15,4,0,0,0,0,0,0,0,0,0,0,0,0,0,0,0,0,0,0,0,0,0,0,0,0,0,0,0,0,0,0,0,0],"split_type":[0,0,0,0,0,0,0,0,0,0,0,0,0,0,0,0,0,0,0,0,0,0,0,0,0,0,0,0,0,0,0,0,0,0,0,0,0,0,0,0,0,0,0,0,0,0,0,0,0,0,0,0,0,0,0,0,0,0,0,0,0,0,0],"sum_hessian":[6.9496E4,2.0365E4,4.9131E4,1.1678E4,8.687E3,3.8806E4,1.0325E4,1.083E3,1.0595E4,3.111E3,5.576E3,2.5224E4,1.3582E4,1.0045E4,2.8E2,5.1E2,5.73E2,3.021E3,7.574E3,2.199E3,9.12E2,4.888E3,6.88E2,2.0602E4,4.622E3,1.1158E4,2.424E3,8.146E3,1.899E3,1.57E2,1.23E2,1.11E2,3.99E2,2.4E1,5.49E2,2.409E3,6.12E2,5.911E3,1.663E3,2.59E2,1.94E3,8.62E2,5E1,3.242E3,1.646E3,1.73E2,5.15E2,1.7702E4,2.9E3,4.505E3,1.17E2,9.68E3,1.478E3,8.1E2,1.614E3,7.609E3,5.37E2,9.14E2,9.85E2,1.22E2,3.5E1,4.4E1,7.9E1],"tree_param":{"num_deleted":"0","num_feature":"20","num_nodes":"63","size_leaf_vector":"1"}},{"base_weights":[4.236664E-3,-1.2534047E1,9.6065035E0,-2.4430233E1,-6.575854E0,5.445595E0,2.5538288E1,-3.0085503E1,-9.875706E0,-4.0706196E0,-1.4646833E1,2.1921923E0,1.087665E1,2.3377062E1,8.597712E1,-4.8010727E1,-2.4813654E1,-2.205502E1,-1.3559821E0,-6.6354394E0,1.6739849E0,-8.355751E0,-2.3233088E1,3.2939413E0,-8.581944E0,9.115481E0,1.8453365E1,2.7613459E1,1.1020687E1,5.334938E1,1.5576561E2,-5.791259E0,-2.2097776E0,-9.0506643E-1,-1.7560908E0,-1.3751603E0,5.3207155E-2,6.0507067E-2,-1.2530246E0,-4.4730407E-1,-8.9924246E-2,2.1280086E-1,-6.7160094E-1,-5.7847345E-1,2.2953856E-1,-9.28496E-1,-1.9283956E0,-3.0495128E-2,2.8673083E-1,-1.9109082E-1,-1.0962137E0,3.764854E-1,9.7849876E-1,8.302477E-1,1.9268143E0,1.2627681E0,2.986916E0,1.830189E-1,2.3656032E0,1.5607327E0,3.8407261E0,1.08756E1,2.9608223E-1],"categories":[],"categories_nodes":[],"categories_segments":[],"categories_sizes":[],"default_left":[0,0,0,0,0,0,0,0,0,0,0,1,0,0,0,0,0,0,0,0,0,0,0,0,0,0,0,0,0,0,0,0,0,0,0,0,0,0,0,0,0,0,0,0,0,0,0,0,0,0,0,0,0,0,0,0,0,0,0,0,0,0,0],"id":19,"left_children":[1,3,5,7,9,11,13,15,17,19,21,23,25,27,29,31,33,35,37,39,41,43,45,47,49,51,53,55,57,59,61,-1,-1,-1,-1,-1,-1,-1,-1,-1,-1,-1,-1,-1,-1,-1,-1,-1,-1,-1,-1,-1,-1,-1,-1,-1,-1,-1,-1,-1,-1,-1,-1],"loss_changes":[8.367278E6,2.136227E6,2.6088638E6,8.275745E5,4.0603275E5,5.5140294E5,1.0625595E6,6.832655E5,2.9217066E5,2.2585197E5,2.5676381E5,2.3171461E5,1.55835E5,4.11663E5,6.315384E5,4.204825E5,3.8676875E5,1.46014E5,1.008843E5,1.1842094E5,1.84625E5,1.1434605E5,1.4308825E5,1.6872558E5,1.14934984E5,1.5714906E5,8.117594E4,4.424065E5,5.369965E5,9.7845375E4,8.2216875E5,0E0,0E0,0E0,0E0,0E0,0E0,0E0,0E0,0E0,0E0,0E0,0E0,0E0,0E0,0E0,0E0,0E0,0E0,0E0,0E0,0E0,0E0,0E0,0E0,0E0,0E0,0E0,0E0,0E0,0E0,0E0,0E0],"parents":[2147483647,0,0,1,1,2,2,3,3,4,4,5,5,6,6,7,7,8,8,9,9,10,10,11,11,12,12,13,13,14,14,15,15,16,16,17,17,18,18,19,19,20,20,21,21,22,22,23,23,24,24,25,25,26,26,27,27,28,28,29,29,30,30],"right_children":[2,4,6,8,10,12,14,16,18,20,22,24,26,28,30,32,34,36,38,40,42,44,46,48,50,52,54,56,58,60,62,-1,-1,-1,-1,-1,-1,-1,-1,-1,-1,-1,-1,-1,-1,-1,-1,-1,-1,-1,-1,-1,-1,-1,-1,-1,-1,-1,-1,-1,-1,-1,-1],"split_conditions":[8.859E1,3.174E1,1.37E2,6E0,1E0,1.1163E2,3.1502E2,1E-2,-1E-1,1.1988594E1,1.6352E1,4.453075E-3,1.3645E2,4E0,2.0203E2,-2.973E1,4E0,9E0,1.1E1,9.107E1,1.2E1,1.4869351E1,4E0,6E0,1E0,6E0,2.1536E2,1.2E1,6E0,1.3645E2,3.98262E3,-5.791259E0,-2.2097776E0,-9.0506643E-1,-1.7560908E0,-1.3751603E0,5.3207155E-2,6.0507067E-2,-1.2530246E0,-4.4730407E-1,-8.9924246E-2,2.1280086E-1,-6.7160094E-1,-5.7847345E-1,2.2953856E-1,-9.28496E-1,-1.9283956E0,-3.0495128E-2,2.8673083E-1,-1.9109082E-1,-1.0962137E0,3.764854E-1,9.7849876E-1,8.302477E-1,1.9268143E0,1.2627681E0,2.986916E0,1.830189E-1,2.3656032E0,1.5607327E0,3.8407261E0,1.08756E1,2.9608223E-1],"split_indices":[0,0,0,3,19,0,0,9,0,15,14,17,9,3,9,8,3,4,4,8,4,15,3,1,19,3,9,4,3,9,11,0,0,0,0,0,0,0,0,0,0,0,0,0,0,0,0,0,0,0,0,0,0,0,0,0,0,0,0,0,0,0,0],"split_type":[0,0,0,0,0,0,0,0,0,0,0,0,0,0,0,0,0,0,0,0,0,0,0,0,0,0,0,0,0,0,0,0,0,0,0,0,0,0,0,0,0,0,0,0,0,0,0,0,0,0,0,0,0,0,0,0,0,0,0,0,0,0,0],"sum_hessian":[6.9496E4,3.014E4,3.9356E4,1.0057E4,2.0083E4,3.1207E4,8.149E3,7.242E3,2.815E3,1.5327E4,4.756E3,1.9517E4,1.169E4,7.869E3,2.8E2,1.644E3,5.598E3,1.158E3,1.657E3,1.0596E4,4.731E3,2.746E3,2.01E3,1.7707E4,1.81E3,9.487E3,2.203E3,5.859E3,2.01E3,1.92E2,8.8E1,8.6E1,1.558E3,3.392E3,2.206E3,9.37E2,2.21E2,1.496E3,1.61E2,7.17E3,3.426E3,4.041E3,6.9E2,2.2E3,5.46E2,1.543E3,4.67E2,6.812E3,1.0895E4,1.335E3,4.75E2,8.239E3,1.248E3,2.019E3,1.84E2,5.46E3,3.99E2,1.672E3,3.38E2,1E2,9.2E1,6.2E1,2.6E1],"tree_param":{"num_deleted":"0","num_feature":"20","num_nodes":"63","size_leaf_vector":"1"}},{"base_weights":[4.155634E-3,-1.6196741E1,6.719686E0,-9.862229E0,-2.6449448E1,1.3840507E0,1.8304535E1,-1.290538E2,-9.576774E0,-3.5129906E1,-2.1203503E1,-3.085466E0,4.5430284E0,1.4750857E1,3.9999657E1,-1.5929367E2,-1.2991229E0,-1.3268957E1,-1.4406083E0,-4.1506615E1,-1.9229822E1,-2.375198E1,-9.8751545E-1,4.8100023E0,-5.167917E0,2.9787643E0,1.4388339E1,1.1676174E1,2.1561356E1,3.265769E1,8.4856476E1,-1.0142433E1,-5.840242E0,-8.2813084E-1,-2.2307818E-1,-2.4138375E-1,8.116197E-1,-2.7634828E0,-1.7368876E0,-8.406653E-1,-2.814255E0,-8.814643E-1,-1.8376623E0,-1.2066226E0,1.2970981E-1,5.38168E-1,-2.8205582E-1,-1.7918603E-1,-6.930352E-1,3.1730947E-1,-1.3920057E-1,3.150793E-1,1.4007705E0,9.523913E-1,3.608037E-1,9.2023534E-1,3.0952556E0,2.5700655E0,1.2948593E0,2.1264195E0,8.646554E0],"categories":[],"categories_nodes":[],"categories_segments":[],"categories_sizes":[],"default_left":[0,0,0,0,0,0,0,0,0,0,0,0,0,0,0,0,0,0,0,0,0,0,0,0,0,0,0,0,0,0,0,0,0,0,0,0,0,0,0,0,0,0,0,0,0,0,0,0,0,0,0,0,0,0,0,0,0,0,0,0,0],"id":20,"left_children":[1,3,5,7,9,11,13,15,17,19,21,23,25,27,29,31,-1,33,35,37,39,41,43,45,47,49,51,53,55,57,59,-1,-1,-1,-1,-1,-1,-1,-1,-1,-1,-1,-1,-1,-1,-1,-1,-1,-1,-1,-1,-1,-1,-1,-1,-1,-1,-1,-1,-1,-1],"loss_changes":[7.561217E6,1.3224275E6,3.0369475E6,4.2712512E5,3.533975E5,4.7498072E5,1.1938815E6,8.936706E4,3.7731588E5,2.960725E5,2.498485E5,2.290773E5,3.0350428E5,2.78545E5,7.15184E5,1.8870125E4,0E0,2.5056012E5,2.3484788E5,1.9269125E5,7.427122E4,3.4220125E5,4.5159387E4,1.8099428E5,1.5176269E5,3.3008944E5,2.975805E5,3.01521E5,5.260944E5,2.3626175E5,1.1334225E6,0E0,0E0,0E0,0E0,0E0,0E0,0E0,0E0,0E0,0E0,0E0,0E0,0E0,0E0,0E0,0E0,0E0,0E0,0E0,0E0,0E0,0E0,0E0,0E0,0E0,0E0,0E0,0E0,0E0,0E0],"parents":[2147483647,0,0,1,1,2,2,3,3,4,4,5,5,6,6,7,7,8,8,9,9,10,10,11,11,12,12,13,13,14,14,15,15,17,17,18,18,19,19,20,20,21,21,22,22,23,23,24,24,25,25,26,26,27,27,28,28,29,29,30,30],"right_children":[2,4,6,8,10,12,14,16,18,20,22,24,26,28,30,32,-1,34,36,38,40,42,44,46,48,50,52,54,56,58,60,-1,-1,-1,-1,-1,-1,-1,-1,-1,-1,-1,-1,-1,-1,-1,-1,-1,-1,-1,-1,-1,-1,-1,-1,-1,-1,-1,-1,-1,-1],"split_conditions":[7.591E1,3.59E2,1.1935E2,-5.195E1,0E0,9.107E1,1.8E2,6E0,9.21E1,6E0,6E0,1E0,6E0,1.4123E2,1.2E1,6E0,-1.2991229E0,6E0,1.787718E1,5E0,2.9102E1,4E0,8.802E0,1.5202E1,1E0,4E0,1E0,2E0,6E0,1E0,1.8485E2,-1.0142433E1,-5.840242E0,-8.2813084E-1,-2.2307818E-1,-2.4138375E-1,8.116197E-1,-2.7634828E0,-1.7368876E0,-8.406653E-1,-2.814255E0,-8.814643E-1,-1.8376623E0,-1.2066226E0,1.2970981E-1,5.38168E-1,-2.8205582E-1,-1.7918603E-1,-6.930352E-1,3.1730947E-1,-1.3920057E-1,3.150793E-1,1.4007705E0,9.523913E-1,3.608037E-1,9.2023534E-1,3.0952556E0,2.5700655E0,1.2948593E0,2.1264195E0,8.646554E0],"split_indices":[0,16,0,0,0,8,0,4,9,3,3,3,3,8,4,3,0,3,15,4,14,3,14,14,19,3,16,3,3,3,9,0,0,0,0,0,0,0,0,0,0,0,0,0,0,0,0,0,0,0,0,0,0,0,0,0,0,0,0,0,0],"split_type":[0,0,0,0,0,0,0,0,0,0,0,0,0,0,0,0,0,0,0,0,0,0,0,0,0,0,0,0,0,0,0,0,0,0,0,0,0,0,0,0,0,0,0,0,0,0,0,0,0,0,0,0,0,0,0,0,0,0,0,0,0],"sum_hessian":[6.9496E4,2.0365E4,4.9131E4,1.2589E4,7.776E3,3.3639E4,1.5492E4,2.9E1,1.256E4,2.927E3,4.849E3,1.393E4,1.9709E4,1.3313E4,2.179E3,2.2E1,7E0,8.639E3,3.921E3,2.088E3,8.39E2,4.306E3,5.43E2,2.907E3,1.1023E4,1.7008E4,2.701E3,9.174E3,4.139E3,1.874E3,3.05E2,9E0,1.3E1,6.287E3,2.352E3,3.291E3,6.3E2,6.86E2,1.402E3,7.89E2,5E1,2.929E3,1.377E3,7.2E1,4.71E2,1.852E3,1.055E3,9.325E3,1.698E3,1.0735E4,6.273E3,1.696E3,1.005E3,3.457E3,5.717E3,3.84E3,2.99E2,4.95E2,1.379E3,2.07E2,9.8E1],"tree_param":{"num_deleted":"0","num_feature":"20","num_nodes":"61","size_leaf_vector":"1"}},{"base_weights":[3.8262967E-3,-8.777095E0,1.1280636E1,-2.039388E1,-3.3188336E0,8.698099E0,3.276088E1,-1.2233296E1,-2.8127472E1,-5.781718E0,2.903665E0,5.900001E0,1.658822E1,2.841259E1,7.883522E1,-1.6704763E1,-2.0027354E0,-2.540399E1,-4.9193306E1,9.783162E0,-6.5939503E0,-1.9590985E0,5.896555E0,1.1604458E1,3.0603268E0,1.3821402E1,4.5024994E1,3.887527E1,1.9620358E1,5.722855E1,1.7288712E2,-4.778709E-1,-1.2384073E0,-9.555365E-1,1.6667825E-1,-1.4320854E0,-6.809076E-1,-3.4462113E0,-1.4279212E0,2.8874442E-1,1.9050025E0,-2.2933893E-1,-7.3574036E-1,2.8840777E-1,-1.9771676E-1,1.2052871E-1,6.1646354E-1,3.9583412E-1,1.084769E0,-2.339598E-1,2.5233373E-1,9.661159E-1,2.0457108E-1,4.9400983E0,1.7345988E0,1.3483418E0,5.4580684E0,1.4823145E0,6.881737E-2,3.4431748E0,-1.1316601E0,2.5260646E0,1.4665491E1],"categories":[],"categories_nodes":[],"categories_segments":[],"categories_sizes":[],"default_left":[0,0,0,0,0,0,0,0,0,0,0,0,0,0,0,0,0,0,0,0,0,0,0,0,0,0,0,0,0,0,0,0,0,0,0,0,0,0,0,0,0,0,0,0,0,0,0,0,0,0,0,0,0,0,0,0,0,0,0,0,0,0,0],"id":21,"left_children":[1,3,5,7,9,11,13,15,17,19,21,23,25,27,29,31,33,35,37,39,41,43,45,47,49,51,53,55,57,59,61,-1,-1,-1,-1,-1,-1,-1,-1,-1,-1,-1,-1,-1,-1,-1,-1,-1,-1,-1,-1,-1,-1,-1,-1,-1,-1,-1,-1,-1,-1,-1,-1],"loss_changes":[6.881746E6,2.4774515E6,1.6874972E6,7.87908E5,4.0742447E5,5.995446E5,6.51885E5,2.7805412E5,3.66622E5,2.4084975E5,1.09732016E5,3.247828E5,5.5878825E5,2.738285E5,5.611394E5,2.4354562E5,1.6895648E5,2.163545E5,2.9646925E5,1.0703923E5,2.9499425E5,4.431786E4,1.0462458E5,2.4781606E5,2.0585781E5,3.4680875E5,3.4664975E5,1.1370468E6,2.9701006E5,2.1527175E5,7.5143375E5,0E0,0E0,0E0,0E0,0E0,0E0,0E0,0E0,0E0,0E0,0E0,0E0,0E0,0E0,0E0,0E0,0E0,0E0,0E0,0E0,0E0,0E0,0E0,0E0,0E0,0E0,0E0,0E0,0E0,0E0,0E0,0E0],"parents":[2147483647,0,0,1,1,2,2,3,3,4,4,5,5,6,6,7,7,8,8,9,9,10,10,11,11,12,12,13,13,14,14,15,15,16,16,17,17,18,18,19,19,20,20,21,21,22,22,23,23,24,24,25,25,26,26,27,27,28,28,29,29,30,30],"right_children":[2,4,6,8,10,12,14,16,18,20,22,24,26,28,30,32,34,36,38,40,42,44,46,48,50,52,54,56,58,60,62,-1,-1,-1,-1,-1,-1,-1,-1,-1,-1,-1,-1,-1,-1,-1,-1,-1,-1,-1,-1,-1,-1,-1,-1,-1,-1,-1,-1,-1,-1,-1,-1],"split_conditions":[9.877E1,5.021E1,1.6517E2,1E0,9.883E1,1.2968E2,3.1502E2,6E0,6.0430088E1,2E0,8.765E1,2E0,6E0,2E0,2.3064E2,4E0,6E0,6E0,1.8302E1,1.122339E-3,1E0,1E0,1.2245E2,1E1,9.2E1,4E0,2E0,1.1E1,9E0,1.4752E1,3.1502E2,-4.778709E-1,-1.2384073E0,-9.555365E-1,1.6667825E-1,-1.4320854E0,-6.809076E-1,-3.4462113E0,-1.4279212E0,2.8874442E-1,1.9050025E0,-2.2933893E-1,-7.3574036E-1,2.8840777E-1,-1.9771676E-1,1.2052871E-1,6.1646354E-1,3.9583412E-1,1.084769E0,-2.339598E-1,2.5233373E-1,9.661159E-1,2.0457108E-1,4.9400983E0,1.7345988E0,1.3483418E0,5.4580684E0,1.4823145E0,6.881737E-2,3.4431748E0,-1.1316601E0,2.5260646E0,1.4665491E1],"split_indices":[0,0,0,19,9,8,0,3,10,4,8,3,3,3,9,3,1,3,14,17,19,3,9,4,8,3,4,4,4,14,7,0,0,0,0,0,0,0,0,0,0,0,0,0,0,0,0,0,0,0,0,0,0,0,0,0,0,0,0,0,0,0,0],"split_type":[0,0,0,0,0,0,0,0,0,0,0,0,0,0,0,0,0,0,0,0,0,0,0,0,0,0,0,0,0,0,0,0,0,0,0,0,0,0,0,0,0,0,0,0,0,0,0,0,0,0,0,0,0,0,0,0,0,0,0,0,0,0,0],"sum_hessian":[6.9496E4,3.9072E4,3.0424E4,1.2489E4,2.6583E4,2.716E4,3.264E3,6.078E3,6.411E3,1.9045E4,7.538E3,2.0051E4,7.109E3,2.984E3,2.8E2,4.229E3,1.849E3,5.679E3,7.32E2,9.44E2,1.8101E4,2.872E3,4.666E3,6.663E3,1.3388E4,6.48E3,6.29E2,1.361E3,1.623E3,2.29E2,5.1E1,2.243E3,1.986E3,4.39E2,1.41E3,4.454E3,1.225E3,3.73E2,3.59E2,8.28E2,1.16E2,1.4515E4,3.586E3,5.89E2,2.283E3,3.027E3,1.639E3,4.881E3,1.782E3,2.734E3,1.0654E4,4.139E3,2.341E3,1E2,5.29E2,1.165E3,1.96E2,1.047E3,5.76E2,2E2,2.9E1,2.6E1,2.5E1],"tree_param":{"num_deleted":"0","num_feature":"20","num_nodes":"63","size_leaf_vector":"1"}},{"base_weights":[4.063074E-3,-1.007602E1,8.888398E0,-2.11755E1,-5.114078E0,5.9369154E0,2.5985064E1,-2.609747E1,-8.508243E0,-2.2331834E0,-1.0589607E1,2.8517249E0,1.149006E1,2.331179E1,7.496286E1,-4.2557274E1,-2.1256878E1,-1.9546682E1,-7.8685534E-1,-3.9821672E0,5.6708074E0,-1.2699873E1,1.1498108E1,1.1471744E1,9.248843E-1,9.539655E0,2.6503672E1,1.5905213E1,3.0575678E1,3.649056E1,1.23379486E2,-5.3151927E0,-1.9486297E0,-7.5326484E-1,-1.5383034E0,-1.2301668E0,9.534305E-2,8.3037995E-2,-1.1699888E0,-2.2309737E-1,1.2558131E0,4.3966848E-1,-4.7215238E-1,-3.5964832E-1,-1.276132E0,1.5160055E0,3.2451153E-1,3.263786E-1,1.2416391E0,-2.2293904E-1,1.4244983E-1,7.1136606E-1,7.807755E-2,1.0649308E0,2.7940137E0,4.739943E-1,1.4238586E0,1.331305E0,3.738376E0,1.338123E0,3.43573E0,8.921335E0,1.3079857E0],"categories":[],"categories_nodes":[],"categories_segments":[],"categories_sizes":[],"default_left":[0,0,0,0,0,0,0,0,0,0,0,0,0,0,0,0,0,0,0,0,0,0,0,0,0,0,0,0,0,0,0,0,0,0,0,0,0,0,0,0,0,0,0,0,0,0,0,0,0,0,0,0,0,0,0,0,0,0,0,0,0,0,0],"id":22,"left_children":[1,3,5,7,9,11,13,15,17,19,21,23,25,27,29,31,33,35,37,39,41,43,45,47,49,51,53,55,57,59,61,-1,-1,-1,-1,-1,-1,-1,-1,-1,-1,-1,-1,-1,-1,-1,-1,-1,-1,-1,-1,-1,-1,-1,-1,-1,-1,-1,-1,-1,-1,-1,-1],"loss_changes":[6.223882E6,1.7930228E6,1.8638568E6,6.268725E5,3.5491656E5,5.396926E5,7.102555E5,5.761825E5,2.399981E5,2.0385673E5,3.617072E5,3.3637962E5,3.2920612E5,2.77017E5,5.1891612E5,3.717575E5,3.2918825E5,1.2577881E5,9.180538E4,1.6867542E5,1.26185266E5,4.998325E5,6.361608E4,2.4425719E5,1.7149186E5,3.7243125E5,1.965185E5,2.0620106E5,4.523345E5,4.7690656E4,6.589405E5,0E0,0E0,0E0,0E0,0E0,0E0,0E0,0E0,0E0,0E0,0E0,0E0,0E0,0E0,0E0,0E0,0E0,0E0,0E0,0E0,0E0,0E0,0E0,0E0,0E0,0E0,0E0,0E0,0E0,0E0,0E0,0E0],"parents":[2147483647,0,0,1,1,2,2,3,3,4,4,5,5,6,6,7,7,8,8,9,9,10,10,11,11,12,12,13,13,14,14,15,15,16,16,17,17,18,18,19,19,20,20,21,21,22,22,23,23,24,24,25,25,26,26,27,27,28,28,29,29,30,30],"right_children":[2,4,6,8,10,12,14,16,18,20,22,24,26,28,30,32,34,36,38,40,42,44,46,48,50,52,54,56,58,60,62,-1,-1,-1,-1,-1,-1,-1,-1,-1,-1,-1,-1,-1,-1,-1,-1,-1,-1,-1,-1,-1,-1,-1,-1,-1,-1,-1,-1,-1,-1,-1,-1],"split_conditions":[9.107E1,3.174E1,1.49E2,6E0,1.24E2,1.1557E2,3.1502E2,1E-2,-1E-1,1.4512064E1,6E0,1E0,6E0,1.3562E2,1.6209E2,-2.973E1,4E0,9E0,1.1E1,1.65E2,1.2E1,4E0,9E0,1E1,8.765E1,4E0,1.4444E2,1.7221819E-1,1.2E1,7.5685663E0,5.9252046E-2,-5.3151927E0,-1.9486297E0,-7.5326484E-1,-1.5383034E0,-1.2301668E0,9.534305E-2,8.3037995E-2,-1.1699888E0,-2.2309737E-1,1.2558131E0,4.3966848E-1,-4.7215238E-1,-3.5964832E-1,-1.276132E0,1.5160055E0,3.2451153E-1,3.263786E-1,1.2416391E0,-2.2293904E-1,1.4244983E-1,7.1136606E-1,7.807755E-2,1.0649308E0,2.7940137E0,4.739943E-1,1.4238586E0,1.331305E0,3.738376E0,1.338123E0,3.43573E0,8.921335E0,1.3079857E0],"split_indices":[0,0,0,3,16,8,0,9,0,15,3,3,3,9,9,8,3,4,4,9,4,3,1,4,8,3,8,12,4,15,12,0,0,0,0,0,0,0,0,0,0,0,0,0,0,0,0,0,0,0,0,0,0,0,0,0,0,0,0,0,0,0,0],"split_type":[0,0,0,0,0,0,0,0,0,0,0,0,0,0,0,0,0,0,0,0,0,0,0,0,0,0,0,0,0,0,0,0,0,0,0,0,0,0,0,0,0,0,0,0,0,0,0,0,0,0,0,0,0,0,0,0,0,0,0,0,0,0,0],"sum_hessian":[6.9496E4,3.2557E4,3.6939E4,1.0057E4,2.25E4,3.1502E4,5.437E3,7.242E3,2.815E3,1.4744E4,7.756E3,2.0252E4,1.125E4,5.157E3,2.8E2,1.644E3,5.598E3,1.158E3,1.657E3,1.2073E4,2.671E3,7.08E3,6.76E2,3.699E3,1.6553E4,9.958E3,1.292E3,2.555E3,2.602E3,1.57E2,1.23E2,8.6E1,1.558E3,3.392E3,2.206E3,9.37E2,2.21E2,1.496E3,1.61E2,1.1878E4,1.95E2,2.214E3,4.57E2,4.954E3,2.126E3,1.41E2,5.35E2,2.701E3,9.98E2,4.358E3,1.2195E4,6.272E3,3.686E3,1.099E3,1.93E2,1.692E3,8.63E2,2.39E3,2.12E2,1.22E2,3.5E1,7.8E1,4.5E1],"tree_param":{"num_deleted":"0","num_feature":"20","num_nodes":"63","size_leaf_vector":"1"}},{"base_weights":[4.113041E-3,-1.4001922E1,5.8098383E0,-7.860632E0,-2.2255848E1,2.2894375E0,1.9039587E1,-1.195749E2,-7.6107235E0,-3.9429646E1,-2.0142313E1,-2.554194E-2,8.268165E0,1.757679E1,7.126811E1,-1.4786244E2,-1.083561E0,-1.0980625E1,-6.3188547E-1,-2.766563E1,-6.9620186E1,-2.2939394E1,-5.1213436E0,1.2293018E1,-1.2083659E0,3.6419475E0,1.2117513E1,2.1314203E1,8.081598E0,5.1344837E1,1.5801974E2,-9.3386545E0,-5.3178787E0,-6.84537E-1,-1.8912835E-1,-1.9660641E-1,8.222272E-1,-1.5003065E0,6.517834E-1,-1.9855995E0,-5.791305E0,-8.6405355E-1,-1.6001261E0,-1.8302615E-1,-2.645106E0,3.654298E-1,1.95521E0,6.536943E-3,-4.5413852E-1,4.1585824E-1,-3.0067536E-1,4.9702317E-1,1.3521284E0,9.7689456E-1,2.3604572E0,9.518465E-2,1.7040993E0,3.1196864E0,-1.2197102E0,2.172277E0,1.3546149E1],"categories":[],"categories_nodes":[],"categories_segments":[],"categories_sizes":[],"default_left":[0,0,0,0,0,0,0,0,0,0,0,0,0,0,0,0,0,0,0,0,0,0,0,0,1,0,0,0,0,0,0,0,0,0,0,0,0,0,0,0,0,0,0,0,0,0,0,0,0,0,0,0,0,0,0,0,0,0,0,0,0],"id":23,"left_children":[1,3,5,7,9,11,13,15,17,19,21,23,25,27,29,31,-1,33,35,37,39,41,43,45,47,49,51,53,55,57,59,-1,-1,-1,-1,-1,-1,-1,-1,-1,-1,-1,-1,-1,-1,-1,-1,-1,-1,-1,-1,-1,-1,-1,-1,-1,-1,-1,-1,-1,-1],"loss_changes":[5.651243E6,1.03217275E6,2.288231E6,3.2514806E5,3.145575E5,5.371136E5,7.8765075E5,6.880147E4,2.740718E5,3.35833E5,3.2499375E5,4.0764444E5,1.9285125E5,3.5633475E5,4.7756038E5,1.2434875E4,0E0,1.5325812E5,2.1399344E5,6.57405E4,3.6299512E5,3.3396025E5,8.468211E4,3.2726156E5,2.69164E5,2.221906E5,1.9182738E5,3.306275E5,4.559578E5,1.9399344E5,6.608911E5,0E0,0E0,0E0,0E0,0E0,0E0,0E0,0E0,0E0,0E0,0E0,0E0,0E0,0E0,0E0,0E0,0E0,0E0,0E0,0E0,0E0,0E0,0E0,0E0,0E0,0E0,0E0,0E0,0E0,0E0],"parents":[2147483647,0,0,1,1,2,2,3,3,4,4,5,5,6,6,7,7,8,8,9,9,10,10,11,11,12,12,13,13,14,14,15,15,17,17,18,18,19,19,20,20,21,21,22,22,23,23,24,24,25,25,26,26,27,27,28,28,29,29,30,30],"right_children":[2,4,6,8,10,12,14,16,18,20,22,24,26,28,30,32,-1,34,36,38,40,42,44,46,48,50,52,54,56,58,60,-1,-1,-1,-1,-1,-1,-1,-1,-1,-1,-1,-1,-1,-1,-1,-1,-1,-1,-1,-1,-1,-1,-1,-1,-1,-1,-1,-1,-1,-1],"split_conditions":[7.591E1,3.07E2,1.3021E2,-5.195E1,-1.157E1,1.1117E2,3.1502E2,6E0,9.21E1,1E0,6E0,2E0,1.5E1,4E0,2.3064E2,6E0,-1.083561E0,6E0,1.787718E1,9E0,1.4202E1,4E0,3.1452E1,3.282041E4,2.837257E4,4E0,6E0,1.2E1,6E0,1.4752E1,3.1502E2,-9.3386545E0,-5.3178787E0,-6.84537E-1,-1.8912835E-1,-1.9660641E-1,8.222272E-1,-1.5003065E0,6.517834E-1,-1.9855995E0,-5.791305E0,-8.6405355E-1,-1.6001261E0,-1.8302615E-1,-2.645106E0,3.654298E-1,1.95521E0,6.536943E-3,-4.5413852E-1,4.1585824E-1,-3.0067536E-1,4.9702317E-1,1.3521284E0,9.7689456E-1,2.3604572E0,9.518465E-2,1.7040993E0,3.1196864E0,-1.2197102E0,2.172277E0,1.3546149E1],"split_indices":[0,16,0,0,0,9,0,4,9,6,3,4,1,3,9,3,0,3,15,4,14,3,14,11,11,3,3,4,3,14,7,0,0,0,0,0,0,0,0,0,0,0,0,0,0,0,0,0,0,0,0,0,0,0,0,0,0,0,0,0,0],"split_type":[0,0,0,0,0,0,0,0,0,0,0,0,0,0,0,0,0,0,0,0,0,0,0,0,0,0,0,0,0,0,0,0,0,0,0,0,0,0,0,0,0,0,0,0,0,0,0,0,0,0,0,0,0,0,0,0,0,0,0,0,0],"sum_hessian":[6.9496E4,2.0365E4,4.9131E4,1.1678E4,8.687E3,3.8806E4,1.0325E4,2.5E1,1.1653E4,9.5E2,7.737E3,2.7975E4,1.0831E4,1.0045E4,2.8E2,1.9E1,6E0,7.858E3,3.795E3,6.85E2,2.65E2,6.522E3,1.215E3,2.45E3,2.5525E4,4.92E3,5.911E3,7.207E3,2.838E3,2.29E2,5.1E1,8E0,1.1E1,5.708E3,2.15E3,3.181E3,6.14E2,6.48E2,3.7E1,1.62E2,1.03E2,4.017E3,2.505E3,1.18E3,3.5E1,2.067E3,3.83E2,2.1816E4,3.709E3,3.315E3,1.605E3,5.16E3,7.51E2,6.746E3,4.61E2,2.294E3,5.44E2,2E2,2.9E1,2.6E1,2.5E1],"tree_param":{"num_deleted":"0","num_feature":"20","num_nodes":"61","size_leaf_vector":"1"}},{"base_weights":[3.858953E-3,-7.061703E0,1.0489317E1,-1.7666203E1,-2.499089E0,8.552714E0,3.340304E1,-1.0359583E1,-2.4590605E1,-4.6957493E0,2.633976E0,6.1723857E0,1.671383E1,2.712742E1,7.1747444E1,-1.4233099E1,-1.4972433E0,-2.2153105E1,-4.3445187E1,8.816819E0,-5.4683747E0,1.1496917E0,1.088846E1,1.4175797E1,4.4197364E0,1.4198729E1,4.694208E1,4.487983E1,2.0727186E1,3.4148254E1,1.50019E2,2.5291357E-2,-8.754045E-1,-1.0074877E0,1.5036924E-1,1.301844E0,-1.1388224E0,-1.8528674E0,-5.170889E0,1.7501505E-2,1.0320024E0,-1.8291484E-1,-6.486327E-1,-1.977204E-3,7.277934E-1,6.9853395E-1,-2.641406E-1,4.389742E-1,1.6277455E0,2.104729E-1,3.8719983E0,9.400188E-1,2.6210257E-1,4.0116544E0,1.241041E0,1.0031806E0,5.8412833E0,2.4971923E-2,1.5637697E0,2.9477352E-1,8.448501E0,1.0939307E1,-3.9413214E-1],"categories":[],"categories_nodes":[],"categories_segments":[],"categories_sizes":[],"default_left":[0,0,0,0,0,0,0,0,0,0,0,0,0,0,0,0,0,0,0,0,0,0,0,0,0,0,0,0,0,0,0,0,0,0,0,0,0,0,0,0,0,0,0,0,0,0,0,0,0,0,0,0,0,0,0,0,0,0,0,0,0,0,0],"id":24,"left_children":[1,3,5,7,9,11,13,15,17,19,21,23,25,27,29,31,33,35,37,39,41,43,45,47,49,51,53,55,57,59,61,-1,-1,-1,-1,-1,-1,-1,-1,-1,-1,-1,-1,-1,-1,-1,-1,-1,-1,-1,-1,-1,-1,-1,-1,-1,-1,-1,-1,-1,-1,-1,-1],"loss_changes":[5.1488045E6,2.0088694E6,1.2412318E6,6.3166425E5,3.273543E5,5.0107188E5,5.2263775E5,2.0866112E5,2.9372025E5,2.1230694E5,1.0659214E5,2.8013006E5,4.4219188E5,2.1210662E5,8.954189E5,2.0419019E5,1.5550242E5,1.7121425E5,2.7697638E5,1.1010805E5,2.6118706E5,1.17596914E5,6.616616E4,3.5557006E5,2.5130484E5,2.215995E5,3.2719688E5,8.8322625E5,2.944302E5,7.912945E5,1.0767105E6,0E0,0E0,0E0,0E0,0E0,0E0,0E0,0E0,0E0,0E0,0E0,0E0,0E0,0E0,0E0,0E0,0E0,0E0,0E0,0E0,0E0,0E0,0E0,0E0,0E0,0E0,0E0,0E0,0E0,0E0,0E0,0E0],"parents":[2147483647,0,0,1,1,2,2,3,3,4,4,5,5,6,6,7,7,8,8,9,9,10,10,11,11,12,12,13,13,14,14,15,15,16,16,17,17,18,18,19,19,20,20,21,21,22,22,23,23,24,24,25,25,26,26,27,27,28,28,29,29,30,30],"right_children":[2,4,6,8,10,12,14,16,18,20,22,24,26,28,30,32,34,36,38,40,42,44,46,48,50,52,54,56,58,60,62,-1,-1,-1,-1,-1,-1,-1,-1,-1,-1,-1,-1,-1,-1,-1,-1,-1,-1,-1,-1,-1,-1,-1,-1,-1,-1,-1,-1,-1,-1,-1,-1],"split_conditions":[1.0127E2,5.021E1,1.8E2,1E0,9.883E1,1.3693E2,1.2E1,6E0,6.0430088E1,2E0,1.5580141E1,1E0,6E0,1E0,1.8485E2,4E0,5E0,2E0,1.7654688E1,7E0,1E0,1.514E2,1.2E1,1E1,3.1502E2,4E0,1.013607E4,9E0,1.5553E2,2.0028597E-1,1E0,2.5291357E-2,-8.754045E-1,-1.0074877E0,1.5036924E-1,1.301844E0,-1.1388224E0,-1.8528674E0,-5.170889E0,1.7501505E-2,1.0320024E0,-1.8291484E-1,-6.486327E-1,-1.977204E-3,7.277934E-1,6.9853395E-1,-2.641406E-1,4.389742E-1,1.6277455E0,2.104729E-1,3.8719983E0,9.400188E-1,2.6210257E-1,4.0116544E0,1.241041E0,1.0031806E0,5.8412833E0,2.4971923E-2,1.5637697E0,2.9477352E-1,8.448501E0,1.0939307E1,-3.9413214E-1],"split_indices":[0,0,0,19,9,8,4,3,10,4,15,3,3,3,9,4,1,4,15,1,19,9,4,4,9,3,11,4,8,12,6,0,0,0,0,0,0,0,0,0,0,0,0,0,0,0,0,0,0,0,0,0,0,0,0,0,0,0,0,0,0,0,0],"split_type":[0,0,0,0,0,0,0,0,0,0,0,0,0,0,0,0,0,0,0,0,0,0,0,0,0,0,0,0,0,0,0,0,0,0,0,0,0,0,0,0,0,0,0,0,0,0,0,0,0,0,0,0,0,0,0,0,0,0,0,0,0,0,0],"sum_hessian":[6.9496E4,4.1519E4,2.7977E4,1.2489E4,2.903E4,2.5798E4,2.179E3,6.078E3,6.411E3,2.033E4,8.7E3,1.9974E4,5.824E3,1.874E3,3.05E2,4.229E3,1.849E3,5.679E3,7.32E2,1.099E3,1.9231E4,7.375E3,1.325E3,3.587E3,1.6387E4,5.378E3,4.46E2,4.95E2,1.379E3,2.07E2,9.8E1,7.69E2,3.46E3,3.59E2,1.49E3,7.2E1,5.607E3,6.63E2,6.9E1,6.41E2,4.58E2,1.5495E4,3.736E3,6.775E3,6E2,1.113E3,2.12E2,2.774E3,8.13E2,1.6341E4,4.6E1,3.552E3,1.826E3,1.77E2,2.69E2,3.69E2,1.26E2,4.73E2,9.06E2,1.72E2,3.5E1,6.8E1,3E1],"tree_param":{"num_deleted":"0","num_feature":"20","num_nodes":"63","size_leaf_vector":"1"}},{"base_weights":[4.1430183E-3,-1.0741607E1,6.2444305E0,-2.4292511E1,-7.5359616E0,3.3054857E0,1.9159515E1,8.5821843E-1,-2.6764229E1,-9.62638E0,3.005178E0,7.866866E-1,8.171072E0,1.7525322E1,6.4860374E1,-1.2965595E1,2.4260147E1,-4.7685562E1,-2.1618675E1,-4.501873E0,-1.5468216E1,-1.1529116E1,8.768983E0,5.8913765E0,-1.6808488E0,6.4540114E0,2.0566313E1,2.1044765E1,7.2610416E0,3.8409515E1,1.2149134E2,9.7680026E-1,-1.0388898E0,2.212626E0,3.143449E-1,-1.704352E0,-3.342343E0,-2.2731686E-1,-1.2276577E0,2.0953195E-1,-3.844703E-1,-5.089384E-1,-1.2775389E0,-7.980515E-2,-1.2674111E0,-2.233732E0,5.355161E-1,2.6600716E-1,2.3961227E0,-4.947432E-1,-1.492275E-2,5.1452404E-1,1.2411376E-2,8.3090794E-1,2.1727283E0,9.579169E-1,2.3373306E0,6.33157E-2,1.8412112E0,2.207139E0,-1.6284043E0,1.0869256E1,2.4539378E0],"categories":[],"categories_nodes":[],"categories_segments":[],"categories_sizes":[],"default_left":[0,0,0,0,0,0,0,0,0,0,0,0,0,0,0,0,0,0,0,0,0,0,0,0,0,0,0,0,0,0,0,0,0,0,0,0,0,0,0,0,0,0,0,0,0,0,0,0,0,0,0,0,0,0,0,0,0,0,0,0,0,0,0],"id":25,"left_children":[1,3,5,7,9,11,13,15,17,19,21,23,25,27,29,31,33,35,37,39,41,43,45,47,49,51,53,55,57,59,61,-1,-1,-1,-1,-1,-1,-1,-1,-1,-1,-1,-1,-1,-1,-1,-1,-1,-1,-1,-1,-1,-1,-1,-1,-1,-1,-1,-1,-1,-1,-1,-1],"loss_changes":[4.6602975E6,1.1089112E6,1.6687419E6,3.0363925E5,4.550375E5,4.3894647E5,6.0753825E5,1.4200925E5,4.7769675E5,5.1579688E5,2.8643666E5,2.9728816E5,2.5988638E5,2.841475E5,4.16254E5,7.048481E4,5.8292234E4,2.2623712E5,1.7879E5,2.5441633E5,4.2916262E5,1.3324419E5,2.544637E5,1.844026E5,1.8066653E5,2.5550816E5,1.3356219E5,2.8322475E5,3.5634928E5,7.997578E4,6.073396E5,0E0,0E0,0E0,0E0,0E0,0E0,0E0,0E0,0E0,0E0,0E0,0E0,0E0,0E0,0E0,0E0,0E0,0E0,0E0,0E0,0E0,0E0,0E0,0E0,0E0,0E0,0E0,0E0,0E0,0E0,0E0,0E0],"parents":[2147483647,0,0,1,1,2,2,3,3,4,4,5,5,6,6,7,7,8,8,9,9,10,10,11,11,12,12,13,13,14,14,15,15,16,16,17,17,18,18,19,19,20,20,21,21,22,22,23,23,24,24,25,25,26,26,27,27,28,28,29,29,30,30],"right_children":[2,4,6,8,10,12,14,16,18,20,22,24,26,28,30,32,34,36,38,40,42,44,46,48,50,52,54,56,58,60,62,-1,-1,-1,-1,-1,-1,-1,-1,-1,-1,-1,-1,-1,-1,-1,-1,-1,-1,-1,-1,-1,-1,-1,-1,-1,-1,-1,-1,-1,-1,-1,-1],"split_conditions":[8.379E1,1E-2,1.37E2,4E0,6E0,1.1072E2,3.1502E2,6.408E1,5E0,2.1375534E-3,6E0,2E0,6E0,4E0,2.0203E2,-3.1E0,1E0,1.4102E1,3.1701057E1,6E0,4E0,9E0,2E0,2.1536E2,7.47E1,4E0,1.3915E2,1.2E1,6E0,9.65292E3,4.112423E-2,9.7680026E-1,-1.0388898E0,2.212626E0,3.143449E-1,-1.704352E0,-3.342343E0,-2.2731686E-1,-1.2276577E0,2.0953195E-1,-3.844703E-1,-5.089384E-1,-1.2775389E0,-7.980515E-2,-1.2674111E0,-2.233732E0,5.355161E-1,2.6600716E-1,2.3961227E0,-4.947432E-1,-1.492275E-2,5.1452404E-1,1.2411376E-2,8.3090794E-1,2.1727283E0,9.579169E-1,2.3373306E0,6.33157E-2,1.8412112E0,2.207139E0,-1.6284043E0,1.0869256E1,2.4539378E0],"split_indices":[0,0,0,4,3,8,0,8,4,17,1,3,3,3,9,7,6,14,10,4,3,4,4,9,8,3,8,4,3,11,12,0,0,0,0,0,0,0,0,0,0,0,0,0,0,0,0,0,0,0,0,0,0,0,0,0,0,0,0,0,0,0,0],"split_type":[0,0,0,0,0,0,0,0,0,0,0,0,0,0,0,0,0,0,0,0,0,0,0,0,0,0,0,0,0,0,0,0,0,0,0,0,0,0,0,0,0,0,0,0,0,0,0,0,0,0,0,0,0,0,0,0,0,0,0,0,0,0,0],"sum_hessian":[6.9496E4,2.5531E4,4.3965E4,4.883E3,2.0648E4,3.5816E4,8.149E3,4.37E2,4.446E3,1.7231E4,3.417E3,2.36E4,1.2216E4,7.869E3,2.8E2,2.75E2,1.62E2,8.76E2,3.57E3,9.18E3,8.051E3,9.7E2,2.447E3,7.69E3,1.591E4,1.0731E4,1.485E3,5.859E3,2.01E3,1.92E2,8.8E1,5.3E1,2.22E2,7.6E1,8.6E1,5.14E2,3.62E2,5.24E2,3.046E3,2.463E3,6.717E3,5.282E3,2.769E3,5.65E2,4.05E2,8.5E1,2.362E3,7.588E3,1.02E2,2.291E3,1.3619E4,6.631E3,4.1E3,1.268E3,2.17E2,5.46E3,3.99E2,1.672E3,3.38E2,1.78E2,1.4E1,3.7E1,5.1E1],"tree_param":{"num_deleted":"0","num_feature":"20","num_nodes":"63","size_leaf_vector":"1"}},{"base_weights":[4.1620694E-3,-1.3687512E1,4.4762306E0,-8.407788E0,-2.0954033E1,1.4578235E-1,1.2982258E1,-2.5602688E1,-6.212238E0,-2.3852642E1,-8.466892E0,-1.5686836E0,5.680921E0,1.1062976E1,3.5995625E1,1.2630067E1,-3.0495342E1,-9.068448E0,-5.0451577E-1,-1.7885382E1,-3.2874123E1,-2.4863577E1,-5.3267136E0,5.558105E0,-2.909698E0,2.0717764E0,1.0149478E1,8.422654E0,1.7271183E1,2.5643677E1,6.9835526E1,1.023713E0,-2.1779466E0,-5.507497E0,-1.4122196E0,-5.850286E-1,-1.1015755E-1,1.4912522E-1,-9.825576E-1,-5.829208E0,-8.229027E-1,-4.682765E0,-1.5445074E0,-1.3846688E0,1.0945224E0,-4.5433995E-1,6.313531E-1,-7.2304495E-2,6.3864946E-1,-2.0678973E-1,3.469982E-1,2.6386565E-1,-8.870042E-2,3.9786863E-1,1.1599828E0,6.3147575E-1,2.2288565E-1,7.834214E-1,2.2304368E0,2.8334138E0,8.125082E-1,9.183755E0,2.1596897E0],"categories":[],"categories_nodes":[],"categories_segments":[],"categories_sizes":[],"default_left":[0,0,0,0,0,0,0,0,0,0,0,0,0,0,0,0,0,0,0,0,0,0,0,0,0,0,0,0,0,0,0,0,0,0,0,0,0,0,0,0,0,0,0,0,0,0,0,0,0,0,0,0,0,0,0,0,0,0,0,0,0,0,0],"id":26,"left_children":[1,3,5,7,9,11,13,15,17,19,21,23,25,27,29,31,33,35,37,39,41,43,45,47,49,51,53,55,57,59,61,-1,-1,-1,-1,-1,-1,-1,-1,-1,-1,-1,-1,-1,-1,-1,-1,-1,-1,-1,-1,-1,-1,-1,-1,-1,-1,-1,-1,-1,-1,-1,-1],"loss_changes":[4.25537E6,6.5629125E5,1.9296686E6,3.740415E5,2.604045E5,3.294476E5,7.8020275E5,2.1026606E5,1.4331031E5,3.1396175E5,6.978898E4,2.5333734E5,1.323871E5,2.6726812E5,4.7462925E5,5.7308777E4,1.7529081E5,1.05848125E5,1.958795E5,4.9382175E5,2.77475E5,2.9448594E4,7.714106E4,2.1216212E5,2.6944644E5,5.601457E4,1.0474719E5,1.9089581E5,2.1255062E5,3.0304056E5,9.5652325E5,0E0,0E0,0E0,0E0,0E0,0E0,0E0,0E0,0E0,0E0,0E0,0E0,0E0,0E0,0E0,0E0,0E0,0E0,0E0,0E0,0E0,0E0,0E0,0E0,0E0,0E0,0E0,0E0,0E0,0E0,0E0,0E0],"parents":[2147483647,0,0,1,1,2,2,3,3,4,4,5,5,6,6,7,7,8,8,9,9,10,10,11,11,12,12,13,13,14,14,15,15,16,16,17,17,18,18,19,19,20,20,21,21,22,22,23,23,24,24,25,25,26,26,27,27,28,28,29,29,30,30],"right_children":[2,4,6,8,10,12,14,16,18,20,22,24,26,28,30,32,34,36,38,40,42,44,46,48,50,52,54,56,58,60,62,-1,-1,-1,-1,-1,-1,-1,-1,-1,-1,-1,-1,-1,-1,-1,-1,-1,-1,-1,-1,-1,-1,-1,-1,-1,-1,-1,-1,-1,-1,-1,-1],"split_conditions":[6.831E1,3.59E2,1.1514E2,7E-2,6E0,1.8E1,2.0238E2,9.402E0,9.243E1,4E0,-2.973E1,3E0,1.0674E2,1.3645E2,1.8485E2,1.0127E2,-5.195E1,6E0,1.2E1,-2.973E1,-5.195E1,9E0,1E0,7E0,6E0,9E0,1.36E2,3.2395752E1,1.2E1,1E0,4.112423E-2,1.023713E0,-2.1779466E0,-5.507497E0,-1.4122196E0,-5.850286E-1,-1.1015755E-1,1.4912522E-1,-9.825576E-1,-5.829208E0,-8.229027E-1,-4.682765E0,-1.5445074E0,-1.3846688E0,1.0945224E0,-4.5433995E-1,6.313531E-1,-7.2304495E-2,6.3864946E-1,-2.0678973E-1,3.469982E-1,2.6386565E-1,-8.870042E-2,3.9786863E-1,1.1599828E0,6.3147575E-1,2.2288565E-1,7.834214E-1,2.2304368E0,2.8334138E0,8.125082E-1,9.183755E0,2.1596897E0],"split_indices":[0,16,0,9,3,1,0,14,9,3,0,4,9,9,9,8,0,3,4,9,0,4,6,1,3,4,8,10,4,3,12,0,0,0,0,0,0,0,0,0,0,0,0,0,0,0,0,0,0,0,0,0,0,0,0,0,0,0,0,0,0,0,0],"split_type":[0,0,0,0,0,0,0,0,0,0,0,0,0,0,0,0,0,0,0,0,0,0,0,0,0,0,0,0,0,0,0,0,0,0,0,0,0,0,0,0,0,0,0,0,0,0,0,0,0,0,0,0,0,0,0,0,0,0,0,0,0,0,0],"sum_hessian":[6.9496E4,1.711E4,5.2386E4,9.911E3,7.199E3,3.4714E4,1.7672E4,1.121E3,8.79E3,5.842E3,1.357E3,2.6505E4,8.209E3,1.6313E4,1.359E3,1.27E2,9.94E2,5.858E3,2.932E3,3.518E3,2.324E3,2.17E2,1.14E3,4.197E3,2.2308E4,4.542E3,3.667E3,1.1447E4,4.866E3,1.042E3,3.17E2,1.12E2,1.5E1,2.6E1,9.68E2,4.234E3,1.624E3,2.481E3,4.51E2,4.9E1,3.469E3,7.2E1,2.252E3,2.05E2,1.2E1,9.43E2,1.97E2,2.13E3,2.067E3,1.9839E4,2.469E3,2.477E3,2.065E3,3.141E3,5.26E2,5.553E3,5.894E3,4.598E3,2.68E2,2.41E2,8.01E2,5.9E1,2.58E2],"tree_param":{"num_deleted":"0","num_feature":"20","num_nodes":"63","size_leaf_vector":"1"}},{"base_weights":[3.934781E-3,-6.571205E0,8.447992E0,-3.0786595E0,-1.7084732E1,6.747225E0,2.7899761E1,-1.7285416E0,-1.1735765E1,-2.826515E1,-1.3922768E1,4.7785854E0,1.4724008E1,2.2991152E1,6.02069E1,-4.211797E0,2.0467017E0,-7.7963166E0,-2.1216301E1,-2.2823112E1,-4.391033E1,-1.6648455E1,-4.4541374E-1,1.1881709E1,3.2997375E0,1.2353734E1,4.418436E1,3.7900303E1,1.7606094E1,2.7382156E1,1.3176022E2,-3.022376E-1,1.5766203E-1,4.982046E-2,6.62474E-1,-3.5979733E-1,-3.4561672E0,-1.4088347E0,-5.730247E-2,4.241518E-1,-1.2450256E0,-3.2714965E0,-9.87953E-1,-5.1542056E-1,-9.993793E-1,-4.0066797E-1,7.8651536E-1,3.9746973E-1,1.6661103E0,1.5636827E-1,3.5595906E0,8.43712E-1,1.9294037E-1,3.954687E0,1.0738589E0,8.9779407E-1,4.98931E0,3.3606563E-2,1.3159279E0,1.7639622E-1,8.194747E0,9.901199E0,-5.3919953E-1],"categories":[],"categories_nodes":[],"categories_segments":[],"categories_sizes":[],